,0,1,2,3,4,5,6,7,8,9,10,11,12,13,14,15,16,17,18,19,20,21,22,23,24,25,26,27,28,29,30,31,32,33,34,35,36,37,38,39,40,41,42,43,44,45,46,47,48,49,50,51,52,53,54,55,56,57,58,59,60,61,62,63,64,65,66,67,68,69,70,71,72,73,74,75,76,77,78,79,80,81,82,83,84,85,86,87,88,89,90,91,92,93,94,95,96,97,98,99
../data/family-benchmark_rich_background.owl,0.1335717,-0.0781491,-0.034498043,0.12128108,0.04942776,0.090003654,-0.07458636,-0.07465799,-0.043501478,-0.090316124,0.11777189,-0.11902288,-0.051484607,-0.07856502,-0.049079753,0.10657813,-0.03574754,0.08500905,-0.08719513,0.09713691,-0.062182266,-0.091539025,0.11274584,0.028089728,-0.06418013,-0.11401877,0.089761406,-0.065149195,0.05723855,0.03762677,-0.07182459,-0.04212197,0.134296,0.099836744,0.14974338,-0.12613648,-0.10080363,-0.029592946,-0.001673474,-0.039562546,0.10543603,0.074334666,0.1590281,0.03292517,-0.12464381,-0.085236944,0.04499052,0.07994493,-0.0907468,0.10003867,-0.024138775,0.18104091,-0.020965742,-0.1669915,-0.06722611,-0.08884815,-0.13998799,-0.018861985,0.044009533,-0.07088343,-0.1285737,-0.11784449,0.012101485,0.092939705,0.13903248,-0.09258569,0.118378624,-0.070060335,-0.013929893,0.111587465,-0.08773956,0.093058124,-0.07204859,0.14675725,-0.17877825,0.07927077,0.06854828,0.15771551,0.0490545,0.074882716,0.04421238,-0.06689634,-0.10904065,-0.16550604,-0.11161143,0.111578114,0.1138581,-0.124635674,0.0058206697,-0.06796443,0.046168614,0.1277843,0.04026635,-0.012869502,-0.03373499,0.15892133,-0.11376555,-0.052632593,0.030363997,0.068553165
../data/family-benchmark_rich_background.owl#(∃hasChild.Thing),0.062461525,-0.027660243,-0.041140042,0.06521451,0.11354448,-0.0028036542,-0.06937985,-0.04916125,-0.06274213,-0.16712244,0.12558937,-0.05190488,0.0067350254,0.04656044,-0.12804885,0.048118267,0.013186707,0.1353611,-0.069045685,0.003354846,-0.08685362,0.008602884,0.09951742,-0.049802832,-0.039198212,-0.067460306,0.050394222,0.06652741,0.059297465,-0.060922943,-0.099496484,-0.0828871,0.035693765,0.0047227666,0.1005383,-0.047928333,-0.09754101,0.022814468,-0.13941905,-0.045485653,0.109981656,0.023662558,-0.053130243,0.09179191,-0.091043696,0.0092237545,0.10970912,0.0072104814,-0.07190985,0.12337651,-0.06172583,0.07004501,0.02702602,-0.05745065,-0.04353885,-0.04613759,-0.022150103,0.05699876,0.04271138,-0.1401811,-0.044193596,-0.09328661,-0.037072483,0.07405305,0.1402362,-0.0430756,0.08431539,-0.114966325,-0.010631827,0.07138811,0.015981691,0.13845626,-0.051346723,0.10403645,-0.10239412,0.15433471,-0.0032643313,0.071115494,0.086963765,0.11875644,0.04412223,-0.04868734,-0.0034652527,-0.035455294,-0.108587965,0.04462983,0.047792703,0.001959791,0.04687192,-0.082017876,0.103668556,0.036390137,0.13739656,0.06834273,-0.032835346,0.0902747,-0.067202955,-0.12755288,-0.09872474,-0.004747848
_:1,0.09149553,-0.0241408,-0.12009496,0.10209668,-0.019762559,0.04456521,-0.050742634,-0.025361171,0.0011860623,-0.045380753,0.08587899,-0.05632928,-0.14057457,-0.09494209,-0.011222891,0.06639089,-0.09863184,0.03242266,-0.043517318,0.13229966,-0.08214131,-0.06696255,0.08985608,-0.09336708,-0.06626763,-0.057495475,0.11445422,0.11379315,0.09482202,-0.020457223,-0.020850625,-0.0047015613,0.046595886,0.10317327,0.021717425,-0.068968736,-0.037754286,-0.030232092,-0.06256669,-0.048615515,0.038089406,0.04257526,-0.08752494,0.061444864,-0.13180941,-0.1052226,0.041693043,0.0056430013,-0.09954338,0.034902174,-0.08947975,0.08095782,0.09885946,-0.078917205,-0.124184445,-0.11908324,-0.12714967,0.112492,0.0995645,-0.03663804,-0.103678204,-0.031316526,0.10792941,0.032865915,0.063526556,-0.08814894,0.047810562,-0.029585073,-0.0059227827,0.045209557,-0.073277116,0.10101235,-0.06180295,0.026708366,-0.11031635,0.044660293,0.08341705,0.14592975,0.048323963,0.06163821,0.042540167,-0.07176599,-0.13016227,-0.03268907,-0.12915798,0.06657427,0.043084122,-0.05171206,0.080110624,-0.054892994,0.032581363,0.10114036,0.048313994,0.11292644,-0.07241236,0.08017337,-0.08731778,-0.035341825,-0.07586779,0.10662101
_:10,0.096781835,-0.049492527,-0.1448727,0.09867129,0.024870308,0.06921909,-0.039107233,-0.036233142,-0.028096773,-0.029558163,0.096358374,-0.073963985,-0.13163361,-0.11093138,-0.03658816,0.13819602,-0.11425744,0.05910038,-0.045274507,0.13402495,-0.0075699324,-0.05726492,0.1316934,-0.099597454,-0.035797767,-0.0012667957,0.11390954,0.10729952,0.10877216,-0.04929457,-0.03318335,-0.044373948,0.037532035,0.13116425,0.0433126,-0.0634257,-0.079464085,-0.053668607,-0.036716197,-0.026723327,0.04943635,-0.008497437,-0.03155401,0.07170779,-0.08457275,-0.085341446,0.07566738,0.09921135,-0.078548595,0.03093372,-0.09967747,0.05250118,0.07624963,-0.0020405576,-0.15405092,-0.11169835,-0.09659493,0.078055866,0.12849684,-0.05056468,-0.013161367,-0.062168933,0.11422688,0.022808703,0.04602386,-0.106263734,0.041166924,-0.08177759,-0.03934581,0.022911469,-0.08135039,0.112002656,-0.030058818,0.038364246,-0.07800837,0.052119017,0.06625276,0.05525979,0.09471782,0.034369953,0.051965844,-0.101844475,-0.1018953,-0.029350065,-0.13983463,0.121408425,0.07869802,-0.059473306,0.05299592,-0.051809825,0.034232225,0.10556927,0.009418501,0.087969296,-0.09085568,0.07222945,-0.083813906,-0.027506847,-0.06543415,0.06283592
_:100,0.19487724,-0.04303736,-0.046078645,0.083909005,0.023691487,0.14231871,-0.05485851,-0.08127831,-0.066068344,-0.14784724,-0.012031689,-0.04079948,0.0100965975,-0.18827043,-0.044813365,0.02975044,-0.005067531,0.09576772,-0.15823461,0.067003116,-0.019698894,-0.081921406,0.08610912,-0.065455064,-0.18197908,-0.12808412,0.07036543,0.028637841,0.07513909,-0.060283627,-0.08111708,-0.058085535,0.13853116,-0.0281056,0.08517185,-0.10328512,-0.03574079,-0.14760691,-0.027676826,-0.15968828,0.013575682,0.041435115,0.02636849,0.049139313,-0.15747178,-0.1706789,0.02647235,-0.026960636,-0.002908687,0.03870168,-0.019787896,0.06028773,0.15762019,-0.118646465,-0.04201076,0.025429178,-0.084285975,0.025275027,0.12682293,-0.13929978,-0.0009999727,-0.20727776,-0.0074093137,0.13592763,0.11162601,-0.099740036,0.072966166,0.04778634,0.024414742,0.1166881,-0.0629561,0.16526476,0.019258723,0.14172117,-0.16975524,0.14592764,0.12412313,0.022780458,0.099641815,0.043589115,0.046108734,-0.14689416,-0.014923756,-0.1793328,-0.0059280014,0.115351744,0.10010097,0.0285914,0.08503178,-0.13781133,0.13333394,0.14477277,0.012232437,0.045306236,-0.019509256,0.14352268,-0.1147906,-0.03552903,-0.05209295,0.17945856
_:101,0.13875008,-0.05366065,-0.057856787,0.04690546,0.038427934,0.18261516,-0.0854151,-0.050928645,-0.0609254,-0.1399146,0.03439521,-0.09148423,0.028909193,-0.17859843,-0.031969566,0.038919304,0.022799494,0.054598987,-0.15052798,0.04965415,-0.06635802,-0.101893865,0.06148719,-0.049578913,-0.14914209,-0.14538297,0.08649375,0.028159399,0.1611054,-0.071996264,-0.05725368,-0.029719759,0.15320867,-0.0038413703,0.14816418,-0.114305906,-0.056868624,-0.16713554,0.008836424,-0.12160489,0.021430384,0.026800387,0.042731725,0.04333192,-0.16948718,-0.12200788,0.031341046,-0.027353223,-0.040095184,0.05028781,-0.024733286,0.043932248,0.12626818,-0.12844844,-0.039575573,-0.049967702,-0.05821405,0.014945919,0.11831356,-0.11647048,-0.019943286,-0.17389925,-0.00029546465,0.06416751,0.09847116,-0.07043758,0.15030855,0.0031941482,0.04244657,0.14769642,-0.1284728,0.10801101,0.035316173,0.10794458,-0.13100071,0.14967738,0.10013537,0.070353016,0.16052647,0.024668263,0.0020596103,-0.1417545,-0.046784982,-0.15642239,-0.03618548,0.07570308,0.1054188,-0.009623988,0.16596653,-0.12591109,0.186608,0.15383516,0.061469678,0.04977716,-0.012901043,0.15067258,-0.115863904,-0.0012252446,-0.054637536,0.19883317
_:102,0.066395566,-0.078645766,-0.139056,0.09937424,0.05239978,0.06517929,-0.035606634,-0.02120058,-0.0034895798,-0.012859907,0.12515962,-0.034129664,-0.094563305,-0.056225754,-0.09993975,0.09861812,-0.08363396,0.046897817,-0.044856936,0.12266261,-0.12731092,-0.10321816,0.11718409,-0.09848883,-0.06492492,-0.07227789,0.08122561,0.0801549,0.10768205,-0.056562755,-0.046049733,-0.04245156,0.00610038,0.1053521,0.019853406,-0.05735405,-0.053082053,-0.03013651,-0.082927264,0.0055383635,0.053104997,0.08248442,-0.09169592,0.021567274,-0.08303488,-0.043903317,0.082496494,0.081095584,-0.06600289,0.05984869,-0.101345085,0.07509688,0.07615055,-0.04136873,-0.10384465,-0.14547345,-0.12042074,0.050322976,0.13787204,-0.050695475,-0.042201564,-0.08752677,0.10159602,0.08472999,0.022479858,-0.08250105,0.07011937,-0.054964747,-0.044466488,0.03436437,-0.05451584,0.13744487,-0.023430552,0.07985708,-0.11765664,0.044666823,0.07981552,0.10550944,0.07955702,0.036748264,0.079084754,-0.068663545,-0.0992824,-0.038369287,-0.13380979,0.10204117,0.07280451,-0.08396231,0.08960641,-0.039392613,0.10874845,0.09207668,0.025840757,0.07423032,-0.026417853,0.07057349,-0.09541084,-0.037865214,-0.111057,0.09595726
_:103,0.16333325,-0.040235676,-0.022287317,0.11806681,0.021882217,0.1348741,-0.07349843,-0.10198479,-0.053172212,-0.12533712,0.001597351,-0.050900996,0.006205423,-0.17738551,-0.039245754,0.018313544,0.009769693,0.09677188,-0.13655967,0.039939776,-0.02120064,-0.07117548,0.063347824,-0.042197224,-0.20347814,-0.13215113,0.091337204,0.024623632,0.14057474,-0.10077478,-0.11743126,-0.037335876,0.114955164,-0.0107054515,0.11087175,-0.15481576,-0.0030492016,-0.15666902,0.006864967,-0.16939375,0.031329434,0.027216604,0.040724546,0.049309082,-0.13033621,-0.1582952,0.03148406,-0.037923474,-0.0006589283,0.03500999,-0.038518738,0.038355816,0.15654925,-0.08307343,-0.040923793,-0.03288405,-0.09739898,0.015902596,0.15987904,-0.13774236,-0.027366024,-0.18487568,-0.0035376542,0.12348886,0.07627275,-0.10103392,0.081229426,0.05972137,0.033337604,0.15931353,-0.14133261,0.19917504,0.010154133,0.16999431,-0.14734805,0.1565824,0.117137246,0.012588247,0.15834713,0.04083085,0.027603095,-0.1518906,-0.02165513,-0.1473703,0.011856456,0.10729517,0.09757876,0.019213777,0.10290926,-0.13396928,0.12667619,0.13797097,0.02996725,0.048621573,-0.026794894,0.1334386,-0.07905194,-0.036189824,-0.055318385,0.16472025
_:104,0.14125554,-0.05139992,-0.04340078,0.0866268,0.039858688,0.13385363,-0.0686636,-0.079294674,-0.063065946,-0.1586623,0.028396327,-0.0435394,0.030253535,-0.18437688,-0.045696236,0.019152896,0.0074356166,0.09081308,-0.15471646,0.08616578,-0.009670616,-0.061770044,0.07656845,-0.06475034,-0.11657411,-0.17082797,0.077215,0.049648307,0.15952805,-0.08296748,-0.07185739,-0.046710297,0.1588391,-0.0051031,0.14526957,-0.13462164,-0.03395413,-0.11767296,-0.04105215,-0.13161692,0.022453422,0.040045895,0.04854637,0.03030992,-0.15507151,-0.13293493,0.038964372,-0.00685572,-0.01849384,0.05366802,-0.008138693,0.04502501,0.1471247,-0.06195117,-0.027423684,-0.029780878,-0.060476437,0.016062096,0.14892913,-0.12056081,-0.034515243,-0.15738718,-0.022587398,0.10278329,0.10313528,-0.053611733,0.15487063,0.025701107,0.035645574,0.16146529,-0.12945285,0.17100927,0.055200316,0.17767356,-0.13643068,0.13037774,0.1417061,0.066196814,0.13681144,0.020823644,-0.0253422,-0.13954273,-0.011974692,-0.13517043,-0.06414282,0.14818132,0.1302453,-0.051517032,0.15776122,-0.12284383,0.19405669,0.14397332,0.04232919,0.02290569,-0.053108584,0.15041555,-0.08889109,0.023634661,-0.028273193,0.13920572
_:105,0.07435506,-0.07203065,-0.13684037,0.07485387,0.05563748,0.071077645,-0.04098467,-0.0031038504,0.0027456575,-0.018931016,0.10464933,-0.05493473,-0.12597917,-0.057964135,-0.10542101,0.13248967,-0.058303542,0.039169785,-0.036049087,0.10317578,-0.076808944,-0.11079226,0.09473897,-0.09923761,-0.06352896,-0.07111348,0.08764344,0.07667682,0.09745915,-0.05496815,-0.056778856,-0.059713043,0.008487614,0.09212051,0.04809051,-0.07821336,-0.02957037,-0.030202726,-0.084261,-0.003809501,0.032791108,0.07179355,-0.11353207,0.014026319,-0.100422055,-0.052495744,0.081924155,0.09229361,-0.043314733,0.07554998,-0.09309486,0.08176154,0.10640157,-0.06524737,-0.10358653,-0.14825131,-0.15860637,0.053236566,0.12062314,-0.0755143,-0.053802993,-0.08008623,0.096840166,0.0692294,0.038526583,-0.06401726,0.07476003,-0.047152076,-0.057924345,0.023366846,-0.057239667,0.089751236,-0.048442554,0.07571727,-0.12529527,0.035104025,0.07247352,0.092378415,0.07812522,0.019529343,0.10213691,-0.07657934,-0.08967538,-0.0357879,-0.069840066,0.1035464,0.06760576,-0.08516573,0.07562177,-0.04528964,0.099794775,0.102296576,0.020421153,0.094212875,-0.076454304,0.0803973,-0.091774635,-0.036838483,-0.12893692,0.07012036
_:106,0.1209917,-0.037292413,-0.03933992,0.07281428,0.027539711,0.10558341,-0.06484222,-0.078943014,-0.050280705,-0.16291422,0.004801621,-0.05380617,0.0031118675,-0.18810576,-0.031210685,0.039917342,0.0012296066,0.07537639,-0.15062824,0.036285136,-0.014982845,-0.091274224,0.06812273,-0.04942883,-0.18581705,-0.14576274,0.067146204,0.04315339,0.17587665,-0.06898174,-0.08301761,-0.050362606,0.1792576,0.0042062528,0.11221595,-0.12718377,-0.03082912,-0.12463362,-0.007048134,-0.14778304,0.012287642,0.045740828,0.022064973,0.05784021,-0.17259642,-0.09986442,0.028857816,-0.03550561,0.019926844,0.03546128,-0.022902578,0.05151771,0.14704497,-0.12284211,-0.045220573,0.04830874,-0.082559526,0.017025279,0.1838741,-0.119927086,-0.0118684145,-0.20410097,-0.0037812733,0.1420804,0.107638724,-0.08405119,0.11353789,0.053326838,0.031504165,0.18529244,-0.13174506,0.15789878,0.011592963,0.097661264,-0.14418158,0.0941594,0.11694128,0.040395223,0.09039536,0.046005614,0.034731988,-0.075017735,-0.027203929,-0.17087823,-0.0006992007,0.118241064,0.11603571,0.021690927,0.13071108,-0.13819903,0.16077976,0.18153758,0.05369697,0.046360984,-0.034123994,0.15712361,-0.06290087,-0.038103316,-0.04996902,0.19974637
_:107,0.16833176,-0.06685623,-0.029098846,0.050415944,0.039817393,0.15099935,-0.085244164,-0.03781986,-0.04889171,-0.13498285,0.03353612,-0.05873708,-0.07323216,-0.22045857,-0.03831524,0.06346485,0.0031596294,0.03773003,-0.13000943,0.05793275,-0.054048475,-0.10086445,0.090410605,-0.05413466,-0.17975317,-0.1520264,0.06801336,0.030429259,0.18920428,-0.08468406,-0.04841001,-0.013361781,0.20792614,-0.0054736263,0.055531703,-0.14639062,-0.043982413,-0.11676944,0.0066187414,-0.14893349,0.023500983,0.04771927,0.02229766,0.040923472,-0.16087514,-0.11976977,0.023301404,-0.010350818,-0.022241302,0.035116244,-0.025217997,0.033309337,0.117992654,-0.096131064,-0.052925523,-0.039237343,-0.10938913,0.028968565,0.20713785,-0.09386388,0.030379001,-0.22903301,-0.026654353,0.12002939,0.10482527,-0.09675243,0.07509854,-0.00060047355,0.064936645,0.18729939,-0.09933426,0.13076633,0.05850416,0.11711262,-0.09221289,0.11250118,0.13153899,0.08282991,0.09379849,0.00042340576,-0.018989028,-0.1460573,-0.053861316,-0.19100879,-0.013762688,0.058073293,0.11006381,-0.03697201,0.16286162,-0.14016047,0.20905456,0.11547857,0.033657093,0.022440907,-0.019129505,0.11259083,-0.10302028,-0.07254527,-0.040918365,0.18621463
_:108,0.08472091,-0.060200706,-0.14481448,0.11186513,0.06369751,0.066162385,-0.02433281,-0.010722625,-0.027186424,-0.013110581,0.095371105,-0.039354954,-0.13021909,-0.057375986,-0.083786406,0.098619446,-0.04795507,0.04134247,-0.06782664,0.13685785,-0.11712778,-0.112770595,0.08651047,-0.06860961,-0.114399455,-0.04620711,0.083974384,0.072329864,0.085453875,-0.07994204,-0.045524213,-0.053795714,-0.0024168042,0.09996584,0.020588817,-0.070385486,-0.038007773,-0.030544676,-0.101059586,0.0022589802,0.050514735,0.07875229,-0.1623786,0.00362153,-0.11862491,-0.06750464,0.04369098,0.109900855,-0.07220531,0.050878223,-0.10226872,0.08475058,0.08695744,-0.041511264,-0.08902012,-0.06853699,-0.1393681,0.05148075,0.10078854,-0.08256218,-0.050810676,-0.09131501,0.047971517,0.10117489,0.010034261,-0.09686379,0.06471966,-0.07836976,-0.017165108,0.01999368,-0.029518442,0.13378118,-0.031796534,0.07452684,-0.06648121,0.01797861,0.094194755,0.11041885,0.059214544,0.007259188,0.08337289,-0.08545486,-0.13498104,-0.058196597,-0.17490019,0.113091566,0.06445057,-0.09899232,0.09009056,-0.046555474,0.09422888,0.069835775,0.02341881,0.08457218,-0.0804819,0.0759492,-0.08762953,-0.059846394,-0.0733743,0.05693086
_:109,0.1655134,-0.043052565,-0.050764196,0.07441849,0.022221677,0.16442487,-0.05907155,-0.06569685,-0.06363544,-0.16731472,0.0026505515,-0.068114914,0.013877475,-0.1852551,-0.052289076,-0.015437362,0.019129973,0.045309763,-0.17222345,0.055244155,0.013013978,-0.098433256,0.09339481,-0.059249897,-0.2177445,-0.1325912,0.06843455,0.057752077,0.1529964,-0.040316384,-0.09495708,0.005413089,0.13311844,-0.018940847,0.11244041,-0.15398453,-0.0003200002,-0.08369941,-0.014711059,-0.18499954,0.02155132,0.05567184,-0.01933138,0.04194313,-0.1601234,-0.14401731,0.05772197,-0.058320597,-0.012488347,0.03280984,-0.023134563,0.031237774,0.15359357,-0.10750327,-0.0415324,-0.0063579543,-0.09361195,0.025296563,0.15853612,-0.1169131,-0.01643084,-0.14569092,-0.018245151,0.14158553,0.108968206,-0.1088442,0.13477804,0.051624082,0.011104249,0.15333544,-0.09082469,0.1347067,0.0074061467,0.068813525,-0.13078034,0.15478148,0.13422482,0.04368006,0.13686104,0.011128585,0.037697863,-0.1329456,-0.04345015,-0.10779669,-0.007771568,0.11398581,0.08367023,0.005620994,0.12841922,-0.13021286,0.11646859,0.13622548,0.04628659,0.07156436,-0.014175415,0.11315573,-0.11448036,-0.012187691,-0.05735615,0.20333001
_:11,0.089338034,-0.051066402,-0.15772681,0.1282851,0.020710336,0.08475907,-0.060493313,-0.04625995,-0.03652078,-0.025715454,0.14383303,-0.07489103,-0.113522135,-0.11691841,-0.049761917,0.1654423,-0.089937024,0.050091892,-0.06685375,0.13281552,-0.028030429,-0.051728703,0.1188463,-0.1099011,-0.020298084,-0.011219315,0.14103448,0.087664776,0.122163825,-0.026470546,-0.034719132,-0.042711124,0.05774357,0.10358801,0.04511799,-0.08370628,-0.09761641,-0.041555673,-0.07451351,-0.043770898,0.032266814,0.014851371,-0.08038238,0.043035563,-0.08276302,-0.086303174,0.059293143,0.05341369,-0.03724924,0.0330035,-0.10681577,0.077418245,0.07695444,0.0048991684,-0.10756757,-0.039440744,-0.07545224,0.084466845,0.09202911,-0.060554095,-0.021410968,-0.0499574,0.097914405,0.031952232,0.057893567,-0.09929703,0.0425099,-0.041473955,-0.10159617,0.028329814,-0.05565326,0.088025115,-0.0012372925,0.038975623,-0.1051923,0.02742936,0.075397305,0.034285713,0.099660754,0.027177474,0.05945644,-0.06043598,-0.17461371,-0.02443336,-0.15436535,0.09435562,0.05059408,-0.06516556,0.06927836,-0.053188793,0.03458614,0.08771493,0.008802239,0.09535972,-0.05724683,0.08846614,-0.10532821,-0.048360877,-0.06342405,0.09249863
_:110,0.1693198,-0.05443761,-0.06488643,0.078697376,0.032694783,0.15316631,-0.056410126,-0.08753036,-0.07310041,-0.13224886,0.0319943,-0.061704304,0.040363602,-0.17220601,-0.01928153,0.03807906,-0.030975929,0.08821145,-0.10776164,0.0438025,-0.030808425,-0.08064449,0.04093622,-0.05201642,-0.1520406,-0.16635966,0.07743178,0.034354724,0.1729435,-0.08957555,-0.0914098,-0.05110977,0.13103575,-0.0026076285,0.124474,-0.12157405,-0.05363192,-0.1754258,-0.023293236,-0.13100135,0.030123517,0.027351702,0.016447833,0.037504666,-0.1387413,-0.16623162,0.026750103,-0.0012780083,-0.04248828,0.027962118,-0.033251848,0.056783844,0.11679064,-0.13378572,-0.04233328,-0.0017844153,-0.027159229,0.011384289,0.14886206,-0.112508275,0.013588624,-0.18207839,-0.034470413,0.11314136,0.09345993,-0.09218518,0.10687858,0.021161297,0.034882855,0.1287269,-0.11662019,0.16675405,0.048274044,0.17315854,-0.1437335,0.14342377,0.1427016,0.07081894,0.14814128,0.012147682,0.023806851,-0.1579827,-0.05701969,-0.08199642,-0.028652426,0.16136654,0.1232975,-0.04290727,0.16993447,-0.12504047,0.18753137,0.15376915,0.0035706267,0.043412138,-0.0049670907,0.14050925,-0.10328005,0.03052366,-0.036707956,0.18671659
_:111,0.08243403,-0.07443905,-0.12808746,0.08576635,0.04903235,0.07049912,-0.039544933,-0.009556909,-0.03812904,-0.009127692,0.105926886,-0.008370591,-0.10572947,-0.060407173,-0.12028448,0.119972244,-0.06747649,0.04244812,-0.044074316,0.11638145,-0.073634,-0.11834015,0.10575794,-0.10487132,-0.060554475,-0.06663673,0.118250065,0.076660834,0.116922975,-0.044732686,-0.05731601,-0.057267416,0.009025843,0.08653209,0.030308638,-0.072278865,-0.06713183,-0.039615482,-0.048834223,-0.017171007,0.03438131,0.10090279,-0.12967473,0.036121808,-0.12757145,-0.050057326,0.05591001,0.093895964,-0.08322113,0.05658435,-0.072260365,0.08757094,0.070198864,-0.07112999,-0.114004284,-0.10106326,-0.115470596,0.052941453,0.13890739,-0.05992554,-0.065656684,-0.078384385,0.08254096,0.08852706,0.033369076,-0.06791978,0.075754836,-0.083458774,-0.031901453,0.029054219,-0.0421842,0.13268583,-0.052724913,0.08427565,-0.107950106,0.045431662,0.0723262,0.11183853,0.066701524,0.017854946,0.08719365,-0.07277672,-0.10244441,-0.029018277,-0.13949019,0.09884688,0.0559575,-0.08249971,0.078239426,-0.04582546,0.095956504,0.10591037,0.028071351,0.08493868,-0.05036587,0.07931903,-0.07405004,-0.04110009,-0.120386034,0.06335865
_:112,0.16372065,-0.033389494,-0.031071117,0.1154861,0.017558025,0.16887246,-0.049745195,-0.10553384,-0.027167061,-0.16445841,0.008002039,-0.053978484,0.011253415,-0.16977072,-0.039898217,-0.00096299505,-0.0017525095,0.108347885,-0.14124122,0.014235512,-0.018067157,-0.067046806,0.060021333,-0.048681233,-0.17337999,-0.13911706,0.054616217,0.03551949,0.17157537,-0.08821906,-0.11828127,-0.033944998,0.10713898,0.01192022,0.11955553,-0.13100572,-0.026388263,-0.13313574,-0.019923776,-0.20435193,0.02577983,0.049379814,0.035533592,0.0460533,-0.16036321,-0.14961225,0.037123308,-0.032832474,0.011543243,0.020660024,-0.02501753,0.051273428,0.14400671,-0.12654582,-0.037318878,0.012937297,-0.07448952,0.017612927,0.1627318,-0.17533429,-0.035937,-0.14420769,0.017862976,0.110182635,0.09225422,-0.09064894,0.10097937,0.032554545,0.035120144,0.13966985,-0.13832131,0.16055952,0.018884046,0.108745016,-0.11650272,0.12151238,0.11156176,0.02107759,0.19646706,0.0022439423,0.020210285,-0.15353894,0.0008373128,-0.14275844,-0.008022599,0.124670275,0.11754522,0.023648778,0.15983306,-0.12836103,0.13965029,0.13917287,0.058572255,0.035182912,-0.044698145,0.16573897,-0.09599221,-0.020356985,-0.05478537,0.19164346
_:113,0.13077065,-0.05740723,-0.017401716,0.04683984,0.08044911,0.109444946,-0.08343156,-0.0293955,-0.01952623,-0.13615099,-0.017702268,-0.114127584,0.048893783,-0.18117741,-0.02551063,0.078409426,-0.014229113,0.048587367,-0.12705152,0.07782394,-0.050886404,-0.041573424,0.109626986,-0.05458495,-0.12614186,-0.10199137,0.09196065,0.038865436,0.16636509,-0.06761363,-0.04120894,-0.012555666,0.16861872,-0.027032105,0.18113427,-0.15691654,-0.03721269,-0.1163212,0.011024951,-0.16438615,0.023232333,0.063207336,-0.0120104095,0.029346291,-0.11838469,-0.09187756,0.042588558,-0.031411994,-0.046796743,0.074568056,-0.0052615236,0.035206053,0.13723373,-0.09268449,-0.08406733,-0.039292127,-0.07702905,0.043056574,0.09728506,-0.093722194,-0.01951673,-0.07779236,-0.00707297,0.19035923,0.10535275,-0.0724611,0.07727543,-0.00085003045,0.07617371,0.19555785,-0.12015624,0.12537467,0.048696797,0.13614266,-0.14652121,0.17765728,0.12095455,0.0895937,0.17088197,-0.005499578,0.010360565,-0.088662356,-0.066040605,-0.16673897,-0.033356663,0.15583318,0.11256111,0.0026501878,0.16823289,-0.1107368,0.16618852,0.077661954,0.011068905,0.056708537,-0.043986574,0.12658444,-0.13775846,-0.018213302,-0.06802288,0.19415604
_:114,0.0730076,-0.07281763,-0.13722226,0.08112325,0.07589149,0.053078674,-0.042779215,-0.0071930387,0.022581082,-0.030520666,0.14559585,-0.062000513,-0.122144304,-0.065318875,-0.10895596,0.014980116,-0.11552096,0.04077174,-0.05561167,0.12833127,-0.11038705,-0.0851811,0.122536704,-0.10649529,-0.06796897,-0.086956784,0.10515074,0.074608624,0.10473791,-0.05733747,-0.056117315,-0.048878066,-0.0038659715,0.08519052,0.036604635,-0.07023562,-0.05690493,-0.04615145,-0.0545858,0.008086365,0.024247495,0.047908284,-0.13424489,0.028688736,-0.12177662,-0.03630126,0.110334195,0.044085775,-0.04812075,0.059861735,-0.07877561,0.085226476,0.09316396,-0.06594582,-0.0919129,-0.14779443,-0.11301784,0.043824695,0.10494219,-0.072950505,-0.035450343,-0.07020336,0.09081671,0.08409527,0.020487096,-0.109716,0.07577593,-0.07907163,-0.027709192,0.03516726,-0.04510596,0.08444916,-0.045780387,0.07763004,-0.124519795,-0.0023917921,0.08657213,0.11390354,0.095422365,0.0115035875,0.11825578,-0.09536801,-0.113502495,-0.055376727,-0.15829617,0.10534508,0.08057075,-0.06892276,0.07350749,-0.039259512,0.09428834,0.08155979,0.029388003,0.072230965,-0.0628643,0.073901705,-0.07314153,-0.0585557,-0.1211973,0.067962706
_:115,0.13012977,-0.040192906,-0.028347118,0.1066541,0.025112804,0.14520979,-0.012951226,-0.09193706,-0.058450386,-0.1515997,0.011307848,-0.057087906,-0.00693618,-0.17759633,-0.0438003,-0.017041337,-0.014512082,0.08597488,-0.13414216,0.012203233,-0.0075497455,-0.039189234,0.059226133,-0.0452068,-0.19328882,-0.1556049,0.06773171,0.044518203,0.14919323,-0.0822881,-0.10563275,-0.031214945,0.14365715,-0.0061288937,0.12107524,-0.17403129,-0.013029465,-0.1621737,-0.03882117,-0.17192914,0.030164309,0.06566067,0.033221453,0.054170266,-0.18970516,-0.141778,0.04950418,-0.04584595,-0.0049407203,0.033118498,-0.026131649,0.05891193,0.15423226,-0.11650094,-0.032824814,0.0010222857,-0.069190875,0.016223652,0.17789623,-0.1780268,-0.031763073,-0.14981546,0.008386608,0.09378327,0.09958384,-0.097708575,0.1289861,0.039479412,0.036791757,0.15264681,-0.13860798,0.10573543,0.0006507298,0.1608675,-0.14811726,0.13259082,0.113583565,0.04007076,0.17579083,0.011537599,0.016225567,-0.17432244,0.027591323,-0.1246461,-0.0057926765,0.12790449,0.11103845,0.028575955,0.13636482,-0.12084339,0.15120558,0.15048239,0.059479482,0.05237408,-0.030767519,0.13552862,-0.090588175,-0.012068647,-0.053746413,0.16760124
_:116,0.12754403,-0.054208167,-0.062910765,0.032518838,0.056099616,0.16719952,-0.08209664,-0.027585516,-0.045740213,-0.1492886,0.05211137,-0.09556566,-0.01015278,-0.20019391,-0.03311209,0.07500432,0.00086492713,0.05760265,-0.122861356,0.07213744,-0.02642782,-0.10842174,0.10026607,-0.04105787,-0.07565272,-0.19991982,0.08100392,0.059860196,0.20536792,-0.06225664,-0.04178635,-0.026022464,0.16079946,-0.006265436,0.15914655,-0.13587566,-0.061541263,-0.13731039,-0.041964665,-0.12787482,0.03364808,0.068962775,0.036187317,0.041272763,-0.19996873,-0.101308316,0.026830569,-0.0003262798,-0.010309641,0.039504074,0.008561316,0.04622427,0.12374317,-0.110275336,-0.049077854,-0.042284496,-0.08016243,0.030944597,0.10920785,-0.08922707,-0.0046547963,-0.18311359,0.004258169,0.10378136,0.0902322,-0.10929523,0.14832057,-0.02641135,0.052275587,0.17753017,-0.114869826,0.17831224,0.018162427,0.17179576,-0.093580075,0.05042979,0.12568533,0.07937887,0.032204457,-0.017473033,-0.037184864,-0.13639893,-0.028675366,-0.1165965,-0.017614335,0.14336775,0.0923078,-0.05867254,0.16433412,-0.117618516,0.1463823,0.18313205,0.020514855,0.033955883,0.0017908431,0.106644206,-0.11592201,0.03413921,-0.053006604,0.18755877
_:117,0.08242507,-0.06263674,-0.11685513,0.076,0.04623676,0.074532114,-0.044413697,-0.014308282,-0.03470045,-0.024478324,0.10498025,-0.051975526,-0.07092844,-0.055244572,-0.09394014,0.064726755,-0.10511128,0.033902034,-0.05858348,0.12986615,-0.10532491,-0.105034426,0.11718887,-0.10834169,-0.07597527,-0.07108902,0.1008929,0.10210667,0.116649166,-0.06260561,-0.056499675,-0.025040139,0.00082596706,0.09789371,0.023912854,-0.056277063,-0.05322315,-0.055375062,-0.07464797,0.0060573975,0.038753666,0.07931416,-0.105102636,0.026131175,-0.12082399,-0.016689,0.085894965,0.09050138,-0.06998878,0.0514068,-0.08439625,0.087544836,0.098655686,-0.03265391,-0.13212755,-0.1305006,-0.12483153,0.05773484,0.11687978,-0.08484408,-0.03889739,-0.08040753,0.09161055,0.08850611,0.035385456,-0.10585809,0.078180425,-0.04601793,-0.046769246,0.022649743,-0.057772446,0.06814335,-0.037264377,0.07011746,-0.13667415,0.04443447,0.07778732,0.080304556,0.08520729,0.033433065,0.12252265,-0.07799533,-0.10311102,-0.04507286,-0.1145196,0.09624417,0.085101016,-0.08384537,0.09180278,-0.028384773,0.0902056,0.092587985,0.023287142,0.07668261,-0.05861159,0.09927664,-0.0936077,-0.037638966,-0.12200342,0.060905363
_:118,0.19733702,-0.03775395,-0.010802453,0.121286936,0.01406803,0.13421856,-0.043041594,-0.10307868,-0.04414137,-0.17018507,0.00580885,-0.04573578,-0.015102412,-0.18803687,-0.055676695,0.015688794,-0.004840753,0.11170137,-0.17598513,0.03149198,-0.007067723,-0.070378356,0.054491803,-0.044448134,-0.13189113,-0.16785201,0.0695067,0.04594495,0.14539279,-0.079371125,-0.12770335,-0.035723027,0.12520346,-0.009156784,0.12206877,-0.116388574,-0.010629884,-0.16258071,-0.029800318,-0.1460876,0.028519548,0.06577813,0.08028536,0.049599316,-0.17180909,-0.13481174,0.035839498,-0.037744533,0.029550679,0.029949196,-0.02554784,0.060920693,0.15476543,-0.10771872,-0.024753854,0.011754114,-0.063351296,0.010976934,0.15093224,-0.18948175,-0.04372197,-0.1716465,0.014608058,0.11047623,0.09846395,-0.092142895,0.11928918,0.033250403,0.043280553,0.16660188,-0.16050376,0.15147749,0.020103991,0.13214573,-0.15963455,0.13407804,0.114501335,0.027841201,0.14786036,0.0042246557,0.01300392,-0.19189116,0.014468198,-0.12032922,-0.010533297,0.13657202,0.13075134,0.0377122,0.16141139,-0.13021424,0.1509023,0.11394105,0.057025705,0.03817949,-0.037874255,0.14853267,-0.092584774,-0.010970834,-0.048171744,0.16310242
_:119,0.16366786,-0.06605209,-0.051461134,0.08444897,0.03169182,0.15948021,-0.084111355,-0.04026711,-0.043492503,-0.1414358,0.047786593,-0.06306011,0.002232705,-0.17267059,-0.030684603,0.035602886,-0.0018971046,0.080272205,-0.13792308,0.009097062,-0.019331975,-0.08222365,0.07797792,-0.04309383,-0.12666053,-0.15297873,0.07343734,0.045698084,0.19424155,-0.0946902,-0.082110375,0.037227392,0.16218805,-0.0003354241,0.11230394,-0.13414726,-0.041535616,-0.17354317,0.01501659,-0.16833505,0.01897266,0.042292472,0.05897902,0.048639666,-0.2007434,-0.1495447,0.03354008,0.00094991695,-0.024726758,0.034160163,-0.017533585,0.066217,0.1217685,-0.106578,-0.032551475,0.005017628,-0.05528764,0.0060950518,0.11978642,-0.12241633,-0.024074309,-0.17157242,0.012600497,0.11481205,0.07888102,-0.12104513,0.13304907,0.01210089,0.049098153,0.17615452,-0.16161013,0.08255896,0.021353848,0.12765568,-0.15935689,0.0869754,0.13211416,0.07262739,0.17611508,-0.010943787,-0.04115974,-0.17203428,-0.024411423,-0.16400781,-0.03187956,0.14702271,0.12774743,-0.04979973,0.15445817,-0.14008464,0.18327059,0.2130195,0.03477504,0.04564835,-0.013693026,0.13247932,-0.10692661,-0.06575034,-0.03393363,0.13270907
_:12,0.09268161,-0.053424723,-0.13765915,0.102457955,0.04064037,0.07536325,-0.039610684,-0.041778155,-0.07235404,-0.037803225,0.12235577,-0.053756025,-0.12524949,-0.11561165,-0.01752019,0.07774466,-0.07522201,0.05586575,-0.052060496,0.11463277,-0.045694258,-0.04900355,0.14545819,-0.09500149,-0.030173754,-0.016448354,0.12249056,0.12861843,0.111788124,-0.03937903,-0.02592099,-0.043953672,0.038710646,0.12862682,0.04594868,-0.09064488,-0.07547279,-0.041348312,-0.040465448,-0.06983612,0.045749743,0.024047526,-0.060204715,0.07510348,-0.092520595,-0.058457762,0.06012519,0.057574175,-0.09484414,0.024447089,-0.088418126,0.06230883,0.08319429,0.009282543,-0.15212357,-0.12475701,-0.09316528,0.05695932,0.1314819,-0.0666079,-0.017957475,-0.06838926,0.06384753,0.012988273,0.03645009,-0.111053474,0.03582812,-0.05772078,-0.10623255,0.015986718,-0.0768547,0.114703044,-0.07428743,0.02796276,-0.10591431,0.018408682,0.06512076,0.05129073,0.08878564,0.020666437,0.050976694,-0.08265017,-0.15517823,-0.050308622,-0.15408137,0.10146616,0.06825923,-0.065415524,0.06791388,-0.052227568,0.04619868,0.054075904,0.017440965,0.08835483,-0.07640504,0.080512755,-0.041336495,-0.04491496,-0.04836263,0.07921461
_:120,0.08615907,-0.066682786,-0.123542055,0.058503613,0.07313373,0.071531534,-0.03823727,-0.010984097,-0.012110725,-0.03454332,0.12701711,-0.050190866,-0.10645547,-0.053666644,-0.09709499,0.09858983,-0.09407046,0.042128164,-0.049413543,0.120514445,-0.08900185,-0.11955533,0.06684527,-0.1051597,-0.06294213,-0.060747687,0.11788305,0.060768597,0.090503626,-0.05379679,-0.055416953,-0.047647618,-0.0018865556,0.12314251,0.016274072,-0.060190745,-0.061346874,-0.042074703,-0.06180154,-0.009143535,0.04428993,0.044700425,-0.13657576,0.01729264,-0.1277136,-0.041110087,0.0939007,0.08964494,-0.057272293,0.055700053,-0.08468448,0.07449466,0.10993978,-0.076512955,-0.12156141,-0.10671844,-0.107198626,0.05497884,0.10736448,-0.060805324,-0.0632049,-0.07299239,0.101295516,0.08140311,0.03613162,-0.10099131,0.07842913,-0.051924143,-0.044150587,0.024401998,-0.04145099,0.121674836,-0.041954298,0.0785401,-0.09561794,0.033441927,0.07650488,0.10636069,0.08417077,0.022229325,0.09835456,-0.088275,-0.071569845,-0.060792964,-0.091169156,0.10196387,0.06867886,-0.07894184,0.0683538,-0.042361245,0.09551069,0.097263895,0.03847205,0.090156466,-0.05741536,0.08816555,-0.093561456,-0.033888295,-0.13299422,0.05891852
_:121,0.15603147,-0.03519979,-0.048005037,0.106462695,0.028734043,0.11238513,-0.06113369,-0.08621594,-0.04516855,-0.1614883,-0.0031815376,-0.05807389,0.011379196,-0.18152955,-0.05523843,0.013298546,0.009235953,0.10898937,-0.16377352,0.023485562,0.0057158023,-0.055179585,0.067480125,-0.05935387,-0.18093792,-0.13651207,0.055824835,0.04072188,0.1448766,-0.09039045,-0.105148375,-0.044861,0.14029141,0.0048341407,0.10018281,-0.16586387,-0.014195489,-0.15537505,-0.044511907,-0.15148966,0.021928115,0.07558517,0.054637007,0.047243148,-0.1416816,-0.14351974,0.025683708,-0.048232924,-0.0070838365,0.025097553,-0.02862125,0.04123628,0.16305667,-0.08091112,-0.055167537,0.028260091,-0.07246852,0.022633996,0.14720728,-0.18945767,-0.020355456,-0.19192453,0.009557195,0.111605786,0.09232968,-0.095726,0.12212317,0.012944133,0.043290846,0.10464625,-0.11061465,0.16889343,0.013673591,0.12523185,-0.09972613,0.16855063,0.114847384,0.04323121,0.119907774,0.023865202,0.03110288,-0.17374298,-0.009597522,-0.11441764,-0.019541612,0.08753842,0.09297999,0.030268477,0.1274927,-0.13990693,0.11805717,0.12913112,0.058841974,0.061299324,-0.03572468,0.17355664,-0.10472207,-0.012342151,-0.04821386,0.19953659
_:122,0.14693707,-0.050561257,-0.018922571,0.073226236,0.025851587,0.13150582,-0.049867462,-0.06344513,-0.05781214,-0.10472627,0.05814809,-0.067961074,0.048802596,-0.17839424,-0.03496873,0.00056651555,-0.031431895,0.070975065,-0.12861839,0.047727976,-0.041556697,-0.09984441,0.048382748,-0.05345608,-0.1658346,-0.15164493,0.06842897,0.03322999,0.19136508,-0.088479236,-0.10138669,-0.035030074,0.11766702,-0.0039562304,0.14237207,-0.15195456,-0.041074794,-0.13702156,-0.02522871,-0.13212116,0.03132721,0.023927156,0.024798375,0.03368277,-0.16654731,-0.16594678,0.039140146,-0.007854149,-0.037086997,0.046803553,-0.03803148,0.07374639,0.12172134,-0.11453677,-0.063232884,-0.05719814,-0.05569776,0.0011103333,0.11939998,-0.11868441,0.0003297534,-0.181845,-0.050830383,0.12248756,0.08917442,-0.08529005,0.14179671,0.025736747,0.07295302,0.17488867,-0.1238985,0.15820368,0.054752894,0.1486362,-0.13855521,0.11935294,0.11209388,0.05482833,0.1733707,0.025131037,0.023906862,-0.16146685,-0.038939778,-0.1721944,-0.03863385,0.052477904,0.114269786,-0.052757308,0.15966421,-0.100287795,0.17494641,0.16278665,0.03069494,0.048867323,-0.016470063,0.12040434,-0.09221002,0.010361137,-0.038171228,0.18518819
_:123,0.079678215,-0.054508746,-0.109067395,0.09856677,0.06264499,0.072274536,-0.03801941,-0.0033084103,-0.035844136,-0.02755028,0.13362688,-0.0573628,-0.07298964,-0.06521415,-0.10296635,0.09702378,-0.08986023,0.042122383,-0.05667343,0.13105197,-0.08218943,-0.13148049,0.12473871,-0.09280776,-0.08782046,-0.05609728,0.09102479,0.05108829,0.113255784,-0.06350935,-0.04640892,-0.031670034,0.0048064017,0.11460868,0.032540873,-0.08059609,-0.03054807,-0.041298144,-0.07521981,-0.024226086,0.022162965,0.072093435,-0.120261,0.012543974,-0.11347292,-0.051819157,0.090049006,0.08379985,-0.044682235,0.06202638,-0.07982978,0.07456063,0.088285476,-0.053439006,-0.09313115,-0.13302997,-0.120346904,0.069017604,0.114421524,-0.07367922,-0.034075856,-0.0743926,0.097608805,0.09499743,0.060959257,-0.07623404,0.071816415,-0.063952565,-0.04279421,0.020595742,-0.03741003,0.111147225,-0.033063427,0.073272236,-0.10398703,0.03753869,0.06114335,0.0845662,0.066892765,0.015726648,0.12667117,-0.070777625,-0.10915425,-0.032718357,-0.15648285,0.10466026,0.055247024,-0.08532631,0.06217057,-0.04398502,0.10575213,0.10544057,0.04676852,0.1078069,0.0051027252,0.051996134,-0.08716251,-0.031457372,-0.123535156,0.058437183
_:124,0.15729204,-0.03579841,-0.036741573,0.08791244,0.03145627,0.15700245,-0.057973087,-0.074244015,-0.0460443,-0.17716363,-0.005924506,-0.06004314,0.003545483,-0.18354896,-0.04998382,-0.007161815,-0.015520222,0.09588008,-0.17466304,0.052487385,-0.010014615,-0.07435061,0.090820454,-0.06202537,-0.18647584,-0.12895288,0.0632735,0.049488757,0.13427079,-0.09456038,-0.10546075,0.019817987,0.16138077,0.009707271,0.106305115,-0.1595788,0.003185957,-0.20074587,0.002125678,-0.16045238,0.010997153,0.040466342,0.063992985,0.04336473,-0.13062342,-0.14705625,0.03630526,-0.02712136,0.026692517,0.035671428,-0.040553484,0.058438443,0.13659178,-0.09971899,-0.05583983,0.016419716,-0.06642401,0.008905007,0.14679629,-0.16233526,-0.0100317625,-0.20027123,-0.014620673,0.11946118,0.07920446,-0.030318609,0.097016655,0.022730136,0.013340965,0.11292955,-0.14476478,0.15462938,0.029226571,0.105267674,-0.13819438,0.13123782,0.13007334,0.03139095,0.15345433,0.03477925,0.006774126,-0.15696838,-0.032153606,-0.071495354,-0.00818104,0.11825534,0.106335506,0.010438581,0.15362161,-0.14825039,0.15398307,0.1275677,0.08325961,0.060843956,-0.03966301,0.14175199,-0.12050609,-0.002718512,-0.051120784,0.1874606
_:125,0.18269312,-0.045501668,-0.04280616,0.08308894,0.029953169,0.11802385,-0.11664507,-0.05883862,-0.04582184,-0.14051135,0.05293828,-0.08293308,0.05828976,-0.18597068,-0.031021144,0.0841242,0.00060936966,0.072276585,-0.08776649,0.040479038,-0.061997242,-0.07204435,0.051973805,-0.046675373,-0.18830338,-0.11808279,0.07188383,0.048850305,0.178081,-0.096161135,-0.06803254,-0.032771945,0.12307935,-0.01102466,0.13169646,-0.11213763,-0.0398935,-0.09203372,-0.008604436,-0.111508235,0.01868971,0.03577506,0.054744136,0.035432953,-0.14832677,-0.14455006,0.022195874,0.003520762,-0.021645324,0.059386693,-0.03150232,0.04570933,0.119616084,-0.123612955,-0.03259563,-0.02979648,-0.0778753,0.017298821,0.14336716,-0.11711568,0.015454563,-0.16470648,-0.028535716,0.07945846,0.090946116,-0.09289875,0.10471412,0.018896762,0.053147987,0.17400524,-0.13495056,0.17227526,-0.0010226024,0.15173562,-0.104448095,0.153658,0.12062852,0.061040886,0.17051616,0.011434173,0.0055117197,-0.10005552,-0.07963497,-0.18664153,-0.002873895,0.14449878,0.12850296,-0.04353,0.15742737,-0.122628815,0.14978208,0.16997625,0.0462266,0.04893456,-0.009847156,0.11110773,-0.10762603,0.01888574,-0.04926741,0.17102411
_:126,0.08948592,-0.058906775,-0.12794665,0.06422098,0.040466882,0.07474437,-0.027551942,-0.015757648,-0.05149047,-0.02956758,0.102641076,-0.03604714,-0.08420767,-0.05072784,-0.11243359,0.09836173,-0.10560863,0.04778704,-0.04427325,0.11627943,-0.14414589,-0.12566942,0.117975734,-0.08535108,-0.06871158,-0.048185397,0.10725368,0.048814714,0.09203911,-0.06446477,-0.055891942,-0.047370803,-0.015531136,0.12777805,0.022210766,-0.09663707,-0.04752688,-0.05202401,-0.09160309,0.0009105656,0.034997065,0.020124203,-0.11187537,0.023081623,-0.079875425,-0.04519736,0.09432139,0.05621899,-0.058356006,0.060389236,-0.08935847,0.0794452,0.09202001,-0.07735637,-0.101237744,-0.11329706,-0.115351066,0.05468793,0.11448809,-0.07032034,-0.043166418,-0.0815837,0.08585905,0.08470975,0.030073432,-0.08633661,0.076610126,-0.067745335,-0.03777241,0.020269819,-0.040341605,0.12952445,-0.029432949,0.08503854,-0.121714525,0.023196228,0.085076705,0.10152749,0.07477045,0.00908313,0.11418187,-0.07765494,-0.10308805,-0.05325374,-0.15746064,0.09865761,0.05197048,-0.079731755,0.070940964,-0.04565798,0.10242801,0.09849203,0.04424349,0.08277198,-0.05670897,0.0879228,-0.075390935,-0.038337365,-0.104975075,0.07958605
_:127,0.14085867,-0.038771976,-0.039882887,0.08248921,0.021783806,0.14818983,-0.092360616,-0.07548111,-0.061915994,-0.16100909,0.01165001,-0.06487064,-0.019891785,-0.20372105,-0.040739533,-0.01026468,0.005558247,0.088784195,-0.14354466,0.069036454,-0.015042134,-0.07995755,0.07332889,-0.07043545,-0.1954947,-0.14710683,0.063464746,0.034828335,0.10980972,-0.09387129,-0.09082516,-0.016973725,0.13490647,-0.012350054,0.099054165,-0.18119076,-0.034411076,-0.15173593,-0.052525837,-0.14705004,0.012979926,0.07368618,0.0098607475,0.04896029,-0.14770442,-0.13320147,0.03585473,-0.03982745,-0.01053023,0.027480302,-0.016675744,0.053677075,0.13798189,-0.07955612,-0.031666353,0.016457938,-0.059176963,0.021352394,0.19086513,-0.12774035,-0.017780712,-0.18393283,0.006308081,0.14314005,0.11177404,-0.09174128,0.11816263,0.036993563,0.024295395,0.16338842,-0.10838477,0.12663823,0.03597471,0.087247886,-0.07839853,0.13468589,0.11823802,0.020099409,0.099126436,0.030365719,0.0078233415,-0.12755002,-0.034442015,-0.14937592,-0.00033115534,0.08752773,0.09726192,0.002275981,0.0867371,-0.11328759,0.13756269,0.14287245,0.068964735,0.013762058,-0.031465724,0.13576931,-0.11754359,0.014001191,-0.049455147,0.23576999
_:128,0.17216444,-0.04716102,-0.052127425,0.06894535,0.038356062,0.13558063,-0.0566977,-0.041570436,-0.026818587,-0.15802503,0.05545008,-0.068696305,0.016014377,-0.21229753,-0.029285569,0.02859802,-0.025382174,0.053775076,-0.1280088,0.07146593,-0.016570346,-0.08504844,0.06413432,-0.047539607,-0.14198506,-0.19579192,0.06725335,0.04787192,0.14232792,-0.11014586,-0.030871972,-0.05677758,0.18113735,0.007169161,0.15233842,-0.118247844,-0.045662366,-0.080929145,-0.012692821,-0.14533255,0.02615203,0.03840419,0.042179782,0.031139864,-0.15392758,-0.14715515,0.028926255,-0.010938606,-0.04562733,0.053088047,-0.02595461,0.047867462,0.12443262,-0.13336502,-0.060411602,-0.028058348,-0.10878538,0.0136614945,0.19441453,-0.1115281,-0.00019648121,-0.11760583,-0.03529545,0.15991186,0.04183945,-0.0953268,0.09838999,0.031045161,0.06567267,0.14493206,-0.13731004,0.15116009,0.049946543,0.06572278,-0.13415168,0.10542606,0.13297987,0.07860569,0.1601688,-0.0076652365,0.04018085,-0.12575285,-0.05861014,-0.16912133,-0.06055595,0.1421759,0.12470153,-0.03926883,0.18137848,-0.12880321,0.17121841,0.17955615,-0.0043238574,0.050031982,0.014680465,0.100630656,-0.10700602,0.011327063,-0.037730783,0.17868973
_:129,0.069715835,-0.051426344,-0.12964036,0.082270116,0.05700436,0.059015006,-0.046021964,-0.005175306,-0.022024563,-0.034325343,0.07735158,-0.04549015,-0.02581553,-0.06767669,-0.090256624,0.059399016,-0.10565874,0.03704947,-0.06427581,0.07064159,-0.12358443,-0.13230397,0.11157545,-0.06286924,-0.07318768,-0.043724876,0.096131,0.08075912,0.122985005,-0.05573837,-0.053749535,-0.030578472,-0.0010984436,0.13595948,0.061053768,-0.0693188,-0.054056305,-0.02908323,-0.086872116,-0.0007043614,0.03009125,0.082039155,-0.12601066,0.016464021,-0.106846415,-0.04496542,0.086189605,0.101779245,-0.05791227,0.07085402,-0.09380617,0.08686538,0.096669786,-0.074172035,-0.10584907,-0.108846776,-0.1447031,0.06915816,0.12661897,-0.048202816,-0.06078074,-0.065162905,0.11415375,0.09683758,0.008721225,-0.06828968,0.09553857,-0.04591718,-0.06972357,0.03282522,-0.05901714,0.12291178,-0.051865168,0.072632946,-0.11531462,0.027577654,0.0855937,0.11815884,0.05192656,0.006989484,0.06932527,-0.05632447,-0.114381336,-0.021113329,-0.13198705,0.105484374,0.07566578,-0.08924251,0.079582855,-0.044731554,0.09806125,0.08666065,0.036484472,0.10009061,-0.035761245,0.07754613,-0.10138207,-0.04600258,-0.11994215,0.05987917
_:13,0.08554256,-0.046668615,-0.1445955,0.10977801,0.026243685,0.065037414,-0.051460348,-0.039193496,-0.03640494,-0.018857414,0.14630076,-0.07856321,-0.12005066,-0.107460596,-0.056197587,0.13590847,-0.09664036,0.05514054,-0.085920915,0.11639454,-0.023617275,-0.055786975,0.115535945,-0.11394354,-0.01551876,-0.0064846906,0.1440278,0.0746299,0.10207746,-0.039341252,-0.0360064,-0.016429145,0.04094106,0.12514672,0.037975408,-0.059471257,-0.057271983,-0.040242307,-0.07299133,-0.022869173,0.023793777,0.023595298,-0.03179689,0.064488985,-0.08499297,-0.09579948,0.04670666,0.063669614,-0.11544532,0.027341647,-0.094719686,0.045505717,0.07463708,-0.010182169,-0.06536913,-0.08692966,-0.09490143,0.090235986,0.11158161,-0.063460134,-0.02421418,-0.06566229,0.13674174,0.02955491,0.048220254,-0.0806412,0.042891245,-0.07888597,-0.07644435,0.018419806,-0.08538567,0.12201109,-0.015700659,0.03274971,-0.085981935,0.029952914,0.069019035,0.051106967,0.07802646,0.03345803,0.033981644,-0.09467951,-0.16902903,-0.030630788,-0.15088993,0.0898799,0.054529697,-0.060036883,0.050421834,-0.05053073,0.037117276,0.07779007,0.047486134,0.12179021,-0.06051001,0.09847482,-0.10178431,-0.051869154,-0.054827858,0.11232609
_:130,0.15705721,-0.041861672,-0.01675859,0.113170065,0.018554168,0.146724,-0.058766957,-0.09330663,-0.029646391,-0.15644187,-0.024907794,-0.046579145,-0.020740982,-0.17578802,-0.05072568,-0.00196046,0.0020056318,0.09183329,-0.15219693,0.019112471,0.014364411,-0.056315918,0.057818457,-0.046095923,-0.18957749,-0.13674271,0.06740163,0.035410803,0.20862553,-0.08363292,-0.11400475,-0.036080282,0.1929614,-0.0013925271,0.10856319,-0.17256641,-0.03313673,-0.15672708,-0.01093959,-0.15382484,0.025496218,0.04782158,0.052397482,0.04643588,-0.1602377,-0.12204712,0.03255308,-0.042165708,0.016831914,0.018529003,-0.023741646,0.054236755,0.14423509,-0.08845147,-0.038637057,0.03817788,-0.06683173,0.0068152337,0.15744057,-0.15745102,-0.019914865,-0.14803892,-0.011177213,0.12257904,0.11352192,-0.09477347,0.13285138,0.039243553,0.038166337,0.14948983,-0.16714622,0.14107296,0.026304746,0.11687153,-0.13748401,0.15526263,0.11190797,0.0350401,0.09400533,0.018106539,0.00620527,-0.17069112,-0.023750901,-0.18563569,-0.04671548,0.13173178,0.11961455,0.010573411,0.15599492,-0.14953278,0.16718276,0.15358616,0.04368547,0.03574711,-0.03811701,0.13488851,-0.0908465,-0.034016404,-0.040074658,0.15213051
_:131,0.14861219,-0.050016552,-0.041269228,0.07894625,0.057546813,0.14178067,-0.04965577,-0.069266714,-0.076194085,-0.11576882,0.03922469,-0.07475011,0.012700375,-0.16458972,-0.04789865,0.037587974,-0.007000534,0.07684746,-0.15193212,0.061860345,-0.008857177,-0.07422199,0.073571436,-0.056649785,-0.18325886,-0.093704805,0.08082887,0.050482616,0.14927359,-0.07781634,-0.08023566,-0.05679789,0.13907774,-0.024776673,0.15756471,-0.15641831,-0.02653391,-0.15528771,-0.046751082,-0.16226734,0.028806318,0.049629234,0.04277118,0.052208573,-0.18613003,-0.1120732,0.03953119,-0.017257081,-0.030674659,0.0516774,0.01075569,0.05121174,0.13673364,-0.11083422,-0.04592314,-0.06738498,-0.033491757,0.026426958,0.14187305,-0.12735525,-0.047658052,-0.1477075,-0.014550591,0.14142345,0.06566916,-0.056850195,0.11169917,0.024538629,0.06855137,0.15937799,-0.1260608,0.07661856,0.04870533,0.15365255,-0.13909978,0.12726384,0.14131288,0.08373203,0.14734472,-0.012585647,-0.042547,-0.15346763,-0.0350254,-0.16642268,-0.032984704,0.12840937,0.121506825,-0.059535217,0.14150071,-0.114722855,0.15409844,0.1365761,0.058332454,0.0349915,-0.060942255,0.14059731,-0.11293916,0.012115364,-0.049859013,0.1807845
_:132,0.08372089,-0.030043948,-0.13095663,0.084618814,0.0459976,0.06611376,-0.047697533,-0.007323282,-0.024420409,0.012631103,0.10587934,-0.048331276,-0.11868012,-0.06732461,-0.08228407,0.06438633,-0.08720778,0.037017304,-0.061530046,0.11776686,-0.104599,-0.053156167,0.11537766,-0.094581924,-0.05850064,-0.08624853,0.11120349,0.10707083,0.09555173,-0.075506456,-0.04291341,-0.05102665,-0.010579872,0.12526909,0.044671524,-0.06833458,-0.05648835,-0.052466363,-0.09243155,-0.0067656753,0.028094798,0.10601306,-0.0973341,0.018906098,-0.09395932,-0.04780317,0.11242759,0.09082441,-0.06419335,0.062102415,-0.08312222,0.071434386,0.08170923,-0.042662673,-0.11356529,-0.06969335,-0.11485113,0.066118054,0.14172293,-0.045821182,-0.07511658,-0.07952531,0.08681357,0.08528524,0.039687127,-0.08674549,0.07324638,-0.065122835,-0.017750654,0.03462956,-0.03379438,0.11514157,-0.06004227,0.077349976,-0.11440275,0.046653558,0.08351436,0.10418928,0.08488734,0.0079946695,0.096565716,-0.08302463,-0.101407394,-0.052501492,-0.14940168,0.090200864,0.059493836,-0.08466443,0.08140342,-0.04313239,0.11471671,0.081078246,0.038319495,0.082697295,-0.010274435,0.05599986,-0.077220686,-0.04753577,-0.11946473,0.0707675
_:133,0.12313966,-0.04556918,-0.058960367,0.06392753,0.029958254,0.13594383,-0.056900058,-0.046692874,-0.079975694,-0.17002852,-0.014286499,-0.013082852,-0.003082287,-0.19920166,-0.06384246,-0.0014890861,0.013397131,0.05366857,-0.09378189,0.0102052465,-0.0035977236,-0.09931562,0.07877669,-0.0639639,-0.23329456,-0.17242105,0.07119001,0.04654963,0.13145587,-0.09257384,-0.069879025,0.016501741,0.13333933,0.013194053,0.12949948,-0.1576979,-0.016159091,-0.15097462,-0.013294665,-0.12033796,0.015623931,0.06102225,0.020397222,0.07918681,-0.1228561,-0.13122018,0.034121215,-0.044109773,-0.012441065,0.039684307,-0.026272705,0.046203084,0.13534889,-0.12574446,-0.050083708,-0.00310684,-0.11377908,0.036270708,0.16399844,-0.13665092,-0.0064780996,-0.21142848,-0.0069775283,0.1307944,0.1123207,-0.105002664,0.10372973,0.012862424,0.04071306,0.1826498,-0.117937244,0.14577152,-0.008356046,0.06411678,-0.12637115,0.1391077,0.12424193,0.04548402,0.05568364,0.038083237,0.04364132,-0.107838206,-0.02998675,-0.094385296,-0.0029007155,0.0825784,0.08207215,0.011824013,0.088074766,-0.13354957,0.15532929,0.17236632,0.099168286,0.04206109,-0.010917184,0.14066464,-0.13374808,-0.003375172,-0.045466665,0.20035802
_:134,0.13570528,-0.060278684,-0.024415907,0.07159187,0.04029807,0.12844989,-0.10362142,-0.0503078,-0.040364992,-0.1254117,0.013413925,-0.07924567,0.018604623,-0.18075655,-0.03313282,0.024415152,-0.041882504,0.055286024,-0.09082078,0.042628385,-0.038409166,-0.09041575,0.07842879,-0.050833937,-0.1180947,-0.14824505,0.067445494,0.03769997,0.17803794,-0.0815669,-0.080614366,-0.06417079,0.082559854,0.0064279097,0.1134173,-0.120762154,-0.054029755,-0.17567027,0.004690592,-0.13490304,0.031431288,0.044961642,0.019633686,0.05430413,-0.10323274,-0.12957522,0.054105375,-0.0007453143,-0.015934553,0.025999678,-0.02218393,0.056071214,0.114177465,-0.11286147,-0.045544975,-0.06953661,-0.04053521,0.02022422,0.13826306,-0.12863666,0.0025603748,-0.17088945,-0.039279684,0.12845632,0.0905932,-0.11771043,0.14265348,-0.006824235,0.0035954067,0.15229273,-0.1427866,0.13859108,0.04563212,0.12198894,-0.09013736,0.14144,0.15390526,0.061598644,0.15131696,-0.01318541,-0.0357365,-0.14656676,-0.012856553,-0.19256361,-0.02573602,0.12103482,0.11500509,-0.040773932,0.14002882,-0.14763401,0.15411368,0.14897978,0.070642926,0.06480642,-0.041028235,0.15112148,-0.10442168,-0.05905977,-0.031162422,0.1278249
_:135,0.077752165,-0.06853891,-0.12931372,0.07728492,0.05084162,0.060741667,-0.046413448,-0.0050319945,-0.028847646,-0.026258675,0.09769906,-0.04035801,-0.118489526,-0.05419929,-0.10553771,0.08978501,-0.08847285,0.039200194,-0.066943526,0.10988665,-0.08683227,-0.07936,0.09932014,-0.100395925,-0.086066805,-0.08668396,0.09992834,0.092188865,0.11484305,-0.0530319,-0.05819308,-0.040923744,-0.009053592,0.08201366,0.01857913,-0.072288916,-0.04861143,-0.051922817,-0.067366,-0.009967309,0.035415474,0.08639863,-0.1154793,0.03670547,-0.11949447,-0.027741563,0.1017665,0.080662996,-0.05639887,0.052756168,-0.077833265,0.07638308,0.10187193,-0.07191238,-0.113990135,-0.12189248,-0.13372779,0.050246805,0.10937332,-0.06144218,-0.064625055,-0.07163129,0.09436583,0.078317456,0.0420463,-0.08729472,0.07562204,-0.06335613,-0.030433236,0.01962533,-0.038933538,0.1052919,-0.049652558,0.06704252,-0.11607067,0.047808073,0.06828554,0.092004426,0.080544524,0.015396968,0.12292354,-0.08026286,-0.11121629,-0.05037672,-0.14706872,0.108493276,0.07523648,-0.08168864,0.06876138,-0.04061688,0.084982455,0.098063774,0.034202997,0.08245627,-0.054870076,0.08188226,-0.0878208,-0.039253823,-0.11275196,0.0614008
_:136,0.144912,-0.035967845,-0.009346003,0.072269954,0.016787812,0.17115924,-0.08058132,-0.05710469,-0.06526581,-0.16000582,-0.017189223,-0.060247738,-0.0066315066,-0.1833949,-0.050179716,0.0012028622,-0.013274862,0.07025791,-0.15915571,0.041877635,-0.0049810316,-0.0662691,0.076398104,-0.05514068,-0.1747699,-0.16383444,0.086599976,0.053493258,0.109344795,-0.06265023,-0.06778494,-0.0546114,0.17760158,0.031854313,0.123840265,-0.14974152,-0.026363142,-0.09875737,-0.017599268,-0.10759194,0.012237582,0.032923438,-0.0002726496,0.041726556,-0.1276172,-0.1598271,0.056238744,-0.03907414,0.017805804,0.031776458,-0.024042862,0.05081452,0.14742641,-0.14351025,-0.060695685,0.038420893,-0.09738471,0.011528749,0.14301339,-0.120418765,-0.021474922,-0.19353294,-0.012067791,0.12955378,0.108858116,-0.10077174,0.110089965,0.011481898,0.02985865,0.1684322,-0.10921173,0.13724636,0.0022482409,0.059476644,-0.15487255,0.13660449,0.12827735,0.0309196,0.17367615,0.013247049,0.016358621,-0.13908441,-0.023722932,-0.12448018,-0.0134711275,0.12970345,0.11256056,0.029977415,0.16737828,-0.122937895,0.14863992,0.12551051,0.012933693,0.04579063,-0.022247178,0.1654757,-0.11966311,-0.011241608,-0.049683653,0.15323927
_:137,0.09920904,-0.060527664,-0.02246027,0.02976956,0.05223007,0.07732364,-0.10012875,-0.040334847,-0.11232235,-0.1458419,0.051695704,-0.079221286,0.0239092,-0.2020451,-0.013947471,0.054237504,-0.0016565168,0.05183453,-0.060360927,0.08427804,-0.075990885,-0.12998745,0.09628593,-0.07683339,-0.21346207,-0.17982186,0.11245285,0.06533231,0.12793061,-0.067641035,-0.028717276,-0.05295692,0.1625918,-0.033346355,0.13748027,-0.10825301,-0.06480031,-0.10814019,-0.040079895,-0.13420187,0.026075484,0.07901045,-0.0059602885,0.030139957,-0.11105965,-0.12239181,0.045473974,-0.015591977,-0.0062682633,0.05977082,-0.0061512366,0.017209928,0.13723125,-0.10742949,-0.026189236,-0.02340392,-0.121644475,0.059590347,0.093609035,-0.120079614,-0.030722842,-0.12423751,-0.03851234,0.08205786,0.09382606,-0.119658515,0.091134086,0.030234426,0.019543063,0.106433995,-0.09270591,0.1361567,-0.004844174,0.18412077,-0.13944957,0.13807009,0.11653973,0.06360243,0.13563386,-0.026573706,-0.019727577,-0.06312568,-0.053830557,-0.10830477,-0.046922594,0.09774453,0.10519434,-0.050624225,0.13354725,-0.1071101,0.19076775,0.14756806,0.09049931,0.03722439,-0.025673814,0.15088046,-0.13941489,0.015480565,-0.06912451,0.23845436
_:138,0.07732847,-0.03601898,-0.111532964,0.08493948,0.06365045,0.061023556,-0.05442551,-0.006460927,-0.037591573,-0.054889712,0.0947567,-0.062409237,-0.121578164,-0.05271446,-0.10179893,0.11148504,-0.10069703,0.03799395,-0.063213736,0.11098748,-0.14129928,-0.10181647,0.08342535,-0.09785185,-0.07358701,-0.07768318,0.08913618,0.093356304,0.11613362,-0.06741856,-0.0469095,-0.043201335,-0.005071158,0.12591256,0.028935026,-0.06559434,-0.037269663,-0.0396509,-0.088743344,-0.0005011008,0.01947533,0.08339634,-0.09632972,0.02104882,-0.12415096,-0.034075048,0.07932959,0.052341223,-0.058535125,0.056522515,-0.06626033,0.0889051,0.09182065,-0.07902055,-0.10811333,-0.103275105,-0.12353221,0.06528603,0.12613411,-0.043579713,-0.05794914,-0.072681785,0.08755659,0.08435527,0.010055477,-0.09277866,0.07619153,-0.047310732,-0.059858803,0.0377167,-0.048975263,0.110157065,-0.049447477,0.069744736,-0.115771644,0.02643245,0.07892056,0.10282087,0.08108687,0.005341634,0.08945181,-0.064552024,-0.09106,-0.052508242,-0.13189922,0.100343645,0.072529696,-0.07478625,0.06917597,-0.039661475,0.09677212,0.09749197,0.03917165,0.09128303,-0.05771975,0.060854256,-0.08911072,-0.06242706,-0.09938834,0.05910904
_:139,0.17285538,-0.057686336,-0.03998079,0.07922526,0.018769264,0.11860629,-0.056927774,-0.062766604,-0.039932206,-0.15157418,0.019145843,-0.06364183,-0.052040666,-0.20073198,-0.048138037,-0.0014041228,-0.027550045,0.06240059,-0.16296366,0.021701781,-0.0010629931,-0.06581504,0.07241008,-0.04493621,-0.14887588,-0.14813396,0.07292295,0.04349636,0.2054928,-0.07668747,-0.084044084,-0.033528246,0.19249916,-0.0133532975,0.11654059,-0.12431405,-0.040366985,-0.14700589,0.0035198033,-0.13938285,0.028711122,0.059256524,0.054065317,0.056013774,-0.09669504,-0.095655605,0.027204914,-0.041673258,-0.0030570137,0.03560657,-0.02781958,0.05120435,0.13789625,-0.1282525,-0.03311933,0.039482176,-0.0829336,0.024595942,0.13113487,-0.14499609,0.005652605,-0.19884211,-0.02066563,0.12538335,0.10629996,-0.102018975,0.12807678,0.005872994,0.03231777,0.15582046,-0.15557297,0.11533875,0.021620397,0.114743754,-0.16987972,0.14496972,0.11923963,0.041151997,0.13730533,0.0013486709,-0.0009401298,-0.12723657,-0.01319738,-0.15506929,0.0052828733,0.07074353,0.12287863,0.023505626,0.14602247,-0.13980906,0.1649015,0.16220818,0.044625636,0.047930937,-0.03568898,0.14841306,-0.11543656,-0.049789254,-0.050150085,0.18308897
_:14,0.0924374,-0.052358273,-0.15706967,0.08917038,0.026419606,0.07735382,-0.056525502,-0.03745043,-0.04638785,-0.026738005,0.07750962,-0.06044481,-0.116793066,-0.10272202,-0.050281227,0.12869382,-0.074109964,0.056379456,-0.06576134,0.12739694,-0.041488655,-0.05877422,0.11767539,-0.103223756,-0.042296287,-0.013442854,0.117155634,0.114020094,0.07960889,-0.047662217,-0.029717302,-0.041871123,0.024345998,0.07694033,0.03996638,-0.07081852,-0.09427674,-0.04178242,-0.06953444,-0.017442489,0.028389577,0.00083882804,-0.04418809,0.064067505,-0.09066798,-0.080582276,0.043955225,0.06750636,-0.095090285,0.037738554,-0.103069864,0.054374594,0.077415444,-0.0007079059,-0.14613989,-0.107674174,-0.08555653,0.08412213,0.116598755,-0.043864574,-0.020531436,-0.07007025,0.1291907,0.023502236,0.03099557,-0.10458748,0.0489557,-0.047996487,-0.0869882,0.026578424,-0.081108145,0.120531745,-0.07693942,0.036734488,-0.09768593,0.038793337,0.06526161,0.05608449,0.092577405,0.024081793,0.0693803,-0.08264669,-0.14586648,-0.029257633,-0.12458938,0.119516924,0.059212428,-0.058321726,0.074780405,-0.052856177,0.034909453,0.11306696,-0.0048260917,0.09683393,-0.06472779,0.08356219,-0.10427864,-0.047876593,-0.058079906,0.08895167
_:140,0.0940307,-0.046605907,-0.1533488,0.10623639,0.030346477,0.015230126,-0.045718744,-0.027040917,-0.03849977,-0.02216403,0.07139003,-0.03749567,-0.14421283,-0.09023261,-0.011356394,0.09536917,-0.07103811,0.045916658,-0.062329963,0.12344058,-0.051190168,-0.08983543,0.056728214,-0.11394896,-0.065833546,-0.05930217,0.13188374,0.085733585,0.12976955,-0.046560246,-0.028444694,-0.00890774,0.06585488,0.0938497,0.01450431,-0.09116597,-0.0481496,-0.06440374,-0.07590144,-0.04104333,0.059235133,0.049949747,-0.14505029,0.06532173,-0.12221744,-0.069193356,0.05063905,0.028867375,-0.07619812,0.023080153,-0.109557554,0.0856002,0.096441515,-0.06818393,-0.1291011,-0.10281233,-0.09784258,0.119656,0.08154411,-0.033689044,-0.07246931,-0.0068034274,0.12219114,0.024355909,0.048166152,-0.10469373,0.03590811,-0.033006053,-0.007116648,0.060506165,-0.03872363,0.10024788,-0.09781855,0.030196656,-0.1031328,0.044878367,0.07483982,0.09855283,0.0403121,0.04627861,0.072092,-0.06638071,-0.13189659,-0.036576528,-0.11107258,0.077626094,0.037985336,-0.04983997,0.093084626,-0.038190022,0.09616381,0.08558496,0.042692035,0.10176492,-0.073779546,0.084000826,-0.09925164,-0.04166093,-0.05319883,0.08007884
_:141,0.09654273,-0.032001678,-0.14015368,0.12333755,0.027442435,0.014481943,-0.04130909,-0.034149874,-0.040855072,-0.058457255,0.04007274,-0.04217955,-0.081915595,-0.09213741,-0.024324669,0.08612639,-0.109408274,0.044631854,-0.064098485,0.11583161,-0.068662584,-0.1308089,0.104048684,-0.111668356,-0.060784154,-0.04712948,0.13842872,0.0869471,0.11566733,-0.04431822,-0.02212217,-0.042756405,0.071756355,0.0932102,0.035450406,-0.083336644,-0.056289483,-0.04212619,-0.07337612,-0.049939066,0.037150603,0.067233264,-0.12091634,0.07880308,-0.10946519,-0.07563195,0.049345184,0.026485177,-0.10876605,0.03760551,-0.08806374,0.09574908,0.08687724,-0.057039917,-0.1330046,-0.046544082,-0.110407956,0.102373436,0.09478315,-0.030155523,-0.06852298,0.0042913216,0.11795912,0.013817018,-0.040284444,-0.08407744,0.02911601,-0.035641607,-0.014860008,0.054802068,-0.039399367,0.099811316,-0.10414467,0.010098936,-0.09896727,0.057416838,0.08384272,0.12290614,0.03457006,0.043125052,0.061353527,-0.07114071,-0.137596,-0.04697414,-0.13773784,0.08226173,0.05471074,-0.049046755,0.09506119,-0.039576884,0.10480345,0.117533,0.027410202,0.1205308,-0.08129856,0.082106866,-0.07997909,-0.029455733,-0.06967984,0.073619395
_:142,0.10094337,-0.054785613,-0.051712666,0.106638834,0.032469988,0.0036937234,-0.04012679,-0.030539501,-0.017289504,-0.04662075,0.102083385,-0.052237496,-0.12775916,-0.08270478,0.0016140634,0.07447389,-0.10031711,0.042337894,-0.068733,0.14195862,-0.057536487,-0.13444012,0.078805685,-0.11421817,-0.06068887,-0.04769506,0.09094039,0.10198661,0.09935337,-0.04160154,-0.04080631,-0.01684461,0.06281543,0.07291046,0.027438337,-0.08896536,-0.052050106,-0.058650464,-0.06246011,-0.054604758,0.05147994,0.05445387,-0.10302233,0.07115483,-0.074712045,-0.0696537,0.046854742,0.037209168,-0.08528796,0.026966957,-0.09543317,0.09589089,0.09724087,-0.073487565,-0.1237592,-0.08760748,-0.1481008,0.11518078,0.08936433,-0.035289288,-0.062337272,-0.016443139,0.13802633,0.02844391,0.06931705,-0.1070471,0.031630192,-0.01922267,-0.062252663,0.04046042,-0.06596478,0.077931784,-0.08084614,0.013768158,-0.10853016,0.038315434,0.07453985,0.089895464,0.058404632,0.008970369,0.064052776,-0.056030534,-0.12753683,-0.039708443,-0.13513131,0.08425784,0.032998387,-0.05491121,0.062190395,-0.03354412,0.108339146,0.12243988,0.029337097,0.11589952,-0.0540213,0.08566824,-0.101340406,-0.054347657,-0.063217156,0.090066165
_:143,0.08613916,-0.039624166,-0.079393215,0.08735063,0.034037385,0.044045907,-0.042780988,-0.02381565,-0.04450891,-0.051012043,0.08805617,-0.055784445,-0.15320198,-0.10158007,-0.039272994,0.0972388,-0.09900136,0.03425945,-0.07173113,0.14174744,-0.066475876,-0.057792597,0.0968095,-0.125679,-0.05797769,-0.06196048,0.118475735,0.09661909,0.12568958,-0.017797397,-0.03893282,-0.004482312,0.06785838,0.044387892,0.023103919,-0.08923986,-0.04919601,-0.04338103,-0.072368756,-0.066523865,0.06649996,0.05879469,-0.109232225,0.078594126,-0.11695075,-0.09088076,0.033718135,0.016083904,-0.112868086,0.015214212,-0.09175485,0.083508536,0.06854808,-0.06310994,-0.12504305,-0.08049216,-0.1550773,0.119548835,0.10605937,-0.014295976,-0.07409838,-0.0056683333,0.123136826,0.028626826,0.063825086,-0.10785564,0.040128816,-0.0076867766,-0.052491106,0.032986358,-0.08216181,0.09581021,-0.08761687,0.012345563,-0.113809586,0.04436678,0.07972234,0.108139455,0.040735796,0.025265794,0.06991858,-0.07310147,-0.14688377,-0.032800995,-0.08153357,0.05160635,0.03780765,-0.04788973,0.08749997,-0.030585106,0.105219945,0.113669634,-0.015155861,0.11390983,-0.05036597,0.08846352,-0.08842622,-0.031688567,-0.06217737,0.074937016
_:144,0.10685661,-0.03718995,-0.14826538,0.10770628,0.019960212,0.020921864,-0.06269513,-0.019312061,-0.02434671,-0.026296185,0.098579444,-0.05533246,-0.12199092,-0.09526065,0.009958011,0.10714709,-0.09967941,0.046949513,-0.044049487,0.12739913,-0.07509214,-0.12232386,0.10307392,-0.10554503,-0.045503095,-0.055155266,0.12849174,0.08965858,0.12402917,-0.043675173,-0.032923706,-0.02767534,0.066723794,0.08991472,0.025555387,-0.0972943,-0.04797974,-0.031573713,-0.05244575,-0.024535524,0.037677113,0.043336798,-0.11940821,0.0772446,-0.08660546,-0.07582129,0.044767752,0.028227307,-0.09038163,0.016971968,-0.09384442,0.096658416,0.09105615,-0.07032875,-0.13216889,-0.10530783,-0.1325726,0.11369408,0.09574786,-0.036802802,-0.06876658,-0.012904554,0.11833826,0.031191196,0.08291081,-0.10073363,0.043571517,-0.029225627,0.0053180093,0.04883212,-0.08889136,0.09147931,-0.06345902,0.040154897,-0.0914296,0.04927545,0.08491481,0.1234245,0.02400427,0.033183064,0.059477262,-0.07412059,-0.09038558,-0.03460594,-0.1038509,0.072822005,0.040686127,-0.04769728,0.09446724,-0.039577138,0.103984825,0.10895316,0.045127586,0.09793032,-0.033048395,0.051512588,-0.07763975,-0.029581895,-0.049223643,0.09562191
_:145,0.10650826,-0.034067336,-0.12603436,0.105094135,0.03861353,0.027773524,-0.04983369,-0.018012887,-0.012134944,-0.025009133,0.08073579,-0.06444057,-0.101781934,-0.09995763,-0.010012367,0.09381012,-0.045727864,0.046116445,-0.06950132,0.11988227,-0.060740706,-0.15285073,0.07763326,-0.10850739,-0.073709674,-0.053678483,0.14868134,0.097017325,0.10617086,-0.036607716,-0.031694602,-0.013841204,0.06761213,0.09645335,0.010423304,-0.09008694,-0.025337715,-0.048754938,-0.067394555,-0.0582392,0.035495773,0.011571129,-0.12013193,0.07178987,-0.10440329,-0.065025054,0.08212393,0.021166373,-0.11526319,0.019476429,-0.09407299,0.08314102,0.087780796,-0.066998236,-0.14467594,-0.07956305,-0.11453534,0.11399688,0.08966565,-0.032457113,-0.06528684,-0.007243876,0.119612746,0.042059533,0.08273591,-0.095545344,0.042978603,-0.010123563,-0.020900859,0.07682286,-0.071039066,0.08460186,-0.070597425,0.014966684,-0.094115555,0.016743273,0.08405768,0.1417834,0.042329803,0.037238885,0.06611529,-0.078629345,-0.14191079,-0.039496485,-0.05593432,0.06709345,0.041378982,-0.048084002,0.081532575,-0.032646574,0.08890444,0.11198498,0.051954187,0.11793572,-0.064744,0.07507853,-0.075383775,-0.030940197,-0.078248635,0.10168016
_:146,0.113108434,-0.033910524,-0.106288634,0.096261434,0.028005883,0.0017529752,-0.047885455,-0.025888138,-0.03292957,-0.032968413,0.111910306,-0.054986764,-0.10603327,-0.095943734,-0.0014214606,0.09483398,-0.07780371,0.04204352,-0.06791301,0.09911102,-0.033371054,-0.14177583,0.097657435,-0.074794576,-0.077131204,-0.066871755,0.15345803,0.09697363,0.10504124,-0.048415724,-0.02699293,-0.04026143,0.073679976,0.068967,0.014822291,-0.0995344,-0.07041352,-0.04919187,-0.079838865,-0.05048585,0.045171883,0.029875,-0.13830689,0.072539724,-0.094556734,-0.08215045,0.054686178,0.023286179,-0.071024776,0.03631947,-0.0978126,0.093564905,0.082129024,-0.052925546,-0.12959196,-0.07612906,-0.15083382,0.112008885,0.08980747,-0.035820283,-0.06271727,-0.020475853,0.1373162,0.028428283,0.05215985,-0.08135518,0.03908501,-0.0027422027,-0.041742425,0.051766004,-0.07566281,0.08205735,-0.071056575,0.022528423,-0.09777932,0.04207287,0.060611073,0.110932134,0.056447025,0.04391011,0.053217556,-0.069802314,-0.14064279,-0.022493998,-0.120906085,0.07567284,0.028340846,-0.05833721,0.08475484,-0.035515144,0.11014563,0.123283036,0.045719665,0.09999016,-0.03319729,0.07690433,-0.10091699,-0.031111011,-0.065830424,0.092761375
_:147,0.08758608,-0.04755448,-0.13489756,0.12664634,0.034836285,0.0094077345,-0.0417563,-0.018010508,-0.021425612,-0.03985182,0.109600395,-0.05245825,-0.13407686,-0.09345802,-0.020732215,0.089936964,-0.08196725,0.03754064,-0.06296065,0.12543018,-0.021773254,-0.10921958,0.09341117,-0.10129462,-0.05491145,-0.054887984,0.09439163,0.092087425,0.12811685,-0.037768718,-0.029392336,-0.0293774,0.0649764,0.074706264,0.015941607,-0.08194989,-0.062636174,-0.061115526,-0.047640838,-0.038695473,0.052699614,0.067830026,-0.10659537,0.06204501,-0.11325259,-0.064268894,0.041283477,0.010131214,-0.09855518,0.014958977,-0.09633267,0.09346083,0.095106,-0.057940073,-0.111424774,-0.105224036,-0.121326566,0.107644215,0.089066334,-0.03907785,-0.07453775,-0.033664364,0.11625692,0.043274596,0.059349943,-0.11491425,0.03654186,-0.017871581,-0.072162405,0.058664463,-0.06517264,0.092987806,-0.090263635,0.016084474,-0.10642331,0.040155254,0.07984562,0.11817663,0.027016604,0.037487146,0.060075447,-0.08101896,-0.12924543,-0.034549803,-0.10582571,0.09012303,0.04081624,-0.055486813,0.06927025,-0.030250836,0.10187193,0.101672605,0.029573873,0.12355258,-0.043451108,0.06279403,-0.10183676,-0.037445378,-0.06421599,0.07681305
_:148,0.11967718,-0.04698946,-0.09762376,0.08721699,0.06626147,0.02074219,-0.0437261,-0.0225908,-0.015307303,-0.030471431,0.07835299,-0.039141808,-0.15392259,-0.09219036,-0.013269496,0.085121974,-0.057724923,0.02671606,-0.07733984,0.123686984,-0.037832268,-0.09828333,0.11069934,-0.10036141,-0.05377602,-0.046471536,0.08967289,0.12970905,0.1179058,-0.038032778,-0.052742116,-0.017619787,0.04420244,0.089830235,0.039258666,-0.08373571,-0.053991664,-0.06794871,-0.055562466,-0.05887233,0.039900627,0.07048421,-0.08248722,0.07667404,-0.1333238,-0.09179239,0.04967881,0.022652758,-0.06827304,0.021155851,-0.10456976,0.0844348,0.090001546,-0.07011959,-0.10460609,-0.0951321,-0.15343413,0.10570539,0.09300174,-0.028078591,-0.05465003,-0.028141985,0.11404144,0.032577313,0.062940076,-0.11023919,0.029959911,-0.06462001,-0.049682718,0.06421029,-0.036573585,0.10404239,-0.10698682,0.026628064,-0.114648715,0.049509965,0.0756079,0.1196217,0.033784073,0.023387907,0.045251753,-0.07325482,-0.13709572,-0.025450004,-0.08616017,0.081716,0.030784009,-0.047357336,0.07121696,-0.04077209,0.075650536,0.07285991,0.046440795,0.12202347,-0.08183183,0.07323638,-0.10357564,-0.036494926,-0.06024385,0.078446336
_:149,0.094176084,-0.02705264,-0.10539145,0.053778503,0.044160865,0.0072294283,-0.04252241,-0.026628744,-0.012763963,-0.0511853,0.075633705,-0.051493168,-0.13916434,-0.103113264,-0.012000302,0.084798075,-0.06725865,0.025983363,-0.059988026,0.1144301,-0.040055323,-0.10750039,0.083811864,-0.09650817,-0.065177895,-0.036866326,0.11824851,0.1319753,0.10127039,-0.044335224,-0.04318404,-0.029147813,0.07190182,0.09020903,0.021362066,-0.09348149,-0.04645568,-0.054839972,-0.075425304,-0.0726445,0.052749142,0.048144404,-0.13897637,0.053519078,-0.11228684,-0.08079136,0.052109092,0.033747274,-0.07859499,0.025737142,-0.100560375,0.10224579,0.10047722,-0.07175635,-0.13552167,-0.086187,-0.13417245,0.12674192,0.09730484,-0.045349997,-0.07171122,-0.035112444,0.11036975,0.027544737,0.08061388,-0.11011827,0.029304227,-0.014893811,-0.045614198,0.012562829,-0.06388039,0.06575115,-0.03862158,0.018103778,-0.11060409,0.042739887,0.08544567,0.09844593,0.012490605,0.035408523,0.0586305,-0.07204851,-0.13971667,-0.061392758,-0.08150609,0.06595186,0.01610191,-0.05290828,0.07139279,-0.04810664,0.07246907,0.12839884,0.035301283,0.13084018,-0.048713505,0.09290938,-0.11336411,-0.03209256,-0.0539703,0.09754641
_:15,0.11183348,-0.064097054,-0.15141092,0.08120399,0.009923357,0.07977001,-0.048767593,-0.029661125,-0.04608582,-0.011697046,0.11810414,-0.067309566,-0.12671767,-0.12026279,-0.048460204,0.15432827,-0.10214391,0.05804788,-0.06993086,0.12385762,-0.009112854,-0.056858465,0.10293857,-0.10554723,-0.027195532,-0.041811083,0.07031754,0.107069455,0.123986945,-0.036725774,-0.02222277,-0.037274916,0.032787945,0.10761037,0.052581474,-0.07536824,-0.051295225,-0.04924889,-0.061005138,-0.02880863,0.04165712,0.001340602,-0.07586222,0.065255046,-0.07191037,-0.07972107,0.055159558,0.06729145,-0.08026818,0.026434746,-0.097644374,0.056945827,0.072671674,-0.017554395,-0.13990916,-0.1346684,-0.09316843,0.08906689,0.13058653,-0.055065382,-0.03727603,-0.068201326,0.057232037,0.022864709,0.05817414,-0.11261392,0.04213839,-0.05041969,-0.117299125,0.03652642,-0.05020459,0.1157853,-0.049660917,0.034379605,-0.11415014,0.027699916,0.06522534,0.06456427,0.092598334,0.050262738,0.04910095,-0.060922164,-0.14037837,-0.028643325,-0.14136137,0.06503197,0.046181023,-0.055888955,0.05170521,-0.059602432,0.030918885,0.12373893,0.0022118734,0.10690152,-0.096134685,0.0808078,-0.08116266,-0.036911663,-0.05922002,0.091132425
_:150,0.10470268,-0.024077,-0.14548323,0.09866206,0.07040728,0.013617846,-0.056465425,-0.026668841,0.01071915,-0.042317457,0.06497219,-0.03211264,-0.15579388,-0.09184498,-0.01770352,0.092560105,-0.123058826,0.039211743,-0.054200865,0.13002354,-0.060987793,-0.082640566,0.08346686,-0.11343705,-0.04345038,-0.043021005,0.10658534,0.12550974,0.13292086,-0.043592878,-0.04411736,-0.0012512158,0.04315429,0.07036883,0.035573892,-0.0723655,-0.056243405,-0.05112246,-0.065908566,-0.04796028,0.052357413,0.046701286,-0.08901035,0.0861515,-0.09170361,-0.07603334,0.046763107,0.024779566,-0.088570684,0.028040167,-0.08269732,0.0917556,0.09684874,-0.049038254,-0.09375772,-0.08307409,-0.109274246,0.10742237,0.101446085,-0.03319913,-0.072839424,-0.026779596,0.11418881,0.035100374,0.051090304,-0.11771168,0.033900127,-0.022767346,-0.06291689,0.063578434,-0.066579595,0.08755229,-0.060676664,0.034970276,-0.11399824,0.056976523,0.0793968,0.12026298,0.048118282,0.021969665,0.05653115,-0.05599331,-0.13233253,-0.025060713,-0.12921122,0.07341867,0.031977117,-0.056154616,0.0838447,-0.037263226,0.07436068,0.10163397,0.034357984,0.09713461,-0.07553866,0.07672315,-0.08434906,-0.035384063,-0.06349693,0.07369653
_:151,0.100198045,-0.044756673,-0.11620906,0.09189868,0.06364598,0.011487282,-0.041648433,-0.024984377,-0.027525408,-0.053168524,0.09873836,-0.050661508,-0.15599526,-0.09390861,-0.014460531,0.080049135,-0.089233,0.025976773,-0.0572496,0.11325196,-0.058533788,-0.06623281,0.08672216,-0.10359533,-0.04238431,-0.046753753,0.12620683,0.13875689,0.13364142,-0.023659863,-0.05330244,-0.009221455,0.049977697,0.08671646,0.037950106,-0.06268342,-0.05861037,-0.048959337,-0.07336395,-0.04110726,0.047569517,0.036157105,-0.111020796,0.07852917,-0.10468376,-0.06314751,0.050167017,0.021016682,-0.10224923,0.024372507,-0.08953751,0.08932898,0.09500801,-0.05581198,-0.1252189,-0.07856628,-0.12413386,0.11593731,0.09051229,-0.0417807,-0.056116264,-0.026980257,0.10732103,0.027903335,0.05683126,-0.105726704,0.026299566,-0.024093168,-0.060590453,0.053592317,-0.060381453,0.09899322,-0.07209683,0.032596286,-0.10419012,0.04996852,0.08911737,0.10653441,0.04718026,0.040070344,0.046668325,-0.07611073,-0.1320001,-0.036794696,-0.10692493,0.0672316,0.039609272,-0.044169392,0.082860105,-0.04419963,0.07786362,0.10320908,0.05546789,0.12389664,-0.07182936,0.0871452,-0.092381515,-0.024142792,-0.064909495,0.10002188
_:152,0.06725102,-0.039573748,-0.087709814,0.073213615,0.0699066,0.013803296,-0.040071927,-0.01620921,-0.02648578,-0.05306257,0.10687836,-0.060576376,-0.14100872,-0.10105843,-0.025529869,0.07970376,-0.0706404,0.03632017,-0.046783034,0.13007374,-0.05346142,-0.12498638,0.09328956,-0.077421494,-0.058581777,-0.04964409,0.12690875,0.15440556,0.117716886,-0.03181731,-0.05410881,-0.026886942,0.035499744,0.07589314,0.035904612,-0.10480783,-0.058230102,-0.06423407,-0.053943586,-0.06495589,0.043954536,0.04978963,-0.11922209,0.06688939,-0.12752861,-0.053745627,0.04444554,0.04282261,-0.06815088,0.018607697,-0.10111501,0.08443736,0.09998053,-0.062151477,-0.12999564,-0.08252797,-0.133757,0.11057277,0.093071535,-0.03701265,-0.07575051,-0.014861122,0.122969665,0.037723593,0.08018098,-0.09129254,0.030542139,0.0038672232,-0.03951971,0.06187122,-0.0655295,0.0988345,-0.060540706,0.016296268,-0.09989175,0.03942387,0.07836101,0.116779156,0.04263933,0.03316008,0.05710644,-0.070357054,-0.1273823,-0.036218967,-0.094769314,0.07755919,0.041021347,-0.049715623,0.073043436,-0.04578045,0.07290115,0.13847327,0.030345725,0.119415626,-0.072998434,0.068138555,-0.11158394,-0.025937114,-0.058976274,0.112182155
_:153,0.10690753,-0.038798217,-0.14038979,0.11563181,0.053005014,0.010167896,-0.047485277,-0.01874104,-0.023455525,-0.031216545,0.043201018,-0.038927894,-0.14591067,-0.08584337,-0.019391492,0.0953092,-0.07747802,0.037343435,-0.037085477,0.12758905,-0.05897852,-0.11813877,0.093802296,-0.104312606,-0.064173736,-0.046723578,0.11435206,0.10180399,0.10187729,-0.043544993,-0.05119422,-0.009560526,0.057713337,0.08845674,0.027792962,-0.07836033,-0.049988538,-0.05239891,-0.047328036,-0.0540982,0.041282963,0.066994436,-0.09543501,0.074666716,-0.106636964,-0.06506427,0.052403834,0.03971655,-0.090974264,0.018660296,-0.083657354,0.09411476,0.09267447,-0.059987526,-0.11293342,-0.093232706,-0.15489385,0.10696895,0.0963199,-0.039587434,-0.07200579,-0.031515576,0.10533517,0.036713652,0.06504955,-0.116245754,0.02917993,-0.028497007,-0.04230307,0.050811827,-0.054795925,0.10040375,-0.07490197,0.034731492,-0.09564408,0.040831782,0.07970294,0.09161843,0.03248013,0.032420207,0.045074254,-0.07000554,-0.12040527,-0.032242913,-0.13088721,0.07715976,0.037778318,-0.043430164,0.102674976,-0.043103945,0.072682634,0.07418604,0.05564278,0.12151255,-0.05550389,0.10194826,-0.078633875,-0.051615357,-0.052505337,0.088185616
_:154,0.10118064,-0.04297876,-0.11571865,0.10115971,0.06658921,0.008915236,-0.050470833,-0.037902515,-0.013650418,-0.041196834,0.09770387,-0.039403368,-0.15019342,-0.09439995,-0.016909055,0.08427033,-0.08318095,0.036766343,-0.062422257,0.11102145,-0.044631466,-0.09142945,0.0589375,-0.113886006,-0.07677464,-0.048646703,0.12959367,0.093209386,0.12666409,-0.044299476,-0.04082159,0.00024278283,0.04505884,0.08463301,0.019500956,-0.09306329,-0.04752031,-0.04555687,-0.07278133,-0.05574116,0.0448334,0.03685318,-0.08534452,0.059555113,-0.10319969,-0.09352973,0.029408846,0.04568531,-0.08876026,0.03602312,-0.09547586,0.09705665,0.09502747,-0.055260565,-0.13914491,-0.08292709,-0.14652579,0.12009734,0.09844193,-0.05415746,-0.05394878,-0.019160988,0.11776974,0.033525866,0.065645255,-0.119303524,0.033964448,-0.03773778,-0.04196866,0.04886444,-0.06763188,0.07758388,-0.07080844,0.03513914,-0.104376145,0.029176269,0.083651744,0.11764294,0.03520586,0.018670887,0.054321032,-0.066157445,-0.12526602,-0.03460055,-0.1254411,0.087374754,0.0364465,-0.05728163,0.06364738,-0.045722708,0.07305634,0.09235765,0.05348147,0.11317304,-0.066013046,0.061014954,-0.08050408,-0.023628138,-0.06592005,0.06738943
_:155,0.113139674,-0.05578597,-0.08839151,0.10429899,0.046987627,0.013462265,-0.042973533,-0.025954671,-0.0227443,-0.044174336,0.08246069,-0.047403935,-0.1444137,-0.08200065,-0.0057001463,0.102385364,-0.08637021,0.009482085,-0.049441144,0.12217196,-0.06259314,-0.12033501,0.09602516,-0.11515203,-0.04186247,-0.06403653,0.09374967,0.12642369,0.12534338,-0.038798455,-0.052668966,-0.03841624,0.052947715,0.08208099,0.023863398,-0.089826696,-0.06937379,-0.051324636,-0.05297702,-0.054612145,0.04592636,0.03210229,-0.1227727,0.074792966,-0.098613836,-0.08046306,0.041890055,0.047544792,-0.06614857,0.011548253,-0.09224934,0.082245044,0.08927965,-0.063895956,-0.14312609,-0.09542819,-0.11424894,0.10693103,0.086280346,-0.038764883,-0.06858171,-0.034474332,0.11667571,0.040409338,0.0689658,-0.11000975,0.034763295,-0.009548835,-0.05249534,0.050459925,-0.064853095,0.101496905,-0.08039434,0.03924076,-0.08289754,0.048434924,0.08501616,0.1155844,0.03536367,0.03889263,0.035702832,-0.08988612,-0.11198223,-0.0326167,-0.10766915,0.07768749,0.036607753,-0.04641793,0.08704269,-0.043382358,0.08144795,0.12536675,0.04910771,0.11253434,-0.0784148,0.07135439,-0.08965304,-0.021143151,-0.0686733,0.05178222
_:156,0.11292254,-0.030652447,-0.14781582,0.12744403,0.025605425,0.020376706,-0.047552295,-0.023922812,-0.032445136,-0.052433766,0.09603969,-0.05043803,-0.14976981,-0.0819986,0.0052478765,0.08888165,-0.07967509,0.029949153,-0.0497129,0.13864423,-0.09239206,-0.13471857,0.061893966,-0.0933702,-0.05547493,-0.054046355,0.09847148,0.1292815,0.13367839,-0.027605694,-0.03037509,-0.018961744,0.07904254,0.0993297,0.019649606,-0.072468944,-0.078211114,-0.04590194,-0.06737279,-0.0596388,0.051120695,0.056363374,-0.14155671,0.07161084,-0.11215547,-0.0826915,0.03934064,0.027065065,-0.0831998,0.025849216,-0.086339936,0.07761748,0.083103485,-0.06008599,-0.10763413,-0.05312602,-0.12801147,0.09945486,0.09192263,-0.041406076,-0.06506217,-0.04093407,0.10441977,0.038527884,0.06474254,-0.10969943,0.055305414,-0.024632892,-0.069995,0.028242212,-0.029454267,0.08942335,-0.10326255,0.01652293,-0.10271976,0.042149525,0.10607825,0.090112135,0.049921133,0.028988406,0.055846304,-0.08696473,-0.12854357,-0.049375903,-0.106057,0.07912125,0.0394286,-0.050393004,0.08458742,-0.039292477,0.0353169,0.07216827,0.03866786,0.088429846,-0.032976355,0.052117918,-0.108706586,-0.029493885,-0.045806106,0.09785502
_:157,0.123964995,-0.02642877,-0.12769601,0.09763013,0.03203268,0.0075789536,-0.04459762,-0.024691785,-0.020099003,-0.034665026,0.09353899,-0.042781297,-0.10248491,-0.08038952,-0.039755646,0.07472671,-0.11298327,0.03825359,-0.05018068,0.13399257,-0.052425195,-0.1309295,0.11199555,-0.10295898,-0.0585722,-0.04764607,0.1371011,0.106957026,0.12977579,-0.038222775,-0.024346957,-0.008219807,0.061673917,0.100851625,0.02156259,-0.107911386,-0.03659933,-0.06954312,-0.034571644,-0.03357626,0.049385943,0.029888447,-0.12600653,0.06872639,-0.10418951,-0.08195526,0.040198565,0.027337901,-0.097682945,0.017217783,-0.07673887,0.09149159,0.084265,-0.05954954,-0.11429889,-0.083972156,-0.1055285,0.107498385,0.09155586,-0.043577153,-0.07380642,-0.03906766,0.083494976,0.017199965,0.04697936,-0.08868177,0.04898986,-0.046807416,-0.04263397,0.057091966,-0.071467005,0.09426619,-0.04931308,0.033131167,-0.12027878,0.04104545,0.11159983,0.13004163,0.04888543,0.04071205,0.051287282,-0.051036093,-0.1343931,-0.051430568,-0.1575588,0.07813423,0.04839153,-0.05138713,0.0715719,-0.044216085,0.03961667,0.10851722,0.053808726,0.11355459,-0.04755801,0.070338845,-0.051288124,-0.027250506,-0.04473714,0.08894577
_:158,0.12538095,-0.061259855,-0.12155608,0.12870066,0.051736925,0.00061348616,-0.0482359,-0.028074779,-0.024383007,-0.05239571,0.10460564,-0.04712673,-0.15504,-0.09718667,-0.006532044,0.08815429,-0.117703274,0.03465056,-0.052986328,0.12733527,-0.042729836,-0.11013946,0.08544472,-0.10422034,-0.07438578,-0.060674023,0.11780957,0.12748292,0.118938185,-0.049097676,-0.030104967,-0.028125463,0.0484732,0.08124004,0.038536225,-0.079608954,-0.05765606,-0.06462163,-0.058054063,-0.07004022,0.053114552,0.04557406,-0.08544509,0.07311632,-0.08039445,-0.06574627,0.05184535,0.016279828,-0.099587545,0.014758642,-0.09250903,0.061832353,0.094026774,-0.059869494,-0.05924933,-0.054188605,-0.11730526,0.10151409,0.099594355,-0.052723195,-0.08031037,-0.02970611,0.11825879,0.03179967,0.0712633,-0.12763608,0.051892083,-0.018884094,-0.0658806,0.041548695,-0.06287787,0.10284237,-0.06447177,0.005487685,-0.11149732,0.040328674,0.08700012,0.1340641,0.046360265,0.04055831,0.05517858,-0.0615738,-0.14554712,-0.033951327,-0.1162926,0.055858348,0.031206038,-0.050685167,0.06446681,-0.050953027,0.043535255,0.06823143,0.05281607,0.11756823,-0.051823594,0.07113838,-0.0840452,-0.011195318,-0.058189407,0.087514475
_:159,0.11618087,-0.036196303,-0.12375378,0.13739933,0.030861067,0.015124808,-0.03377598,-0.027677715,-0.014756256,-0.045216627,0.071377024,-0.06176444,-0.14063424,-0.09964338,-0.016818972,0.07447615,-0.117115185,0.03986943,-0.07329412,0.12776732,-0.041856356,-0.12680039,0.09484606,-0.082914785,-0.053643055,-0.041081365,0.120696686,0.11886826,0.12223567,-0.030339697,-0.02356734,-0.027036961,0.05303267,0.09167134,0.026072219,-0.0861236,-0.057873838,-0.043237217,-0.039706796,-0.04437593,0.037387554,0.05686901,-0.08898187,0.081850596,-0.089832075,-0.079808876,0.05068321,0.013712949,-0.08073035,0.019012684,-0.08523496,0.096611,0.09086809,-0.07485582,-0.108843304,-0.11122214,-0.14679538,0.11065719,0.09304042,-0.053019438,-0.06804096,-0.035786163,0.11243994,0.031956363,0.01512495,-0.10581571,0.04943054,-0.03374904,-0.06139918,0.06687493,-0.04898457,0.092411295,-0.0866156,0.016889941,-0.11128375,0.04937828,0.087448806,0.09285281,0.047156326,0.051215533,0.057686258,-0.06999615,-0.1317044,-0.039724205,-0.15902565,0.06718124,0.03244143,-0.058082342,0.08397723,-0.041826062,0.042240385,0.10449791,0.050274666,0.10090604,-0.055351846,0.0860886,-0.061675232,-0.029291412,-0.06684661,0.06453602
_:16,0.095659435,-0.05753771,-0.16569631,0.1279536,0.012884508,0.07746993,-0.059583467,-0.051553894,-0.033681195,-0.03723004,0.1339202,-0.06222952,-0.08134731,-0.106623404,-0.04761204,0.14271057,-0.08686624,0.047731385,-0.0610405,0.12983352,-0.013545621,-0.05239408,0.095392145,-0.10319471,-0.016416112,-0.015875313,0.14146242,0.10295638,0.075817786,-0.0290625,-0.029208142,-0.0536691,0.024305271,0.106285885,0.022535233,-0.108296834,-0.067494124,-0.027199768,-0.07514507,-0.052213743,0.03841911,0.053133786,-0.060490973,0.067055486,-0.10721071,-0.058943752,0.07916122,0.0591646,-0.078843884,0.03524021,-0.09344444,0.0565768,0.066860266,-0.010179355,-0.11157857,-0.093228236,-0.07947804,0.074483596,0.09278234,-0.05465401,-0.034691673,-0.07576611,0.13069546,0.02273608,0.028766403,-0.07722119,0.0503473,-0.04126521,-0.096262336,0.024188217,-0.0855868,0.115569465,-0.06080265,0.04449597,-0.08436957,0.035381448,0.07454452,0.04606313,0.099310204,0.02724392,0.050388206,-0.073216744,-0.15245815,-0.026068427,-0.12804703,0.1149437,0.07012013,-0.075204186,0.062091324,-0.05532771,0.03222003,0.12521179,0.0086984,0.1108243,-0.06987542,0.06485843,-0.092797264,-0.03539764,-0.04919357,0.11083246
_:160,0.12821849,-0.049353942,-0.14193742,0.11609372,0.05012624,0.063034855,-0.038611967,0.0018822119,0.008419189,-0.04182025,0.08380038,-0.036580626,-0.14526772,-0.102703646,-0.021276858,0.04791751,-0.083404504,0.056294706,-0.051613178,0.05569623,-0.03723639,-0.14794923,0.06419461,-0.096702814,-0.038622137,-0.03640897,0.1400143,0.114289306,0.12918077,-0.04063144,-0.018562598,-0.010143888,0.034863938,0.09323348,0.027411444,-0.07650194,-0.05720587,-0.03438704,-0.06254974,-0.05276437,0.04564136,0.074327275,-0.11232543,0.08121844,-0.11019146,-0.084918134,0.042684954,0.032706473,-0.10007761,0.0117620025,-0.08565624,0.09523281,0.09687207,-0.074061245,-0.14720939,-0.06854182,-0.08887896,0.10473446,0.091424726,-0.051900554,-0.07366317,-0.04036414,0.13704799,0.0132324025,0.06500466,-0.055793494,0.054514416,-0.030998548,-0.04265637,0.05842173,-0.080414146,0.09214741,-0.04079373,0.025446005,-0.10978373,0.048551712,0.08026305,0.10466382,0.019369677,0.055688534,0.047211345,-0.068299465,-0.16223034,-0.03805859,-0.1640196,0.055124667,0.025687385,-0.058849957,0.08671301,-0.045737796,0.044466633,0.10037961,0.046855137,0.11043077,-0.06647769,0.10234955,-0.088463545,-0.034094844,-0.06676938,0.08950701
_:161,0.10078901,-0.03335557,-0.09754085,0.111604966,0.030150762,0.023410805,-0.043596253,-0.020157317,-0.029424882,0.0008259641,0.092255704,-0.049715534,-0.16889876,-0.103684105,-0.007328804,0.07317476,-0.08317738,0.052704625,-0.06198015,0.1428052,-0.053959444,-0.12732324,0.09114347,-0.120848015,-0.053971343,-0.06540617,0.096472695,0.11457084,0.078245245,-0.044098657,-0.03261345,-0.005516364,0.053474944,0.07569163,0.03815912,-0.10226003,-0.05755205,-0.05476937,-0.056029502,-0.05310181,0.05675929,0.032992024,-0.10446659,0.07624482,-0.11842736,-0.079851635,0.03794282,0.02239936,-0.017312074,0.02276158,-0.10550028,0.07859383,0.10609996,-0.050638594,-0.098085925,-0.078447685,-0.13339423,0.11670074,0.09382939,-0.055591844,-0.07031044,-0.026002409,0.11748626,0.03376807,0.0624177,-0.10045032,0.053376377,-0.038181685,-0.049449626,0.03777457,-0.044838645,0.090978265,-0.080519356,0.00031279773,-0.10232322,0.056114215,0.08582373,0.1120019,0.050042063,0.044350192,0.05671982,-0.076441154,-0.14247109,-0.048249133,-0.15794876,0.0710052,0.04933748,-0.04135952,0.0740849,-0.04526836,0.040476233,0.07062801,0.06921497,0.08071897,-0.070858486,0.06783246,-0.08925416,-0.039774373,-0.06250542,0.08922941
_:162,0.104394086,-0.045363095,-0.12260746,0.111173145,0.03277688,0.022359764,-0.032569025,-0.022618458,-0.06090553,-0.04167592,0.089326665,-0.044850662,-0.16068576,-0.10551966,-0.024406461,0.09893794,-0.11244599,0.038892362,-0.06104592,0.11806814,-0.043239553,-0.10807057,0.09844316,-0.10429352,-0.03698539,-0.05189443,0.13696148,0.098581776,0.13281445,-0.042265628,-0.015918756,-0.017342605,0.031996824,0.017887611,0.035763323,-0.08458757,-0.072904184,-0.049184866,-0.05779105,-0.031354893,0.056886766,0.08343045,-0.055436056,0.067171,-0.110417366,-0.105068885,0.03041744,0.03334717,-0.046364248,0.014691791,-0.105002716,0.10136644,0.08497333,-0.057950173,-0.08465224,-0.0708888,-0.1771877,0.13477021,0.09460552,-0.03842246,-0.04974,-0.0420176,0.0990206,0.035863712,0.0564068,-0.09478641,0.052255865,-0.02374745,-0.07311445,0.060411066,-0.077877745,0.062908776,-0.07856278,0.021267561,-0.1055119,0.056444634,0.094215766,0.07374505,0.040510718,0.04436379,0.047904562,-0.08604502,-0.1597023,-0.0260584,-0.1671398,0.06726583,0.030196948,-0.045320507,0.06266996,-0.03535717,0.060669806,0.09239424,0.030920727,0.11978548,-0.0523516,0.100635685,-0.06824808,-0.014355986,-0.06758799,0.073423415
_:163,0.102614425,-0.034427,-0.12141007,0.115622625,0.029560637,0.0077123167,-0.05084542,-0.022009358,-0.017358046,-0.02622985,0.057609256,-0.055539403,-0.15858765,-0.10202592,-0.045546714,0.07042764,-0.09074152,0.03178655,-0.0597907,0.13303643,-0.060251016,-0.0984875,0.08365079,-0.10628389,-0.07206986,-0.05129392,0.11902848,0.12275215,0.10356285,-0.02816911,-0.031808436,-0.00012760176,0.060354438,0.07914547,0.033031482,-0.097448625,-0.04207373,-0.045285545,-0.06843702,-0.038722727,0.051658046,0.07041052,-0.11494852,0.08246957,-0.11369015,-0.06835689,0.043681607,0.027279904,-0.08445403,0.01852531,-0.10118291,0.079119116,0.106412545,-0.07132607,-0.079393215,-0.09061959,-0.11407422,0.11150132,0.10148918,-0.055598024,-0.06122391,-0.049847387,0.11791229,0.03489978,0.07614135,-0.111176394,0.051316366,-0.0151448045,-0.057231683,0.07176169,-0.04903784,0.0918168,-0.09289143,0.010151351,-0.106055886,0.053974688,0.06432144,0.1252426,0.04072529,0.03471783,0.05377108,-0.06600242,-0.1163188,-0.041086093,-0.14074187,0.07394835,0.033371832,-0.048854493,0.07583677,-0.03696567,0.04083075,0.099765465,0.03688345,0.12131263,-0.054050107,0.08472433,-0.07848286,-0.029283289,-0.05387762,0.08666765
_:164,0.11635201,-0.036337566,-0.13596745,0.0716682,0.04637479,0.012362304,-0.048307706,-0.03423771,-0.027572632,-0.03155115,0.10814379,-0.04639439,-0.12012428,-0.08707655,-0.01496395,0.086790465,-0.063754626,0.0237829,-0.05018581,0.119648345,-0.07649355,-0.117949575,0.064206444,-0.0829646,-0.038019158,-0.04997566,0.11290801,0.10786537,0.12660846,-0.031569656,-0.057452895,-0.008386336,0.049601674,0.08103857,-0.001385909,-0.122454524,-0.046890635,-0.027889285,-0.046731643,-0.06388035,0.056856826,0.054988652,-0.14821616,0.037460633,-0.116743125,-0.089248754,0.03529848,0.03449493,-0.08863196,0.030982606,-0.09602088,0.08376178,0.101052426,-0.07764059,-0.10667018,-0.07502978,-0.14650029,0.12489059,0.082217254,-0.051197547,-0.06638136,-0.005044032,0.12460086,0.04615708,0.062026013,-0.07246979,0.04530907,-0.027098795,-0.05001699,0.06768988,-0.047508273,0.09312633,-0.073911116,0.024057508,-0.09840132,0.05213961,0.089427754,0.10190357,0.03831346,0.04713644,0.025455825,-0.07391961,-0.11847818,-0.03377004,-0.13908193,0.07716833,0.06258565,-0.046823848,0.07990609,-0.05207889,0.0637463,0.09887965,0.035755996,0.13653469,-0.044617634,0.099126436,-0.10410805,-0.030480757,-0.069116086,0.06275675
_:165,0.1041282,-0.04033949,-0.118880555,0.09317757,0.043592222,-0.0019021374,-0.042635772,-0.025251161,0.004180484,-0.042318795,0.08504854,-0.055346966,-0.12282367,-0.0869049,-0.025492825,0.07530669,-0.11466652,0.040145125,-0.04503623,0.123711675,-0.07664857,-0.15849467,0.09938304,-0.13027899,-0.046800774,-0.057518534,0.1243752,0.12948474,0.12213479,-0.031318966,-0.06275468,-0.008188898,0.041354273,0.08959412,0.001518851,-0.08179191,-0.052710965,-0.03615292,-0.0488296,-0.036257003,0.053351723,0.07813742,-0.1055621,0.0828912,-0.1146528,-0.082113825,0.053379495,0.0429119,-0.07293554,0.03195906,-0.08493209,0.09509981,0.09346967,-0.06190133,-0.12845123,-0.08951742,-0.11760187,0.11726907,0.07942139,-0.061228454,-0.05466705,-0.03991454,0.105084926,0.042707693,0.07321306,-0.1029392,0.04450667,-0.019620528,-0.053380832,0.045353416,-0.06574098,0.09868241,-0.106088474,0.02253613,-0.08779755,0.05184476,0.07194811,0.08901815,0.04916786,0.024649696,0.017449634,-0.065691836,-0.11080138,-0.041620884,-0.12145272,0.08451944,0.03435265,-0.043606643,0.105924994,-0.04526102,0.07680587,0.114812054,0.049851518,0.10277356,-0.04895263,0.08504575,-0.061031643,-0.028740888,-0.053900436,0.09161276
_:166,0.11590361,-0.048245497,-0.15067817,0.103244394,0.04554971,0.018332794,-0.03039851,-0.042384632,-0.028079024,-0.039727155,0.09924627,-0.047853224,-0.13177636,-0.09240085,-0.00151849,0.1023819,-0.121177204,0.029142115,-0.06101749,0.13912003,-0.06977157,-0.114040606,0.074915685,-0.11700668,-0.06013172,-0.059280794,0.092472,0.11120672,0.10526417,-0.052978214,-0.054988112,-0.028147269,0.0593075,0.07436027,-0.007628238,-0.08869825,-0.052957032,-0.040549878,-0.048620254,-0.04439602,0.060221214,0.036666237,-0.14940201,0.0590125,-0.11643835,-0.08810245,0.028994534,0.050421137,-0.07577742,0.029037585,-0.09082884,0.09967536,0.10039443,-0.059393726,-0.12548092,-0.06349592,-0.112098366,0.12670322,0.095151514,-0.045575656,-0.06649996,-0.021402327,0.08028038,0.032617435,0.032780036,-0.104088515,0.04255017,-0.029448437,-0.04883963,0.048488114,-0.056557752,0.10430635,-0.07030696,0.02287659,-0.09412857,0.056936882,0.06665278,0.11507362,0.040791597,0.03723288,0.018791277,-0.06702575,-0.12109377,-0.028925683,-0.12617932,0.04822168,0.044749834,-0.039560087,0.08363044,-0.05180222,0.07112198,0.086712815,0.043245893,0.12101396,-0.056427103,0.08737705,-0.09166661,-0.046931803,-0.08615562,0.06939241
_:167,0.12791316,-0.054004177,-0.13871986,0.119847864,0.048121475,0.019223569,-0.045324408,-0.026573721,0.00016515907,-0.041480727,0.09699054,-0.074619465,-0.10974024,-0.079341605,-0.018032147,0.09822603,-0.0989506,0.03439274,-0.08423321,0.12716986,-0.058832165,-0.080816954,0.0739516,-0.11094923,-0.044679705,-0.051846217,0.121539384,0.11943516,0.11725847,-0.031793687,-0.057553105,-0.006776709,0.021498652,0.060614504,0.0110275615,-0.075387485,-0.057175253,-0.03846707,-0.069495425,-0.04682015,0.0495545,0.03139555,-0.1205247,0.053191558,-0.1091101,-0.07367246,0.03622491,0.035014644,-0.10037411,0.027878797,-0.090984434,0.07772708,0.08909312,-0.0673254,-0.1259125,-0.109684855,-0.13054082,0.12011578,0.089200035,-0.044810615,-0.07648575,-0.02436886,0.10109336,0.04499777,0.06552515,-0.10128018,0.045832053,-0.035441894,-0.04146487,0.050387155,-0.065511204,0.10674896,-0.086724035,0.025603246,-0.07236416,0.044009306,0.08474027,0.12665842,0.04765805,0.04940705,0.0108809015,-0.06832498,-0.13268726,-0.031675097,-0.10885998,0.057469394,0.039457396,-0.053024773,0.07879498,-0.046903968,0.07368426,0.083712325,0.048140228,0.119221464,-0.056940354,0.08898592,-0.099901244,-0.008088551,-0.08731136,0.07589751
_:168,0.1241144,-0.048516132,-0.11850742,0.113915496,0.04368134,0.018620236,-0.04307454,-0.030499553,-0.02553418,-0.040305693,0.1077145,-0.05099124,-0.13182607,-0.093011126,-0.012834359,0.077412486,-0.11165765,0.029196749,-0.06258608,0.14348285,-0.056391053,-0.11650112,0.09364055,-0.120432466,-0.059387967,-0.05747427,0.08323728,0.14555106,0.13185269,-0.03516716,-0.05938751,0.0017440807,0.045260977,0.08543837,0.002238932,-0.07683539,-0.052457247,-0.059079286,-0.068487756,-0.051157203,0.040804558,0.078599654,-0.08217712,0.07723457,-0.12490507,-0.08532301,0.059769772,0.0346603,-0.09675599,0.023295457,-0.08257615,0.08707044,0.09586622,-0.060942765,-0.11505572,-0.1092283,-0.098290004,0.105857976,0.09516925,-0.042707637,-0.078263365,-0.025954647,0.10669984,0.03583919,0.06579609,-0.09515422,0.044512287,-0.041059215,-0.037500665,0.06562466,-0.0408796,0.088367686,-0.09604728,0.023566267,-0.0935844,0.0463469,0.07269061,0.122767866,0.03561133,0.025801392,0.024809908,-0.08110558,-0.12221061,-0.037945773,-0.078848265,0.07610248,0.03809945,-0.04969107,0.07879088,-0.05595973,0.06607069,0.09882545,0.053790487,0.123243876,-0.042779475,0.0742105,-0.09585695,-0.025159314,-0.060350645,0.07041699
_:169,0.110095434,-0.04985265,-0.13975187,0.10609918,0.049881123,0.0077801426,-0.033901084,-0.024368713,-0.022975868,-0.02454861,0.1034804,-0.04173549,-0.07697724,-0.09845093,-0.02414596,0.06775809,-0.08765402,0.04117597,-0.055082455,0.10284963,-0.061770953,-0.1501831,0.09850508,-0.114553794,-0.06930892,-0.0626076,0.051244467,0.12261398,0.14329088,-0.036192242,-0.05438648,-0.0025122461,0.061857127,0.1025706,-0.0034061347,-0.083763346,-0.06965934,-0.06829727,-0.048278917,-0.0594286,0.042382136,0.06239407,-0.11292196,0.091787696,-0.11223807,-0.026441036,0.04322524,0.026499193,-0.08384276,0.014230055,-0.095860384,0.090912215,0.101166524,-0.05103361,-0.11754865,-0.09151091,-0.11675103,0.118744664,0.09297653,-0.036973417,-0.06619114,-0.034555495,0.09804365,0.046687543,0.061091833,-0.10710922,0.04143294,-0.05330949,-0.0638568,0.04987294,-0.01879389,0.096808,-0.08945366,0.023958558,-0.111057006,0.049469464,0.08316838,0.119415514,0.048514687,0.05029325,0.009594776,-0.06497266,-0.1374129,-0.028382123,-0.1537452,0.064731516,0.03996605,-0.044483446,0.08469268,-0.05688684,0.06852092,0.09944017,0.078898646,0.111046135,-0.08691749,0.07546833,-0.06709708,-0.013958489,-0.06714431,0.08044753
_:17,0.09181207,-0.060721934,-0.12322235,0.08496997,0.050399795,0.07936321,-0.047748264,-0.050476417,-0.010351082,-0.034854792,0.08231242,-0.073022865,-0.13500555,-0.114941165,-0.040584747,0.1292097,-0.07595136,0.05290858,-0.065006845,0.12007275,-0.013629834,-0.090613164,0.14102674,-0.09391056,-0.03378817,-0.0075212047,0.101625346,0.12567402,0.12055598,-0.022726677,-0.053289276,-0.057016507,0.048121504,0.11541248,0.049423732,-0.07490526,-0.088261984,-0.048437234,-0.069622844,-0.04142794,0.044681188,0.025247041,-0.05584177,0.0640616,-0.079016685,-0.0760313,0.102100044,0.068106145,-0.056185476,0.03698481,-0.099150814,0.051709108,0.06914329,-0.012803252,-0.14851111,-0.09340651,-0.080115914,0.0797486,0.109355554,-0.034182448,-0.039865173,-0.053589217,0.110188924,0.03219599,0.052581783,-0.113431714,0.024438495,-0.036417406,-0.095069945,0.020416714,-0.040866233,0.11473119,-0.015715767,0.0472484,-0.08472892,0.03855341,0.06749189,0.057563823,0.07431444,0.02337648,0.056649588,-0.07915852,-0.1584862,-0.012656527,-0.10039374,0.12049186,0.044445373,-0.04284215,0.061487317,-0.050369207,0.06600065,0.1107381,-0.03096392,0.0906348,-0.086489365,0.081558116,-0.103377536,-0.05186999,-0.053666465,0.07868415
_:170,0.109790884,-0.0412695,-0.11218075,0.10145566,0.03091046,0.013324315,-0.0450007,-0.016106006,-0.04363807,-0.04445767,0.09219363,-0.053178065,-0.07454078,-0.09976193,0.0029679576,0.085625924,-0.09476587,0.028990032,-0.06634044,0.15205085,-0.04451274,-0.14569446,0.08548035,-0.12150732,-0.056408465,-0.06360269,0.12374116,0.1302606,0.0994546,-0.01964116,-0.045757167,-0.013242346,0.065481395,0.069563724,0.006347504,-0.084530726,-0.04699004,-0.067506224,-0.05678794,-0.03709236,0.06479459,0.09032915,-0.10261171,0.06442855,-0.07669496,-0.07673759,0.05042395,0.037230484,-0.10394518,0.02027578,-0.093454316,0.092569865,0.09250236,-0.056109205,-0.10764259,-0.049969565,-0.11966641,0.12048815,0.09284062,-0.052504428,-0.069464505,-0.021510273,0.11076769,0.03313803,0.07883556,-0.1088313,0.03760616,-0.03477968,-0.04836889,0.053590324,-0.0021519735,0.11211979,-0.08223635,0.018887097,-0.10259464,0.056316465,0.09491364,0.08836204,0.053110443,0.038104955,0.017805185,-0.083797604,-0.14070094,-0.03625069,-0.16666847,0.06918475,0.04791845,-0.056656256,0.0672033,-0.05627628,0.07613725,0.10410422,0.043844286,0.091104336,-0.05898706,0.076392226,-0.085569456,-0.036922824,-0.06581484,0.080116585
_:171,0.11540431,-0.056583315,-0.11281208,0.0861997,0.04553233,0.01719103,-0.053089667,-0.028903417,-0.012083364,-0.015318709,0.080988064,-0.05168468,-0.1395962,-0.09260605,0.010287259,0.10607014,-0.08819194,0.028799273,-0.06603542,0.14938003,-0.069682986,-0.13954854,0.08440437,-0.10131307,-0.042145297,-0.046929535,0.06343496,0.08904341,0.1018248,-0.042352468,-0.0642408,-0.005692176,0.07173426,0.05867671,0.0027016513,-0.097648844,-0.04971439,-0.030419508,-0.062498786,-0.045300722,0.057611365,0.04566955,-0.11371426,0.070525706,-0.12342666,-0.09206777,0.055691145,0.049772285,-0.081644006,0.02665412,-0.09776961,0.10343562,0.10385574,-0.06397715,-0.13650855,-0.092930764,-0.15614098,0.12706146,0.10111501,-0.05445035,-0.058661513,-0.023449255,0.11122915,0.044570662,0.07718577,-0.10282746,0.043319378,-0.022260861,-0.0736486,0.062285658,-0.07400697,0.09307739,-0.06527096,0.021266641,-0.08765139,0.038222846,0.07117566,0.07883332,0.05481878,0.016196864,0.011374421,-0.07502211,-0.1325878,-0.03659699,-0.13240261,0.07785724,0.03797067,-0.05744099,0.0903125,-0.054543238,0.06942668,0.11172882,0.037548922,0.12985195,-0.045835935,0.042361554,-0.072839655,-0.037704315,-0.059095804,0.0792233
