,0,1,2,3,4,5,6,7,8,9,10,11,12,13,14,15,16,17,18,19,20,21,22,23,24,25,26,27,28,29,30,31,32,33,34,35,36,37,38,39,40,41,42,43,44,45,46,47,48,49,50,51,52,53,54,55,56,57,58,59,60,61,62,63,64,65,66,67,68,69,70,71,72,73,74,75,76,77,78,79,80,81,82,83,84,85,86,87,88,89,90,91,92,93,94,95,96,97,98,99
http://www.benchmark.org/family#F2M13,0.026747504,-0.012757443,-0.05184355,0.0116295535,0.08563589,0.08909175,-0.05709378,-0.13525507,-0.025026017999999997,-0.12244061,0.017054481,-0.16050452,-0.04421366400000001,-0.07108188,-0.02561864,-0.016673025,-0.033188403,0.14056271,-0.086769275,0.12004633,-0.013419974,0.027645352999999998,0.037191592,-0.032440696,-0.09415818,-0.092174605,0.04172712,0.0017817526000000001,0.015555151000000001,0.086784504,-0.11951075,-0.11181556,0.10065202,0.049735323,0.11663306,-0.0042609037,0.015275232,-0.09962659,-0.017147947,-0.13741723,0.093342654,0.037262194,-0.02123997,0.14777562,-0.046728827,-0.10055073,-0.032659348,0.059464708,-0.039872818,0.0773084,-0.037366927,0.12370556,0.090959735,-0.08004484,-0.064090535,-0.025052875,-0.037342705,0.120775685,0.05861257,-0.036585644,-0.05929248,-0.09001763,0.056604805999999994,0.10962955,-0.021431446,-0.053499807,0.09123152,-0.049113172999999996,-0.018486356000000002,0.09471216,-0.09162243,0.003934519,-0.03050917,0.05838691,-0.013265388999999999,0.09957114,0.11801410000000001,0.06677749,0.034087546,0.05759065,0.14947423,-0.022566193999999998,-0.09485489999999999,-0.09813652,-0.013764671000000001,0.003355865,0.119986735,-0.14208086,0.08886499,-0.09114703,0.027488883999999998,0.090514705,0.13758942,0.0076233805000000005,-0.0016279097,-0.0063715759999999995,-0.0057899863,-0.083827354,-0.01022853,0.051417936
http://www.benchmark.org/family#F2M31,0.06708017,-0.13912760000000002,-0.07717777,0.054814067,0.056492455,0.08249917,-0.12043026,-0.15162614,-0.07353652,-0.13193241,0.021046355,-0.09101106,-0.0034222025,-0.13974816,-0.08742811,0.023741791,0.0007685877000000001,0.058999296,-0.06755969,0.07782935,-0.085695274,-0.012713727,0.01824222,-0.053948,-0.11530279,-0.07062052,0.04601740000000001,0.061030343,0.050429395999999994,0.005219145,-0.10468583599999999,-0.13308348,0.07817403,0.090960376,0.06911736,-0.017890133,-0.101681754,-0.08682099,0.0042782924,-0.06751752,0.061879642,0.053146306,-0.041751303,0.13463786,0.03940699,-0.06788813,0.056810025,0.07027107,0.005891766999999999,0.09982989,0.02795327,0.12656139,0.08577148,-0.123631224,-0.025065993999999998,-0.03412552,-0.0041968944,0.15301466,0.019759433,-0.06475587,-0.019164976,-0.14123096,0.05089413,0.10557301,0.032281693,-0.047326982000000004,0.11347807,-0.055853922,-0.043738227000000005,0.0810508,-0.03453412,0.010912138,-0.05968711,0.103790015,-0.0068802690000000005,0.12303324,-0.032688845,0.08807984,0.019398438,0.10213116,0.09832526,-0.01864771,-0.075848475,-0.10050071,-0.0011796752,0.13612325,0.09848335,-0.06913420599999999,0.114353105,-0.10775751,0.10585697,0.040894885,0.09997185,0.13231254,0.03930244,0.035164226,0.014694608,-0.11101692,-0.0015772575,0.042339474
http://www.benchmark.org/family#F2M18,0.050090462,-0.05292821,-0.03236124,0.05960169,0.06609652,0.11330837,-0.0960649,-0.0889289,-0.046932645,-0.10596089,-0.0049022384999999995,-0.13693699999999998,-0.048986107,-0.095951386,-0.04024466,-0.0011809174,-0.0006292527,0.12527169999999999,-0.07904027400000001,0.12161577,-0.027975176,0.018049162,0.022385698,-0.055370394,-0.10298319,-0.07522782,0.026546296,0.0018182214000000002,-0.0022702422,0.051969512999999995,-0.12296966,-0.06446863,0.12592714,0.033247568,0.10481198,-0.018777484,0.033666737,-0.093667954,-0.017245186000000003,-0.10692596,0.07170444,0.013241989,-0.013611962,0.20703727,-0.038281243,-0.12210291599999999,-0.06794644,0.09174169,-0.07535053,0.07870153,-0.029559473,0.10655252,0.091322675,-0.06721758,-0.060277168,-0.009179123,-0.058290757,0.13249138,0.056336055999999995,-0.071850404,-0.09337683,-0.04873308,0.08433384,0.10089656,0.031604216,-0.039519202,0.07108233,-0.032677452999999995,-0.038437564,0.08725573,-0.090327345,0.010318451999999999,-0.039382566,0.11289504,0.0032179982,0.15788443,0.09648995,0.035943583,0.036910105,0.04800879,0.14310963,-0.06890899,-0.12844656,-0.12188111,-0.011532272,-0.013437629,0.10613027,-0.14765866,0.10144869,-0.07056696,0.010051227,0.08216319,0.13671382,-0.024928598,-0.009431098,-0.01813163,-0.031110585,-0.041761722,-0.071501225,0.04568223
http://www.benchmark.org/family#F2M35,0.004397922,-0.11270933,-0.050092064000000006,0.042138893,0.07829236,0.08927416,-0.08019338,-0.12987119,-0.14644904,-0.12954576,0.02006411,-0.13022837,-0.04202182,-0.045019206,0.013013006,0.0041627767,-0.0030374182,0.17264827,-0.08788359,0.10394015,-0.10130587,-0.018914776,0.040500898,-0.055517014,-0.08271597,-0.13565847,-0.010218826,0.026584161000000002,0.03877245,-0.04315783,-0.09686656,-0.07921203,0.07589286,0.055633627000000005,0.0635028,0.010257546,0.081087954,-0.08145705,-0.00027910576000000003,-0.13840106,0.0866973,0.10088629,0.012455141999999999,0.18867372,-0.018563561,-0.101929836,0.018489452,0.08749872,-0.033994325,0.07720503,-0.017499879,0.097992495,0.065555975,-0.09472846,-0.090662755,-0.026681767999999998,-0.05700677,0.10013835,0.025216613,-0.102969274,-0.10490581,-0.11072058,0.09495081,0.07009599,0.051943142000000005,-0.07909031,0.07945104,-0.035298645,-0.022749236000000003,0.06645367,-0.08745023,0.01528003,-0.046989854000000005,0.08257499,0.0036532076,0.18567818,0.17135525,0.08814227,0.04494565,0.04904585,0.12208915,-0.047135554,-0.079439856,-0.048052356,-0.018963628,0.12999415,0.09471737,-0.17875051,0.14917679,-0.060305092000000005,0.06150166,0.08997116,0.17528583,-0.031115364,0.00694874,-0.009364166,0.012530804,-0.04335148,-0.08710274,0.047420718
http://www.benchmark.org/family#F2M32,0.032716665,-0.023005467,-0.06076447,0.04041726,0.07078575,0.100919135,-0.06887721,-0.051852956,-0.030205721,-0.11141116,0.014807858,-0.15133905,-0.031363938,-0.09817246,-0.038937107,-0.014379031,-0.009864703,0.15227078,-0.065596156,0.10949919999999999,-0.032276344,-0.006164453,0.013266357,-0.057846867,-0.08823067,-0.08514392400000001,0.042440753,0.058692432999999995,0.014531616,0.082248695,-0.09730547,-0.07333924,0.11097509,0.047609165,0.105993405,-0.002832323,0.01965327,-0.08937508599999999,0.010723881999999999,-0.12152704,0.081287235,0.048462517999999996,0.013570843,0.1868789,-0.020372411,-0.09038166,-0.025267811,0.07815566,-0.07909753,0.07195474,-0.019146066,0.10559546,0.08451483,-0.06979212,-0.045736413,-0.020699000000000002,-0.034169022,0.11866262,0.06682229,-0.06778006,-0.09968434,-0.072808795,0.07948582,0.09720538599999999,-0.0073562567,-0.06559849,0.09891859,-0.07021083,-0.060992178,0.11319456,-0.11681029,0.008157102,-0.033051852,0.14910135,-0.012559302,0.11396354,0.12929197,0.069490045,0.03782789,0.05239618,0.16236270000000003,-0.059237443,-0.12328696,-0.13312219,-0.008694703,-0.022824527999999997,0.12314995,-0.12120032,0.084217876,-0.080682345,0.01823743,0.07199833,0.12858763,-0.009639628,0.016880518,-0.00962452,-0.017479662,-0.07371108,0.003844003,0.046724617
http://www.benchmark.org/family#F2M34,0.055369444000000004,-0.15873359,-0.073022515,0.058676474000000006,0.06419219,0.11320817,-0.12483102,-0.09500247,-0.077857286,-0.11753193,-0.013585146499999999,-0.09171168,-0.012977223999999999,-0.18880214,-0.06730184,0.025068973999999997,-0.001980962,0.039617445,-0.04760157,0.095701195,0.0035397097999999997,0.0008576450999999999,0.02578856,-0.051140282,-0.12527996,-0.045322127999999996,-0.022586474,0.034226328,0.04038114,-0.016418993,-0.118917964,-0.08955106,0.084459536,0.091830306,0.06810583,-0.017374838,-0.0689244,-0.103974834,-0.010753153,-0.064018875,0.10561754,0.045339662999999995,-0.05587324,0.17746839,0.022749038,-0.10835401,0.014559947,0.05961426,-0.013021555,0.11792268,-0.025490595,0.090042345,0.08013344,-0.10150854,-0.045772955,-0.017137177,-0.034687415,0.15927441,0.00891191,-0.034965232,-0.026721535,-0.10415017,0.07025909400000001,0.07315283,0.055281725,-0.053227723,0.12205271,-0.036715135,-0.04510534,0.12123719,-0.07699145,0.015778821000000002,-0.042069774000000004,0.12057715,-0.013629378999999999,0.09323943,0.064334534,0.11297307,0.031745985,0.12192736,0.13125469,-0.01833684,-0.075475976,-0.11500103,-0.011589181,0.11533609,0.09746497,-0.08713879,0.08673226,-0.12700278,0.07309953,0.05222919999999999,0.08170996,0.14058928,-0.0080123115,0.017878763,0.012495093,-0.07364627,-0.030205507000000003,0.05494404
http://www.benchmark.org/family#F3M44,0.0058612954,-0.028551824,-0.046754500000000004,0.032219797,0.07550988,0.09623368,-0.10402809,-0.09014132,-0.022105034,-0.11256354,0.044764087,-0.11311727,-0.05635383,-0.09382681,-0.060079332,-0.012712493,-0.01506931,0.14125511,-0.07054218,0.12240459,-0.047424025999999994,-0.018666613999999998,0.05081886,-0.048267387,-0.11084329,-0.082921594,0.023903755,0.04397893,0.031813062999999996,0.09247418,-0.09830933,-0.09223487,0.10901388,0.046301562000000004,0.121959195,-0.006963168299999999,0.029663453,-0.10209881,0.015981637,-0.090698525,0.09415578,0.04675563,0.0051109274,0.16116415,-0.03728521,-0.08795005,-0.020278372,0.077085406,-0.053976132999999996,0.07176091,-0.025600135,0.09950539,0.09895169999999999,-0.06129683599999999,-0.06253257400000001,-0.010911341000000001,-0.064959005,0.13013144,0.07225761,-0.07768439,-0.10656723,-0.09428193,0.08739311,0.100483865,-0.0053633990000000005,-0.06782575,0.06936815,-0.018884001,-0.050867364000000005,0.087450825,-0.117557004,-0.0072076907,-0.010980541000000002,0.11042755,-0.011815003999999999,0.14706388,0.12382536,0.04774063,0.003993959,0.06756262,0.14297152,-0.072180785,-0.12581689999999998,-0.13435806,0.0036561436,-0.020199632,0.113245144,-0.15750758,0.09653089,-0.06701682,0.0017635311999999999,0.0536867,0.1183846,-0.035801847000000005,-0.0016633715,-0.016846701999999998,-0.02734868,-0.07520023,0.030866297,0.051946795999999996
http://www.benchmark.org/family#F2M37,0.057023536,-0.14811477,-0.07552904,0.03957575,0.06271932,0.07524968,-0.07878358,-0.12070149,-0.04629937,-0.16505522,0.008084865,-0.11398235,-0.012948316000000001,-0.14396375,-0.091226205,0.0057199476,0.006100344000000001,0.059490252,-0.05611715,0.08463337,-0.05500398,-0.008607115,0.02474697,-0.046938865999999996,-0.0985954,-0.08970742,0.0004556571400000001,0.01958817,0.051266134000000005,0.014503947,-0.12927838,-0.09215004,0.08148192,0.0876446,0.09446759,-0.03577117,-0.09334882,-0.1105556,-0.013082894,-0.06767825,0.08838074,0.048721007999999996,-0.061990693,0.1755636,0.0030575008,-0.1073281,0.06702741,0.055516776,-0.008461421,0.0744464,0.04210466,0.110247426,0.06758867,-0.14232843,-0.04414752,0.003941771,-0.022025878,0.15748785,0.014836918999999999,-0.045980204000000004,-0.03561281,-0.10493352,0.052845143,0.074076995,0.06551236,-0.054425165,0.13949418,-0.030907057,-0.051743273,0.11276427,-0.072090335,0.014030088000000001,-0.05795166,0.064634,-0.012665257,0.06478152400000001,0.035443353999999996,0.09939568,0.019049572,0.14090782,0.119556405,-0.014491795,-0.0744727,-0.12194258,-0.019194094,0.110966064,0.09895475,-0.09339575,0.102179095,-0.11968426,0.08363587,0.038207226000000004,0.08886876,0.118655905,-0.02438237,0.0026967973,0.00046889446,-0.11474624,-0.016072543,0.060151413
http://www.benchmark.org/family#F3M45,0.031770248,-0.09005476,-0.0465327,0.04330504,0.06571239,0.12169524,-0.10747353,-0.11664442,-0.012083822,-0.11068077400000001,0.0013927078,-0.1191567,-0.02974824,-0.014031742,0.020297093000000002,-0.009215746,-0.019402742,0.10311709,-0.09711402,0.095192805,-0.06087753,-0.028780392999999998,0.022413034,-0.041215982000000005,-0.12670337,-0.07047391,0.00049800845,0.061202599999999996,0.017410383999999998,0.051858913,-0.12764002,-0.09215771,0.14855662,0.08355306,0.09425852400000001,-0.04512225,0.018101553,-0.11277956,0.009900161,-0.09187508400000001,0.09324598,0.041344356,0.022145655,0.13644414,0.0039509144,-0.09999057,0.0026556863,0.060932799999999995,-0.0031662148,0.0882112,0.017315758,0.1273203,0.06577192,-0.082837954,-0.047492024,0.018792368,-0.034988545,0.091214925,0.03796225,-0.047321375,-0.04991956,-0.08893523,0.07737791,0.08744647,0.021640497999999998,-0.05903072,0.11371821,-0.043747548,-0.030155317999999997,0.11326139,-0.09456356,0.0051265107,0.0027901153000000002,0.09716518,-0.010135253,0.11950618,-0.022735177999999998,0.08192427,0.021131935,0.05020686,0.11576558,-0.049278382,-0.09994528,-0.096217,-0.011314399,0.01992609,0.13667706,-0.093217224,0.11449973,-0.10125209,0.022924617,0.058684684,0.11577534,-0.011187937,0.028003207999999998,-0.012744495,-0.010277376,-0.073274285,-0.008978046,0.074713826
http://www.benchmark.org/family#F2M39,0.021156413,-0.09478260599999999,-0.061109147999999995,0.04045616,0.08987322,0.11997982,-0.10009254,-0.089797005,-0.10407636,-0.1170452,0.048115846,-0.10591133,-0.02899957,-0.21539225,-0.08292599,0.071013816,0.009830235500000001,0.10662481,-0.045709014000000006,0.07970346,0.0032867952,0.025442924,0.065127075,-0.03905438,-0.07215498,-0.07724185,0.04390981,-0.0032107215000000003,0.042871147000000005,-0.0012970489,-0.121778995,-0.15618323,0.07862775,0.040690199999999996,0.11787055,-0.010886507,-0.008011013,-0.08809609,-0.009061174,-0.043887300000000004,0.08347792,0.08833067,-0.11802119999999999,0.17889732,-0.037242644,-0.06838827,-0.009218801,0.06467583,0.022696186,0.096703544,-0.00831217,0.090486206,0.09973111,-0.13031489999999998,-0.091179855,-0.06597428,-0.043687776,0.22091272,0.053893127,-0.091524646,-0.048232164,-0.08430226,0.036871693999999997,0.082592525,-0.017073069,-0.048907217,0.12215189,-0.04658669,-0.014062412,0.11387805,-0.036479264,0.035942294,-0.05989501,0.09439895,0.028234702999999996,0.10112076,0.13476506,0.08033374,0.051163122000000005,0.05766563,0.10244953,0.031886406,-0.048297405,-0.080946155,-0.056967117000000005,0.08150137,0.15007111,-0.12935644,0.11220303,-0.09482974,0.08191967,0.07512726,0.10758111599999999,0.096305236,-0.06494488,0.04073233,0.017880183,-0.12318719,-0.06526849,-0.004616940999999999
http://www.benchmark.org/family#F5M64,0.04844914,-0.09754546,-0.043575227,0.053193145,0.05795229,0.10488628,-0.10080312,-0.140672,-0.0036615445000000003,-0.097823225,-0.0008505982699999999,-0.14844970000000002,-0.015937200000000002,-0.045900315,-0.004640696,0.012427048000000001,-0.01852798,0.10958439,-0.06911896,0.095685296,-0.072951585,-0.006220265,0.025782832999999998,-0.05009065,-0.101387694,-0.070132785,0.0076605203,0.02873699,0.0049143005,0.09620813,-0.11242893,-0.082001604,0.119978435,0.06747369,0.07638836,-0.025919544,-0.032636236,-0.08976029599999999,-0.008993437,-0.13522269,0.082924835,0.024410604,0.014430967,0.15200488,-0.0067249876,-0.10259996,0.06844056400000001,0.04762127,-0.0040610865999999995,0.09010189,-0.010874278999999999,0.119747564,0.05731174,-0.07811810000000001,-0.040597085,-0.014020217,-0.017057294,0.094822004,0.024083152000000004,-0.03644603,-0.041460015,-0.10548466,0.06335094599999999,0.09174942,-0.011077894,-0.053728294,0.1224907,-0.05166726,-0.025799066000000002,0.103665866,-0.14477433,-0.0040822285,-0.007463844,0.11214519,-0.010155087,0.12016600000000001,0.0024906579999999998,0.09094381,0.023750711,0.06645604,0.13858306,-0.050975353,-0.09074611,-0.06457932,0.015004743999999999,0.022618735,0.17063753,-0.11806919,0.10187382,-0.09448401,0.021922378,0.071392655,0.09910451599999999,0.0382152,0.030427657,0.0021776238,-0.005861644599999999,-0.05515882,0.0037786053,0.0634534
http://www.benchmark.org/family#F3M40,0.06515631,-0.13441382,-0.071846105,0.06302464,0.07378654,0.061474747999999996,-0.07548982,-0.12259752,-0.05486389,-0.15541403,0.012007401000000001,-0.12247984,-0.030063997999999998,-0.1194998,-0.006595124,0.036104407000000005,-0.010016652,0.08211805,-0.050546645999999994,0.07178769,-0.037807497999999995,-0.013847916000000002,0.01885336,-0.045338098,-0.10618846,-0.053672712000000004,-0.0031620336,0.046787515,0.049818527,-0.040926408,-0.113216445,-0.10085117,0.07913018,0.07751027,0.090739496,-0.05408087,-0.1124367,-0.098841056,-0.006319101999999999,-0.07486161599999999,0.0811522,0.063814975,-0.049798577999999996,0.13605209,0.0025089327,-0.08835589,0.09885366,0.0941995,-0.0024469756,0.11352973400000001,0.07066064,0.13914943,0.07885509,-0.09275952,-0.051625066,-0.0068237367,-0.03188034,0.13046314,0.02366108,-0.05897945,-0.008465214,-0.11732732,0.059307500000000006,0.08481241,0.027753206000000002,-0.04525991,0.14647634,-0.06524059,-0.024125242999999998,0.12851742,-0.06907183,0.0130026955,-0.06647745,0.07595223,-0.0052661999999999995,0.07825702400000001,-0.020648701000000002,0.11023843,0.016197171,0.09417507,0.10622388,-0.0027896464,-0.08953375,-0.10788628,-0.02456248,0.117515236,0.10516602,-0.070393644,0.14578544,-0.12456068,0.07917601,0.06252607,0.11666396,0.13697664,-0.034024213,0.013257326000000002,0.0017489129000000001,-0.09337693,0.05322462,0.037056126
http://www.benchmark.org/family#F3M43,0.08049784,-0.13314897,-0.06537612,0.074594535,0.08495142,0.12354285,-0.11078517,-0.12635013,-0.04858255400000001,-0.104396604,0.04644254,-0.12277414,-0.036443368,-0.13684508,-0.065608084,0.027912864,-0.006439512,0.04415245,-0.042630075999999996,0.10034069,-0.07571950000000001,-0.030389844,0.042790174,-0.040144004,-0.082311705,-0.0641047,-0.0055411304,0.042338025,0.05146228,-0.0008360316000000001,-0.087927245,-0.07437064,0.070116594,0.087437145,0.10651402,-0.009423331,-0.09131512,-0.06808667,0.0040982487,-0.067661256,0.07527235,0.04868238,-0.05004697,0.11793001,0.025315596,-0.09914838,0.067929685,0.053136215,0.020135062,0.10887249,0.03157886,0.11741148,0.08449708,-0.10717280000000001,-0.06690639,-0.013348793999999999,-0.049712114,0.13892767,0.027803782000000003,-0.06415907,-0.042424437,-0.09275309,0.043612387,0.10025719,0.03394186,-0.04506095,0.13800296,-0.02048478,-0.0481707,0.09048395599999999,-0.044859699999999995,-0.0046340604,-0.0011539052,0.08325685599999999,-0.0018754429,0.10614454,-0.024371035,0.120712094,0.016524827,0.11900543,0.11263819,-0.025465317,-0.06808834,-0.14411421,0.0064166775,0.12451209,0.085934766,-0.054470547,0.14941179999999998,-0.11419853599999999,0.10706912,0.04786622,0.07135558,0.09820634,-0.012362318999999998,0.00025476248,0.004854677,-0.116319425,0.051181345999999996,0.046053595999999995
http://www.benchmark.org/family#F6M100,0.042949706,-0.015970372,-0.049254995,0.02349426,0.074094065,0.048089854,-0.10761651,-0.116337724,0.0011703572,-0.11377141,0.011527049,-0.15611178,-0.04335069,-0.0867985,-0.041004072999999995,0.00034120568,-0.021933021,0.14415464,-0.10731323,0.07083376,0.012030421999999999,0.011447071999999999,0.036996573,-0.04271309,-0.11371231,-0.07231683,0.0497192,0.014554573000000001,0.0045121782000000004,0.086593345,-0.10325371,-0.09327526400000001,0.07560781400000001,0.044929072,0.11644292,-0.008018993,0.0061200685,-0.1009977,-0.030663133,-0.12073441,0.09801147,0.049386892,-0.0012467692999999999,0.1482436,-0.029593075,-0.11576702400000001,-0.037224595,0.06707381,-0.053610772,0.0734422,-0.032349172999999995,0.1117011,0.102622114,-0.07292801,-0.054226300000000005,-0.009813114,-0.036084563,0.12056249,0.044830177,-0.06832433,-0.06295016,-0.08021477,0.053797767,0.10530684,-0.006842165999999999,-0.051892295,0.09095536,-0.03197294,-0.041653182000000004,0.096599355,-0.096617185,-0.0036199375,-0.013400665,0.13112279999999998,-0.00043101818,0.13213699999999998,0.12660284,0.08746793,0.024981264,0.053287387,0.14805114,-0.03787138,-0.104241066,-0.107777774,-0.014820403000000001,-0.0019358022,0.12567057,-0.14179619,0.0829157,-0.06458372,0.02485449,0.10275777400000001,0.11591378599999999,0.0064542919999999995,0.029672057999999998,-0.015420439,-0.0044714278,-0.08401556,-0.016171189,0.055745397
http://www.benchmark.org/family#F3M47,0.02187613,-0.08715839,-0.044054046,0.06671914,0.071516626,0.10056333,-0.13095585,-0.10247277,-0.06913655,-0.11552253,0.0038649582,-0.15360461,-0.05079776,0.018773408999999998,0.047649004,0.007931695,-0.008421782,0.117127754,-0.098350145,0.064499035,-0.07972904,-0.03228299,0.01103379,-0.033284098,-0.04283835,-0.07461279,-0.023733746,0.044733148,0.037594527,-0.017268855,-0.12088583,-0.09181155,0.11758239599999999,0.08018233,0.08963360000000001,0.0035754498,0.022313021000000002,-0.09607426,0.010618588,-0.09630921,0.07985873,0.07115163,0.0036182059999999997,0.15732959,0.024369337,-0.11177585,0.016984568999999998,0.07726817,0.021439477999999998,0.074627206,0.02162426,0.106404305,0.07020638,-0.13631055,-0.06345466,0.009444342,-0.006863201,0.05481543,0.020996667000000004,-0.058823365999999995,-0.03906413,-0.10635737,0.078664236,0.0879395,0.033005405,-0.06633754,0.09727155400000001,-0.001433529,-0.010054086,0.09867201,-0.08708509,0.010496411,-0.03779478,0.11855408,-0.008157137,0.13253634,-0.008874615,0.10694124,0.004552705,0.05991548,0.11771407,-0.031398743,-0.08542317,-0.09317056,-0.01988186,0.15288207,0.120823175,-0.11663022,0.13174148,-0.10115479,0.07300308,0.09541972,0.11752275,-0.004853411,0.023513611,-0.004335304,-0.008823126,-0.08364094,-0.07858706,0.05556269999999999
http://www.benchmark.org/family#F6M71,0.05185963,-0.04895642,-0.049038164,0.047957037,0.07435525,0.11377727,-0.12603387,-0.107337974,0.030803628,-0.1138218,-0.011522236000000002,-0.12638591,-0.03677028,-0.062179383,-0.02594821,-0.002996055,-0.01711644,0.11532213,-0.045006774000000006,0.08912075,-0.058680847,-0.006242472,0.013333186,-0.038941500000000004,-0.08118341,-0.0656982,0.019288577,0.045110385999999995,0.011193401,0.15675125,-0.12927458,-0.0979445,0.13271219,0.08535708,0.09876447,-0.030020217999999998,-0.04710522,-0.10656664,-0.009085998,-0.1147094,0.08716407,-0.012371363,-0.012897364,0.14917451,-0.00059120764,-0.11972999,0.10832817,0.05625862,-0.006437211,0.08228727,0.012130136000000001,0.12121296,0.07443267,-0.067343906,-0.049278185,0.009132848,-0.017690936,0.10600792,0.034791276,-0.049366392,-0.04534072,-0.09635184,0.07807914,0.091429904,0.0097956555,-0.054933675,0.110981174,-0.059456952,-0.0423031,0.13475107,-0.12931865,-0.0028889081,-0.008780894000000001,0.12351231,-0.014837867,0.1262807,0.021548996,0.08538554,0.019355841000000002,0.061781455,0.13849086,-0.04888704,-0.09300782,-0.10055330400000001,0.013245844,0.034064855,0.118742615,-0.10329532,0.08509514,-0.09904657,0.035790298,0.07195192,0.09697623,0.03885315,0.029652826,-0.014079423,-0.013622448,-0.082764894,0.034512017,0.06324362
http://www.benchmark.org/family#F3M51,0.012141889,-0.103280425,-0.033682287000000005,0.076974,0.06348859999999999,0.09213535,-0.10736706,-0.093448535,-0.15844497,-0.0908785,0.05337798,-0.14907932,-0.039983828,-0.058316723,-0.006661148,0.030664702999999998,-0.0036606772,0.11721846,-0.10150279,0.09518497,-0.09546795,-0.04377619,0.04140606,-0.03423484,-0.091099285,-0.10639623599999999,0.013945358,-0.0006532937999999999,0.03501552,-0.02576751,-0.098926656,-0.08825640400000001,0.13509265,0.051714625,0.10754112,0.011064942,0.07277024,-0.1047807,0.007976878,-0.098502375,0.09658158,0.09834324,-0.010133796,0.20899291,-0.020833457,-0.076075144,-0.040794656,0.08377274,-0.07053626,0.078592025,0.015211978999999999,0.08239895,0.06504557,-0.09259637,-0.1034278,-0.018698536,-0.05146831599999999,0.09534193,0.03825321,-0.115834706,-0.10750794,-0.09365651,0.091559686,0.11078724,0.068500705,-0.07850383,0.08971477,-0.015608028000000001,-0.0055461519999999995,0.07488821,-0.054289814000000006,0.022429623,-0.059718136,0.15420827,-0.0038790833000000003,0.1713855,0.14406726,0.06570463,0.031430833,0.046755627,0.121277176,-0.038744234,-0.07340034,-0.08253034,-0.025405515,0.122227445,0.0571217,-0.17459038,0.08672029,-0.09402917,0.0561489,0.12887827,0.12064961,-0.036420807,0.020390898,-0.035676487,-0.0042180168,-0.064651646,-0.09078552,0.037266836
http://www.benchmark.org/family#F6M92,0.054337285,-0.038290765,-0.044039185999999994,0.038714714,0.070597224,0.08788495,-0.13015157,-0.12513803,0.011417361000000001,-0.08814561,-0.009773505,-0.12382603,-0.03103314,-0.06628388,-0.03383768,-0.016205200000000003,-0.024775257000000002,0.14319576,-0.09324657,0.081747055,-0.040884952999999995,0.0025256942000000003,0.012254787,-0.050435204000000004,-0.08365005,-0.06407279,0.027619136000000002,0.043067182999999995,0.008053769,0.14538737,-0.12175916,-0.10898784,0.11123561,0.077265695,0.09683351,-0.025503736000000003,-0.039092097,-0.09360371,-0.022745704,-0.10951693,0.07191329,-0.011095347,-0.0028699072999999998,0.14513211,0.006194530500000001,-0.11437373,0.09297187,0.06727655,-0.016513335,0.08993054,0.012974352,0.13551968,0.06659889999999999,-0.09185217,-0.053058895999999994,0.008710762,-0.023603966,0.096018605,0.036788866,-0.040837925,-0.050957274000000004,-0.10395560000000001,0.07288793,0.08704423,-0.00041105642,-0.04675794,0.11382741,-0.051637907000000004,-0.027172495,0.08982469,-0.11617494,0.0056476137,-0.007520964399999999,0.12826954,-0.005738811999999999,0.11695245,0.007990386,0.08380512,0.009447512,0.07167474,0.14144263,-0.035312197999999996,-0.11140759,-0.1208732,0.018829755,0.03719822,0.11725936,-0.08347778,0.09277624,-0.10724806,0.030390244,0.05863314,0.106790274,0.035855733,0.037757978,-0.008837759,-0.018847829,-0.077094026,0.055854447,0.070333704
http://www.benchmark.org/family#F3M50,0.06753515,-0.14306678,-0.06697181,0.046485174000000004,0.0676948,0.071282096,-0.11796174,-0.13172188,-0.061667453,-0.13990239999999998,-0.0017781560000000001,-0.09226443,-0.0131950695,-0.16474925,-0.08713232,0.028424442,-0.0014944736999999999,0.048325434,-0.049149825999999994,0.09010054,-0.06355188,-0.007607541,0.01810876,-0.04059814,-0.10848926,-0.06695472400000001,-0.0035501741999999998,0.012418065,0.03710497,-0.024073826,-0.14985208,-0.082994565,0.060967375,0.045846418,0.08374193,-0.034125775,-0.06255904,-0.085157804,-0.002169934,-0.10051341,0.08383733,0.07176778,-0.057586424000000004,0.13560386,0.007645743399999999,-0.09963668,-0.015439467,0.055504266,-0.03977611,0.10305365,-0.008079601,0.118882045,0.07010211,-0.106778815,-0.050001822,-0.036236994,-0.030104567999999998,0.19463453,0.00966843,-0.044491794,-0.024446882000000003,-0.13642003,0.06467658,0.0652832,0.062203985,-0.059269875,0.07935923,-0.020654334,-0.023418419,0.105967894,-0.08782834,0.011137191000000001,-0.04736657,0.10697232,-0.006084551999999999,0.103465535,0.05285852,0.0946029,0.024283746000000002,0.13175209999999998,0.12634912,-0.012681909,-0.080967866,-0.12681411,-0.008080828,0.09997756,0.10114796,-0.09439738,0.13153188,-0.09573859,0.08460548,0.043295663,0.07341693,0.13419186,-0.006101506800000001,0.016781436,0.0030040913,-0.11339685,-0.026098166000000003,0.03630625
http://www.benchmark.org/family#F6M81,0.037368365,-0.07470268,-0.049685112999999996,0.03789967,0.06344162,0.10643016,-0.12646185,-0.11583001,-0.021312915,-0.10606413,-0.0061394186,-0.12303945,-0.02135319,-0.05106865,-0.008096190999999999,-0.008695443,-0.028734406,0.10895438,-0.062855616,0.098354094,-0.035108,0.0062455390000000005,0.006272881,-0.040676963,-0.13652973,-0.06916516,-0.0024795273999999997,0.02650414,-0.0007761327,0.07561443,-0.10733413,-0.07002964,0.063560575,0.05496137,0.095493965,-0.025525056,0.005230963,-0.12831028,0.0198563,-0.10925802,0.080252275,0.03564496,-0.0065158573,0.169213,-0.014894986499999999,-0.10986480000000001,-0.0636688,0.05209674,-0.039348066,0.0670482,-0.045310500000000004,0.13234223,0.06327426,-0.09126728,-0.055243537,8.808448e-05,-0.02135203,0.11952254,0.033586916,-0.029795425,-0.052511014,-0.09637723,0.07215145,0.08429794,0.021175673,-0.06174836,0.11128739,-0.038669743,-0.031211719,0.10472248,-0.13449712,-0.009786527,-0.011494141000000001,0.11933495,-0.0034457445000000003,0.11220985,0.07353985,0.06599351,0.016853565,0.06672153,0.13894853,-0.04686286,-0.091519415,-0.10594156,-0.014516458000000001,0.020643305,0.13262124,-0.11319118,0.08594763,-0.096533276,0.055218168,0.09168810000000001,0.10550597,0.025537242999999998,0.0034868254,-0.010318829,0.0003890436,-0.07397982,-0.08002749,0.07172515
http://www.benchmark.org/family#F4M54,0.07288487,-0.13228524,-0.06579501,0.028929515,0.07739345,0.11151436,-0.13143298,-0.10869113,-0.055538237000000004,-0.12781392,0.016641134,-0.12545326,-0.010904408999999999,-0.12466159,-0.05579672,0.037553575,-0.017257467,0.088515535,-0.090510875,0.069956675,-0.052774664000000006,-0.015520171000000001,0.03799737,-0.041095137999999996,-0.043498244000000005,-0.09730371,0.00093319983,0.058060985,0.053801768,-0.0048213787,-0.12863533,-0.13670978,0.10246279,0.097819805,0.06671373,-0.050273463,-0.11236504,-0.10795287,-0.020654153,-0.060265522,0.07242393,0.029835004,-0.047869362,0.13851202,0.030394928999999998,-0.071961336,0.08163291,0.08416048400000001,0.015483998,0.11500122,0.047285895999999994,0.08686875599999999,0.050121088,-0.087831885,-0.031966925,-0.032293756,-0.032831658,0.15771355,0.0240328,-0.047575414,-0.007956064,-0.12808923,0.059786282,0.086806744,0.04730183,-0.049341206,0.11425606,-0.028065942000000003,-0.00081331434,0.11249299,-0.08575747,0.030807108,-0.06985464,0.10541742,-0.014376176000000001,0.10735201,-0.017282961,0.12496226,0.020093023999999998,0.12537062,0.123287655,-0.004747386,-0.060380477,-0.12959467,-0.017355055,0.12959110000000001,0.07381673,-0.07323944,0.106728695,-0.117794804,0.08470136,0.08358747,0.052564535,0.122110546,0.0101818405,-0.00302429,0.0041655214,-0.09113006,0.021730624,0.038464516000000004
http://www.benchmark.org/family#F4M57,0.0799264,-0.13878551,-0.06928101,0.06544748,0.06620693,0.08141561,-0.12738863,-0.10992914,-0.041848917,-0.15277638,0.017610792,-0.11265841,-0.03069292,-0.15632778,-0.088353634,0.033347793,-0.0044965004,0.05262782,-0.048425708,0.085832015,-0.042571664,-0.0050673590000000004,0.03296855,-0.03715675,-0.10456989,-0.07060498,-0.009196678,0.044239044000000005,0.05337888,-0.0059837163,-0.11471372,-0.08014579,0.076051034,0.09031223,0.10525630400000001,-0.028121546,-0.08894784,-0.095337145,-0.013835631000000001,-0.06453139,0.08320997,0.052589927,-0.06385491,0.16460387,0.022480724,-0.09620152400000001,0.07827546,0.079795815,-0.0036265417,0.10595734400000001,0.05462659,0.10297189,0.057233945,-0.07568884,-0.05370106,-0.0038524690000000003,-0.032034602,0.16157037,0.01259385,-0.047444775999999994,-0.02836402,-0.045652833,0.063506514,0.07992749,0.06874049,-0.05372444,0.13158812,-0.020730894,-0.0078107715,0.10386054,-0.05750693,0.017265776,-0.03491701,0.12577560000000002,-0.01531459,0.08932443,0.039990712000000005,0.104987845,0.024445226,0.12552118,0.11721053,0.0071674035999999995,-0.06732181,-0.09784942,-0.02160398,0.08306971,0.14427812,-0.09334089599999999,0.085084304,-0.14058273,0.10426931,0.053320367,0.09791053,0.11951409,0.0074209096,-0.012045364,0.023902904,-0.09518512,-0.035986397,0.062015943
http://www.benchmark.org/family#F6M90,0.03197147,-0.013523692,-0.058811884,0.01974646,0.06503653,0.13239120000000001,-0.103159465,-0.025920551,-0.03463933,-0.10053730000000001,-0.0047315379999999995,-0.10678992400000001,-0.046514835,-0.08247885,-0.055010084,0.029989276000000002,-0.033446424,0.13588068,-0.07941146,0.076471135,-0.038127556,0.008858935,0.054930683,-0.052001577,-0.122163236,-0.07246802,0.048625182,0.019149948,0.00908157,0.115181066,-0.09421572,-0.09851266,0.11072108,0.053477928,0.1124664,0.005359732,0.01552849,-0.10437715,-0.016753564,-0.11007959,0.07929760000000001,0.04403751,-0.026600512000000003,0.16910283,-0.04309387,-0.10490476,-0.05704979,0.090709046,0.009660224,0.07413865,-0.036983382,0.12923800000000002,0.07943664,-0.08109297,-0.07784085,-0.019588618000000002,-0.047396265,0.10279729,0.057162724000000005,-0.078116454,-0.06823005,-0.09037721,0.054780625,0.09044495,0.020584142,-0.05598821,0.10776463,-0.049155448,-0.013811262,0.10623363,-0.07679623,-0.008717018,0.045694105,0.12237562,-0.0040931683,0.1286168,0.10759158,0.08226697,0.025131032,0.057811107,0.15300876,-0.03431372,-0.084767945,-0.11045965,0.003588376,-0.021208732999999997,0.11895206,-0.12271412,0.12779437,-0.087085895,0.029324263,0.09742661,0.15114416,0.0037290053,-0.0049504344,0.015901808,0.007596826,-0.087117285,-0.015098033,0.05554383
http://www.benchmark.org/family#F10M171,0.05858677599999999,-0.14520691,-0.089765966,0.051257998,0.078606606,0.06553838,-0.08711799,-0.13382679,-0.057883553,-0.13982831,-0.030888377,-0.10059221,-0.02117521,-0.14160185,-0.04714781,-0.0023372532,-0.034307588,0.06656574,-0.111033596,0.12380083,-0.067699425,0.017626183,0.050163858,-0.05978974,-0.08414608,-0.06266435,0.022749587999999998,0.011438447,0.04413889,0.05552490400000001,-0.09031829,-0.14275926,0.08192667,0.07377797,0.10227167,-0.03805019,-0.11862184,-0.09740812,0.025647389,-0.068065606,0.08388919,-0.004883607,-0.10861743,0.13299367,0.030786706,-0.07663049,0.13291457,0.084873535,0.007029839300000001,0.12180986,0.013871571000000001,0.11890353,0.09868141,-0.115766175,-0.073095866,-0.019520395,-0.02984144,0.121752895,0.035640556000000004,-0.06116497,-0.011214773,-0.034536548,0.05135397,0.0825745,0.051922727,-0.04374539,0.11701079,-0.055230855999999995,-0.023312809,0.1277804,-0.0050747003,-0.001993119,0.024148675,0.08041208,-0.00827393,0.110946,-0.014181619,0.11111139,0.021975572999999998,0.11482321,0.11663471,-0.0038295707000000003,-0.0882475,-0.16331616,-0.0038180090000000002,0.16141906,0.09323158,-0.06271239,0.14428109,-0.08849598,0.084611885,0.06734492,0.09226271,0.11299394,0.00862057,0.0044800529999999995,0.015080634499999999,-0.0635953,0.07066409,0.03690666
http://www.benchmark.org/family#F4M59,0.022396838,-0.09280623,-0.053186946,0.036591597000000003,0.08276643,0.09220219,-0.10420218,-0.11898666,-0.12819208,-0.13265283,0.031939092999999995,-0.10292789,-0.051213335,-0.20562835,-0.08164397,0.046360627,0.0072782803,0.078797586,-0.07272348,0.087869585,0.021005835,-0.012137113,0.073848285,-0.031214183,-0.05343745,-0.07692384,0.049025867,0.002217953,0.049672715,-0.0074210840000000005,-0.09587519,-0.12490624,0.057933606,0.043852296,0.10411634,0.0045379703,-0.018854916,-0.0798611,-0.05652388,-0.03507881,0.08617947,0.078866355,-0.0916465,0.1835145,-0.042932723,-0.07039502,-0.011469286,0.055050746,0.011569537,0.09067414,-0.0013363777,0.09839484,0.100222215,-0.10389358,-0.08628362,-0.07930696,-0.024626285,0.21697518,0.044280265,-0.09372083,-0.02411489,-0.10228371,0.035009354,0.094297014,-0.0065083336,-0.040696226,0.120395735,-0.03971721,-0.029662783999999998,0.0872706,-0.037281018,0.024810081,-0.056912035,0.10029584,0.026290497000000003,0.11569127,0.14231,0.08763312,0.04368914,0.09122083,0.119916886,0.038512442,-0.04356895,-0.12160794400000001,-0.06806147,0.07754383,0.10408274,-0.12732275,0.1328586,-0.12020154,0.078287154,0.08762054,0.108842626,0.10601012,-0.025727438,0.040653888,0.02917425,-0.12129917,-0.075432494,0.018249458
http://www.benchmark.org/family#F7M115,0.039168265,-0.018647384,-0.071376346,0.03013474,0.05901761,0.10597168,-0.11589179,-0.104105525,-0.025963902,-0.07928474,-0.008325158000000001,-0.14242074,-0.02403267,-0.076535046,-0.029244425,0.00829303,0.0007722910400000001,0.079399414,-0.089774475,0.100701116,-0.038072128,0.021144155,0.016881455,-0.043749675,-0.11968987,-0.047967712999999995,0.0017837470999999998,0.0341487,0.008249593000000001,0.11216107,-0.11027782,-0.07788096,0.11347468,0.08657722,0.10566607,-0.029135436,0.00998251,-0.07131359,-0.000661672,-0.12131514,0.091200426,-0.008972253000000001,-0.0066024167000000005,0.15779428,-0.020854373,-0.10343616,-0.035374083,0.07083575,-0.059892274,0.07410043,-0.04634081599999999,0.12313767,0.06990661,-0.09132512,-0.056748599999999996,0.021457382999999997,-0.041166622,0.11174819,0.049676877,-0.032320164,-0.06573019,-0.11397865,0.07777313,0.08476732,0.029347957999999997,-0.06164739,0.1076164,-0.050289623,-0.009181379,0.12250638,-0.09265566,-0.022443377999999996,0.0049322844,0.11939661,-0.010855281000000001,0.14428906,0.09282151,0.09411436,0.020229055,0.057598375,0.12438263,-0.04334959,-0.09923388,-0.10455245,0.008463886,0.0064088553,0.13090510000000002,-0.108627796,0.108924605,-0.11435706,0.053664513,0.09109983599999999,0.09272173,0.025731876,0.0026248274,-0.006916335,0.0030721620000000002,-0.08102834,-0.028913342999999998,0.040757254
http://www.benchmark.org/family#F10M176,0.041101944,-0.057429664000000005,-0.053699862,0.05047844,0.08160275,0.08204831,-0.13027039,-0.075755686,-0.102842785,-0.08603717400000001,0.021712737000000003,-0.10775539,-0.036030293,-0.21525129999999998,-0.039584123,0.035917997,0.009216616,0.07642342,-0.0710657,0.080248155,-0.012323213999999999,-0.024463829,0.052729998,-0.03584207,-0.10101009,-0.084173284,0.06759344,0.014481656,0.025689563,0.0045298804,-0.12438712,-0.12855959,0.054730456,0.038277622000000004,0.11825299,0.010330582,-0.02998791,-0.08735813,-0.035119195,-0.055949233,0.09093846400000001,0.074497044,-0.12574403,0.17979501,-0.022513302000000002,-0.056054328,0.0035094507,0.059383392,0.022532762999999997,0.10820651,-0.01833386,0.093372345,0.09042248,-0.11462274,-0.08347558,-0.049095217000000003,-0.055719294,0.23816186,0.041592415,-0.10091806,-0.017947488,-0.11538888,0.02077,0.07467592,-0.017006788000000002,-0.04554484,0.11029968400000001,-0.043884362999999996,-0.02721294,0.113689795,-0.04892887,0.008893587,-0.028122175,0.09178876,0.038242865,0.13367255,0.15094328,0.08673688,0.032944962,0.08605224,0.1308905,0.01897743,-0.040120076,-0.12762852,-0.05673627,0.10015016,0.07200132,-0.12980382,0.12706408,-0.10584445,0.090098545,0.07082644,0.14914447,0.09361914,-0.041928902000000004,0.049850599999999995,0.013288988,-0.12090674,-0.04420226,0.0055140187
http://www.benchmark.org/family#F5M60,0.07551448,-0.14063635,-0.021178957,0.03250639,0.050350834000000004,0.1264922,-0.11418161,-0.10206812,-0.037461963,-0.14741628,0.010107838000000001,-0.10726842,0.0001415596,-0.11932198,-0.07777107,0.05497695,-0.03188835,0.072568245,-0.08868375,0.09563466,-0.027073925,-0.02932431,0.028228926,-0.048555546,-0.12101234,-0.054389995,-0.0058293967,0.022790821,0.048337332999999996,0.011261141,-0.10268728,-0.12577364,0.1003368,0.075802125,0.09831869,-0.02952229,-0.115209244,-0.052964332999999995,-0.02416905,-0.08725604,0.067197934,0.056791503,-0.03686465,0.12968354,0.024511968999999998,-0.09666828,0.097548984,0.07814807,0.04070071,0.12826005,0.025543468,0.1257758,0.0751731,-0.11421245,-0.05524504,-0.046107277,-0.010962415500000001,0.14481555,0.020226086,-0.04804744,-0.018894238,-0.09629185,0.06533662,0.112665005,0.022932911,-0.056645642999999996,0.10549361,-0.042603366,-0.034319848,0.10179885,-0.045504406,0.010505656,-0.05228896,0.12674978,-0.015886325,0.1166839,-0.021670211,0.10293371,0.012675128999999999,0.10568885,0.07574793,-0.005152665,-0.07580756400000001,-0.08675648,-0.00251691,0.12922834,0.05989301599999999,-0.06878798,0.099177755,-0.11590483,0.0892099,0.07299004,0.08747963,0.12389810400000001,0.010047723,0.047780800000000005,-0.0026713821999999996,-0.13186951,0.03795474,0.043444987000000004
http://www.benchmark.org/family#F10M178,0.043198775999999994,-0.07879362,-0.07126734400000001,0.04139668,0.07045717,0.073382825,-0.14968586,-0.13342547,-0.07659759,-0.10843331,0.014191565,-0.101161815,-0.036757406,-0.21438278,-0.045534074,0.034573883,-0.0032682809999999996,0.10994798,-0.07103662,0.09086887,-0.0048138783,0.0032865638,0.062801324,-0.047810774,-0.07356283,-0.07157778,0.037720397,0.0153134065,0.041187115,-0.009736111,-0.09996549,-0.11137311,0.051338423,0.043906155999999995,0.0764045,0.010794426999999999,-0.025052609,-0.07592321,-0.049599968,-0.05018402,0.09147229,0.07135366,-0.12463197,0.19768047,-0.01373798,-0.09965599,-0.003044908,0.058238495,-0.012165306,0.10419571400000001,-0.028076686,0.10413348,0.11375269,-0.14742215,-0.07899666,-0.053544987,-0.024121032999999997,0.21473786,0.046475098,-0.08524852,-0.036188938,-0.06773887599999999,0.041969646,0.09089826,-0.052703127,-0.04401333599999999,0.11015209,-0.04811141,-0.035420794,0.07827799,-0.0321452,0.016660927,-0.0046328013,0.12518176,0.020519588000000002,0.11791806,0.14477697,0.072883524,0.050782118,0.099153206,0.09873021,0.05210459,-0.051082645,-0.100745715,-0.063115135,0.09683566,0.119246475,-0.14356148,0.08218192,-0.09804175,0.09174075,0.08996481,0.11788068,0.107701935,-0.06154034,0.04536102,0.0046012579999999996,-0.11685754,-0.07122184,0.018262023
http://www.benchmark.org/family#F7M113,0.03419741,-0.0052063065000000006,-0.05503703,0.024968127000000003,0.08701092,0.12316394,-0.09416787,-0.13290603,-0.05396377,-0.09960839,0.0023066602,-0.14952826,-0.039931946,-0.07969730000000001,-0.045515202000000005,0.03646217,-0.015915753,0.12560019,-0.04447059,0.11364026,-0.019432107,0.01349248,0.036119003,-0.03593754,-0.07275375,-0.06679363,0.049235363,0.021110137999999997,0.0033069325,0.083284,-0.110440224,-0.09949147,0.13250443,0.04754234,0.110567205,-0.015026702,0.02567945,-0.07832128599999999,0.00022400584,-0.12581499,0.09325136,0.022217503,-0.014415691999999999,0.16794189999999998,-0.035444267,-0.12527834,-0.036843024,0.09056871,-0.018675473999999997,0.061063923,-0.022779051,0.1168539,0.09666022,-0.07349743,-0.061032485,-0.010892085,-0.029373609,0.09941337,0.07106207,-0.06436923,-0.067600735,-0.0902857,0.047752105,0.09617204,-0.022685273,-0.050124895,0.08958034,-0.0722156,-0.02324629,0.07991369999999999,-0.08350283,-0.0019986506,-0.038861066,0.13558917,-0.0031542617,0.13494363,0.1286622,0.063675694,0.017970882,0.04234947,0.13097286,-0.03886995,-0.08947031,-0.14242594,0.00081865676,-0.0034550559999999998,0.11358932,-0.12595396,0.08671583,-0.078581676,0.04012479,0.077775285,0.13405858,0.0032561867999999997,-0.021534387000000002,0.0056344005,0.002664306,-0.0790063,-0.010063408000000001,0.045915645
http://www.benchmark.org/family#F5M63,0.03395391,-0.11409869,-0.059913102999999995,0.043334585,0.072196774,0.11289332,-0.10780948,-0.067965746,-0.15361495,-0.09718919999999999,0.06203645,-0.08923463,-0.016487293,-0.19074783,-0.07639688,0.04907618,0.006167009,0.08560825,-0.041624892999999996,0.10146411,-0.01513358,0.0028639317,0.05802932,-0.046408653,-0.086032875,-0.08161801,0.043192245,-0.0024829186,0.042181153,0.014052859499999999,-0.10465362,-0.08730653,0.10090029,0.039427392,0.060067967,0.013043056,-0.028928474,-0.052345578,-0.066303656,-0.08185662,0.092937075,0.058952007,-0.14078020000000002,0.18036084,-0.049030795999999995,-0.059071302,0.00045017175999999997,0.08624248,0.023661455,0.082748525,-0.021576976,0.09808444,0.09555418,-0.10971285,-0.08890057,-0.05304536,-0.023336185,0.22124106,0.060304362,-0.09362639,-0.02009019,-0.10446486,0.032956116,0.07903524,-0.04090512,-0.046751775,0.11564123,-0.06400185,-0.020234518,0.07693112,-0.044572562,0.011594803,-0.05243913,0.10300085,0.02511163,0.13247113,0.13705075,0.085638344,0.018274758000000002,0.06943707,0.14341798,0.02207032,-0.043057047,-0.14096259,-0.06867164,0.10325133,0.13106292,-0.1041904,0.13296214,-0.1064489,0.08799863599999999,0.049591273,0.14262785,0.07721871,-0.039985497,0.059194617000000005,0.0051630022999999995,-0.1020255,-0.047399446,-0.011032298000000001
http://www.benchmark.org/family#F10M180,0.029197091,-0.096537635,-0.051149674000000006,0.03374137,0.086462595,0.12421932,-0.11279992,-0.101964295,-0.11980992,-0.09761035,0.005899619,-0.107712805,-0.025437317999999997,-0.17619725,-0.09200302,0.04023065,-0.00486478,0.071460284,-0.04460858,0.09778239,0.026970655,-0.005600896,0.08119617400000001,-0.03938504,-0.09346311,-0.05238858,0.06437872,0.0032982734999999997,0.030860567000000002,-0.0012596808,-0.11176126,-0.07509391,0.05859406,0.04787454,0.102332175,0.011644761000000002,-0.022435369,-0.08433228,-0.045805395,-0.11703286,0.08831004,0.05339066,-0.08859337,0.18637446,-0.048939705,-0.07571161,0.003268035,0.08826975,-0.008712868,0.10017232,-0.0073766136,0.0978755,0.0961033,-0.13004804,-0.07964934,-0.061771043,-0.041044604,0.22300985,0.058555983,-0.06958243,-0.047470495,-0.11275186,0.04011819999999999,0.08436159,-0.042126052000000004,-0.04945627599999999,0.109724425,-0.051541965,-0.02258176,0.0938068,-0.03555202,0.033182476,-0.027198551,0.11093825,0.028897803,0.1279433,0.12371885,0.050160076,0.044508255999999996,0.08326383,0.11917395,0.022613268,-0.06853272,-0.107986316,-0.021834799999999998,0.11133966599999999,0.10379535,-0.12924327,0.13948858,-0.07095034,0.079306155,0.08255551,0.09984236,0.08816736,-0.06343997,0.04712357,0.012227722,-0.13173819,-0.053715005999999996,0.012794979
http://www.benchmark.org/family#F7M117,0.037388287,-0.08781214,-0.05545581,0.035210114,0.065941826,0.13227427,-0.10250849,-0.09406789,-0.02537237,-0.114010535,0.030287482,-0.13571683,-0.050654802,-0.08386163,-0.050939575,-0.01792214,0.0046538086999999995,0.1458023,-0.09695207,0.072102346,-0.05342488,0.013389765,0.043298867000000005,-0.045364246,-0.10020883,-0.09389089,0.03704835,0.020189494,0.014538098000000001,0.06981189,-0.11136957,-0.074625425,0.12830654,0.04705417,0.082770765,-0.023150543,0.031842182999999996,-0.109248914,-0.029285237000000002,-0.08853859,0.084303685,0.045195202999999996,0.011942467,0.18720092,-0.028459152,-0.065843605,-0.04765867,0.0906042,-0.06816176,0.09214493,-0.0315522,0.08380687,0.08733196,-0.06704718,-0.045768595999999995,0.030229166000000002,-0.06329897,0.12405957,0.052512508,-0.07293098,-0.09500035,-0.060792096,0.07831536,0.11277365,0.013694335,-0.07628833,0.09691828,-0.03163089,-0.03125472,0.12830192,-0.096791685,-0.017784033,0.0018830876999999999,0.14306535,-0.010966072,0.12353589,0.10668638,0.06723844,0.026120762999999998,0.049923085,0.12308382,-0.061384127000000004,-0.12420297,-0.10664016,-0.020175653,-0.020066928,0.10603710000000001,-0.1616648,0.09150437,-0.065990575,0.018753162,0.08954436,0.13333322,-0.027809298,-0.0054856157,0.003825518,-0.01768242,-0.04649546,-0.07055703599999999,0.05826862
http://www.benchmark.org/family#F5M66,0.033211898,-0.07568425,-0.022688216,0.05948293599999999,0.06658380000000001,0.06639818,-0.11994112,-0.14167883,-0.08189587,-0.10904466,-0.0072852783,-0.13594642,-0.017868582,-0.018416791999999998,0.031182217999999998,0.030137177999999997,-0.01177473,0.10082548,-0.10997125,0.08739773,-0.074529015,-0.022518947999999997,0.016993927,-0.027972301,-0.09105601,-0.07591159,-0.025072545,0.008427628000000001,0.0317324,-0.04006241,-0.123854235,-0.09324816,0.108433284,0.087822735,0.08802908,-0.0012129814,0.041645978,-0.10390266,-0.00011140694,-0.057408035,0.09337353,0.099599294,-0.00018611723000000002,0.19211173,0.0062308680000000005,-0.10487245,-0.015904926,0.053622797,-0.01797871,0.07451182599999999,-0.02235778,0.090128705,0.06259364,-0.12123642,-0.05551991,-0.0015349562,-0.011934978,0.094164684,0.026616706,-0.035556074,-0.03432509,-0.09935655,0.08113884,0.08914398,0.080369085,-0.06890081599999999,0.10770684,-0.0052138395,-0.039860386,0.07774406,-0.10202542,0.008712179,-0.02013635,0.1268943,0.007365866600000001,0.11903358,0.07293199,0.114683874,0.027281272999999998,0.043424968,0.14425991,-0.0008627428,-0.078383915,-0.13470846,-0.017614122,0.11190805,0.10280746,-0.12624508,0.12054078,-0.10607563,0.07993556,0.06831077,0.10083835599999999,0.023035357000000003,0.03764117,-0.014309032,0.004903557199999999,-0.10518872,-0.12020558,0.06357051
http://www.benchmark.org/family#F10M182,0.07698187,-0.14387788,-0.07768077400000001,0.053781385999999994,0.073901,0.09335488,-0.1299025,-0.10881654,-0.05593529,-0.109159715,-0.0013620966000000001,-0.10252913,-0.025127518999999997,-0.15707748,-0.10470215,-0.014798403,0.039724199999999994,0.014055634,-0.051663004000000005,0.10391784,-0.02404481,0.0027653356,0.052967034,-0.04913426,-0.0966565,-0.07029004400000001,-0.008330618,0.020494753,0.04138034,0.03772864,-0.16230224,-0.11482941,0.056794368,0.09114279,0.074411586,-0.04577496,-0.09845598,-0.10877496,-0.008578391999999999,-0.089878574,0.068522476,0.01830369,-0.047928423,0.15782839999999998,0.012561926999999999,-0.080131516,0.05842746,0.0702574,-0.04863865,0.09898621,0.022574558999999998,0.115867786,0.06880165,-0.09201757,-0.07151076,-0.035738077,-0.02805537,0.16233285,0.026232244,-0.046455078,-0.037233800000000004,-0.12037060000000001,0.06352585,0.09879464,0.059942994000000006,-0.05548579,0.03497787,-0.026951832999999998,-0.032156654,0.16606002,-0.06099747,-0.010485356999999999,-0.029863926000000002,0.10087919,-0.017588941,0.09079854,0.03325848,0.10678806,0.033845477,0.12158322,0.10288698,0.0063706990000000005,-0.08785767,-0.14433564,-0.016341127,0.14677186,0.08376971,-0.08833214,0.13112248,-0.10004724599999999,0.10783913,0.06805561,0.06343879,0.11825076,-0.010513238000000001,-0.009675444,-0.006016015,-0.10834814,-0.03977653,0.03567113
http://www.benchmark.org/family#F7M123,0.04066082,-0.09435049400000001,-0.05738683,0.04979544,0.061008103,0.11328417,-0.13068803,-0.121023595,0.011841465,-0.1273415,-0.030914906000000002,-0.11272204,-0.02778939,-0.010535181999999999,0.012941356000000001,0.013634086,-0.016282758,0.1101615,-0.15276393,0.1075752,-0.051738672,-0.0030927090000000003,0.0069721267,-0.051895185999999996,-0.1217596,-0.07049973,0.019628054,0.056942772,0.013663173,0.056053333,-0.12251745,-0.092318825,0.12150095,0.08018248,0.09503259,-0.016533611,0.0012066626,-0.08291882,-0.006856556999999999,-0.075699,0.08527087,0.041560117,0.012735491000000002,0.16119981,0.014061279,-0.09046962,-0.02644441,0.042600714000000005,-0.0014845760999999999,0.084033005,0.004193651,0.096213415,0.07691373,-0.072816856,-0.05401535,0.0061830264000000005,-0.027653165,0.09976877,0.045244128,-0.03041161,-0.06153727,-0.087666094,0.07127157,0.09662066,0.021913406,-0.047222342,0.08819377,-0.02842458,-0.027062173999999998,0.12922072,-0.10504497,0.0026781415000000004,0.004030095,0.07717844,-0.013830651000000001,0.12929481,-0.0121074645,0.07686159,0.024743095,0.052780975,0.13481967,-0.03387652,-0.08940673,-0.13507752,-0.008354048000000001,0.033546942999999996,0.14001405,-0.10729813,0.09080188,-0.08303435,0.041530713,0.09458872,0.103865474,-0.0053627524,0.014669496,-0.02692961,-0.017972862,-0.079568945,-0.025833288,0.056907404
http://www.benchmark.org/family#F5M68,0.0007118044,-0.10744581,-0.01737741,0.06057719999999999,0.07895836,0.13319531,-0.08987152,-0.09012828,-0.12043459,-0.11050132,0.03635944,-0.106171794,-0.03055542,-0.056366105,0.0003080588,0.046357225999999994,-0.00411077,0.18709664,-0.032678407,0.10185706,-0.11397942,-0.04386692,0.04637019,-0.026524033,-0.10063096,-0.09704187,-0.020284321,-0.022219826,0.04999402,-0.048249807,-0.11744306,-0.08526074,0.10670548,0.05726593,0.10936528,0.01874628,0.069095775,-0.102182485,-0.013651185,-0.08853212,0.091359034,0.09091962,-0.03237002,0.2068899,0.0011789985,-0.10525718,-0.0007283357000000001,0.07201175,-0.04228989,0.061083015,0.009139662,0.11333279,0.053999025,-0.09652732,-0.08916333,0.012013733,-0.03416757,0.11027697,0.044247326,-0.10507166,-0.078430265,-0.07661669,0.070167914,0.11327914,0.08048977,-0.08331544,0.07715954,-0.021068454,-0.057798687,0.07829738,-0.05737367,0.022345034,-0.031057467999999998,0.112529226,-0.0023503553,0.14190102,0.16147995,0.045318704,0.04913871400000001,0.06678592400000001,0.107653975,-0.05711993,-0.10192193,-0.09952330599999999,-0.046730522000000004,0.09775814,0.08654489,-0.15354262,0.12113038,-0.06151168,0.054451026,0.0983048,0.15700951,-0.036460392,0.021233939,-0.021987785,-0.0043109865,-0.08710467,-0.09876859,0.04123927
http://www.benchmark.org/family#F10M187,0.07808365,-0.15096189999999998,-0.074834876,0.044467155,0.08273973,0.10964823,-0.10944953,-0.13669652,-0.04769405,-0.13648956,-0.005215378,-0.116799116,-0.018379698,-0.13179326,-0.07455896,0.0045556747,-0.021700192000000004,0.06217539,-0.05508717,0.09200466,-0.06137161,0.0017168972,0.035134196,-0.053344477,-0.11610488599999999,-0.07490889,-0.0031602504,-0.018139586,0.04851645,0.017150026000000002,-0.099717155,-0.12917705,0.07799092,0.09581109,0.092318155,-0.036970075,-0.09669626,-0.06511924,-0.01146126,-0.06268025,0.08488314,0.07257406400000001,-0.055751212,0.12503248,0.029463587000000003,-0.077585,0.056680858,0.04948768,-0.025958217999999998,0.11796981,0.007906136999999999,0.106742136,0.086177856,-0.096543655,-0.062812515,0.006250585,-0.054263982999999995,0.13288246,0.030699385,-0.06409797,-0.027345894,-0.11728461,0.06203547,0.09280353,0.024742087000000003,-0.046951886,0.12727353,-0.054213617,-0.048711393,0.09148145,-0.052855115,0.010986862,-0.034222897,0.10791488,-0.0064356904,0.10910968,-0.029596196,0.09403593,0.014616213000000001,0.06581142,0.09753751,-9.500947599999999e-05,-0.06485948,-0.08592071,-0.011498369,0.12287455,0.085676424,-0.05519731,0.15018652,-0.10679128,0.08946639,0.047327562999999996,0.10316096,0.12500693,0.013759397,0.020145688000000002,-0.006424661,-0.08983154,0.02955908,0.051738925
http://www.benchmark.org/family#F7M131,0.021105349,-0.03096761,-0.04242466,0.033849872999999996,0.07098387,0.10852592400000001,-0.06406128400000001,-0.107230596,-0.035198294,-0.108617604,-0.001066362,-0.15828958,-0.056454755,-0.098975435,-0.0012470675,0.021445949,-0.008426768000000001,0.12670186,-0.058702093,0.12032654,-0.026992198,0.0032690258000000003,0.023371687000000002,-0.05322667,-0.10410778,-0.08200672,0.04119758,0.056630507000000004,-0.0022810786,0.090130456,-0.1109231,-0.100684136,0.09840794,0.05016719,0.12423051,-0.010387325,0.0142942965,-0.08847553,-0.019607503000000002,-0.14371206,0.09164684,0.044930324,-0.004747264,0.15176545,-0.044021778,-0.12109839,-0.03104754,0.0647305,-0.06954152,0.056088213,-0.016966403999999997,0.10062387,0.07826151,-0.06646457,-0.063962646,0.027065774,-0.05765699,0.12933674,0.07347923,-0.06922654,-0.111510366,-0.07491255,0.06993769,0.10132979,0.013187190500000001,-0.051760695999999995,0.04982683,-0.07215683,-0.058445007,0.09830815,-0.11664191,0.011053691000000001,-0.0010442144,0.15153304,-0.016085833,0.14572716,0.13277057,0.06491611,0.02778469,0.047664557,0.15889263,-0.038328197,-0.10371005,-0.10757469,-0.019565133000000002,-0.012846294,0.060560733,-0.14232795,0.09458312,-0.08251527,0.023915246,0.10818654,0.14143954,-0.024717657,-0.011427544,-0.019798432,-0.038264435,-0.056987297,0.025793022000000002,0.04739935
http://www.benchmark.org/family#F6M69,0.072021544,-0.14420056,-0.069894366,0.040888328,0.07599739999999999,0.10244504,-0.07911551,-0.11865149,-0.04755392,-0.13333611,-0.005182677,-0.10802244,-0.036869988,-0.12742402,-0.06434733,0.0059055546,-0.0017183702,0.07084817,-0.06704815,0.106986426,-0.07302129,-0.017661108000000002,0.016454293999999998,-0.05093797,-0.07096132,-0.10083802,0.017630378000000002,0.041889694,0.02367592,0.02682897,-0.1154,-0.10183389999999999,0.06586661,0.073281795,0.113722764,-0.03374495,-0.09270122,-0.10915065,-0.02069346,-0.07869989,0.0789584,0.027584108,-0.04774218400000001,0.11434812,0.026032781,-0.09834623,0.13328502,0.09697413,0.0035918113,0.11401465,0.03620114,0.10403043,0.08535878,-0.0708623,-0.0681827,0.0037832914,-0.009608014,0.12897477,0.025489708,-0.045896877,-0.01665871,-0.07518852,0.05384681,0.10040851,0.039740782,-0.045705613,0.11803887,-0.035027873,-0.050736304,0.07283531,-0.030793927999999998,0.007646405,-0.020400474,0.088659614,-0.026604986,0.12300695,-0.0037324077000000003,0.10620301,0.01830912,0.09864344,0.11986275,-0.0049908821999999995,-0.08958142,-0.09731661,0.016621338,0.14214256,0.13301557,-0.05588011,0.102113865,-0.10106362,0.0921523,0.06987133599999999,0.09750224,0.13453199999999998,0.0063863625,0.0034789803999999997,0.009787209,-0.12685235,0.06411788,0.051883303
http://www.benchmark.org/family#F10M190,0.019972915,-0.07764873,-0.03697858,0.035916172,0.09452859,0.12554397,-0.10648545599999999,-0.11119316,-0.13107532,-0.09091581,0.04211861,-0.1300999,-0.04770409,-0.03325375,-0.011425722,0.02399242,0.013885492,0.16036214,-0.110875905,0.091993496,-0.0474998,0.0047448429999999995,0.038506742999999996,-0.037695263,-0.10978959,-0.10249537,0.009274213,-0.04100282,0.037964433,-0.01838503,-0.103537865,-0.12023153,0.08221235,0.043786738,0.12199556,0.015324046000000001,0.04969413599999999,-0.08328319,-0.012742406999999999,-0.09369208,0.08152556,0.09384611,-0.045206662,0.17356822,-0.015614766,-0.101049334,-0.024972916,0.07593132,0.041278154,0.097305655,-0.011039196999999999,0.117914245,0.096362956,-0.09125141,-0.08559486,-0.034552343,-0.036936263999999996,0.10137499,0.0272274,-0.0801474,-0.059177004000000005,-0.12197357,0.06189236,0.06985865,0.065748796,-0.048140254,0.09053498,-0.049183517999999996,-0.004432639600000001,0.07595184,-0.05042052,0.014316553999999999,-0.03610032,0.12931293,-0.007641098000000001,0.16705404,0.13739207,0.08439145,0.033611137,0.06638493,0.11677637,-0.019798782,-0.054120775,-0.09754084,-0.044588212,0.105116494,0.06604783,-0.16512178,0.11761124,-0.09200407,0.05519675,0.08696292,0.12333143,-0.009698056,-0.0075614583,-0.008238915,0.020922478,-0.07856616,-0.121032745,0.02619079
http://www.benchmark.org/family#F7M125,0.040233277000000005,-0.011070088,-0.05446537,0.026465403,0.08969010000000001,0.06305508,-0.09571369,-0.093408205,-0.015432353000000001,-0.09773566,0.00722084,-0.16874775,-0.038871255,-0.085445546,-0.03438651,0.008687957,-0.015288993,0.15016262,-0.09110625,0.11876882,-0.018004522,-0.0073289309999999995,0.027661815,-0.04726408,-0.09962304,-0.07652166,0.049425643,0.02178886,0.0043223540000000005,0.0847448,-0.11160798,-0.10002369400000001,0.092128314,0.04432949,0.11214834,-0.0010227456,0.026608622000000002,-0.11301026,-0.017759999999999998,-0.12329352,0.076898105,0.033410456,-0.013060266999999999,0.16133723,-0.047589038,-0.10147089,-0.03500674,0.060192443,-0.007255435500000001,0.060044862000000004,-0.035539,0.14336716,0.10026403,-0.057509936,-0.059676442,-0.009576363000000001,-0.028512929,0.11764743,0.05748155,-0.032834318,-0.05696037,-0.068303004,0.053465757999999995,0.10497401,-0.024567917,-0.062037304,0.09532234,-0.06375473,-0.024810929,0.073930904,-0.09464805,-0.0024002988,-0.009944577,0.14663544,0.0022899113,0.1335718,0.09922505,0.08358224,0.018237064,0.05170437,0.11561411,-0.04947225400000001,-0.072589666,-0.09438769,-0.018423224,0.008890041999999999,0.11402516,-0.12738323,0.12667806,-0.09309114,0.01466849,0.09504946,0.111990646,0.0010237446,-0.0052334187,0.0028247921999999996,-0.0058610523,-0.07296875,-0.02121195,0.022979971000000002
http://www.benchmark.org/family#F6M73,0.022183223,-0.07253417,-0.060812354000000006,0.05484988,0.06391988,0.122412704,-0.1396454,-0.11866420000000001,-0.09820110000000001,-0.09773449,0.01137687,-0.12305581,-0.015893701,0.004772777,0.014761666000000001,0.02214449,0.006269584399999999,0.08059574,-0.10632742,0.08652178,-0.08894124,-0.014753231,0.009801913,-0.03915256,-0.10249262,-0.08149142599999999,-0.014927466,0.030696629,0.042102564,-0.018350335,-0.13380186,-0.1026296,0.09858392,0.081100605,0.07426698,-0.004537574,0.031100981,-0.09054276,-0.012287105,-0.1264557,0.08989857,0.04851975,-0.01498653,0.17858803,0.009461278,-0.112845734,0.016794003999999998,0.078895874,-0.010865902,0.07612763,0.033509195,0.103473164,0.06849129,-0.054274585,-0.05907015,0.0017202587,-0.019203255,0.09459129,0.016956363000000002,-0.04766985,-0.046819057000000004,-0.103200145,0.07292227,0.08082731,0.07226163,-0.06877927,0.13380091,-0.0033665143,0.008894013000000001,0.11015129,-0.08975150400000001,0.0087749185,-0.02062743,0.119591415,-0.0037047775,0.13148242,0.037293087999999995,0.07504801,0.023515132999999997,0.043530148,0.10014884,-0.032683756,-0.07905515,-0.11424743400000001,0.0046171929999999995,0.11825186,0.09684397,-0.12419885,0.10894407,-0.116467245,0.073690094,0.037404623,0.10226901599999999,0.0041323490000000004,0.026619291,-0.011441275,0.01554075,-0.10586191,-0.113402784,0.07048305
http://www.benchmark.org/family#F10M194,0.03939924,-0.122129664,-0.0526369,0.037005632999999996,0.07178748,0.08848997,-0.12414080000000001,-0.11330656,-0.09511465599999999,-0.13191722,0.04636055,-0.10589581,-0.042237765999999996,-0.17029433,-0.08300192,0.05204636,0.024909424,0.075750336,-0.079244845,0.09134273,0.015798867,-0.0073336917000000005,0.060728582999999996,-0.04447447,-0.07344146,-0.08225542,0.05459118,-0.013770079,0.026817344,0.0004144803,-0.10427077,-0.09994766,0.066375956,0.045344997000000005,0.11498924,0.0012959501,0.00024655025000000003,-0.09234278,-0.0394605,-0.07757913,0.08476099,0.096439235,-0.12717834,0.16128498,-0.04129254,-0.07085452,0.013518902,0.061510987999999996,0.03943368,0.07936258,-0.019050846,0.08419996,0.10017373,-0.12020874,-0.05588004,-0.07378481,-0.024547592000000003,0.18063767,0.052388404000000006,-0.090679266,-0.029129837000000002,-0.08912769,0.029644579,0.08177066,-0.046479728,-0.046276845,0.12474560000000001,-0.047580000000000004,-0.041205756,0.08108449,-0.03156409,0.019409927,-0.058848113,0.11745562400000001,0.015590921,0.104798764,0.14174105,0.104516916,0.04765106,0.10834414,0.11542226400000001,0.03240276,-0.06583871,-0.07699459,-0.06140581,0.09620378,0.11002979,-0.13879560000000002,0.14447796,-0.097796135,0.059675664,0.07309965,0.12768394,0.081287615,-0.070670195,0.035768423,-0.0038424559999999997,-0.111747906,-0.033622745,0.016373226
http://www.benchmark.org/family#F9M157,0.051033694000000004,-0.05684704,-0.062105812,0.033146612,0.067903824,0.12512545,-0.11488672,-0.11421543,0.0027444384000000002,-0.11164179,-0.0012062428,-0.14007069,-0.02372548,-0.060990225999999995,-0.015234725,-0.014531424,-0.02265044,0.1364204,-0.084135436,0.09911471,-0.047800366,-0.003643866,0.028289339,-0.04912665,-0.10745974,-0.06968313,0.008281999,0.04471864,0.012793553000000001,0.14183936,-0.090831816,-0.09328789999999999,0.102786295,0.08532037,0.0924886,-0.02483784,-0.043336432,-0.06313147,-0.0014550088,-0.13460587,0.080523156,0.0229165,-0.0019216336999999999,0.14894475,-0.004042625,-0.10106860000000001,0.07606652,0.07374114,-0.010431151999999999,0.08659553,0.0012268216,0.13704021,0.06992527,-0.09186298400000001,-0.044969995,-0.006942391,-0.019699207,0.097711,0.026526691,-0.043323964000000006,-0.06633071,-0.055978633,0.07920738,0.09042003,-0.004468356,-0.047045458,0.10144128,-0.066123515,-0.0053969203,0.11970957,-0.10105862,-0.01038239,-0.023061456,0.13450639,-0.014529266,0.12377462,0.009259883,0.07874518,0.019333178,0.065018475,0.12882458,-0.04987712,-0.09181089,-0.11617443,0.011769195,0.024549572000000002,0.13075592,-0.07653399599999999,0.08978415,-0.105829775,0.038526732,0.07668598,0.11320699999999999,0.043119736,0.02536023,-0.008264447,-0.011593847,-0.066814825,0.056005538,0.07183206
http://www.benchmark.org/family#F6M75,0.01051103,-0.08641879,-0.055291034,0.056339055,0.08482737,0.11136024,-0.07223071,-0.1190746,-0.10537274,-0.11091354,0.021741414,-0.12847556,-0.028901445,-0.04660175,-0.023905965,0.029075302,0.014554268,0.16593052,-0.083035655,0.10815415,-0.03839344,-0.0093052285,0.045313373,-0.045553334,-0.10391158,-0.08918468,0.0074649574,-0.011790263999999998,0.04697244,-0.05059232,-0.08484530400000001,-0.06759772,0.08871571,0.05937179,0.1274131,0.025104854,0.07305398,-0.08170001,-0.027701179,-0.101752274,0.085445516,0.0972377,-0.016972572,0.19774742,-0.020947723,-0.10803497599999999,-0.0033102204999999997,0.08803364,0.0010078280000000001,0.094414845,0.0010892574,0.12529446,0.07165611,-0.08687048,-0.09380236,-0.02557896,-0.031055872999999998,0.09086372,0.03084269,-0.08793659,-0.0473923,-0.05930993,0.04691057,0.09146859,0.040604062,-0.06794756,0.049129277,-0.018951086000000002,-0.014656322,0.08319575,-0.10712125,0.011805361,-0.013157405,0.085491315,0.0049589635,0.13130508,0.10982989,0.08146304,0.027657444,0.07694587,0.10579856,-0.014235587,-0.050825797,-0.14241473,-0.04075819,0.09776797,0.11495758,-0.1766463,0.107232094,-0.09156424,0.06696864,0.08988916,0.14047167,-0.000451799,0.007106094,0.01002208,0.03645178,-0.09357273599999999,-0.124624714,0.059563357000000004
http://www.benchmark.org/family#F10M197,0.024739511000000002,-0.07147574,-0.053983495,0.06244061,0.07274402,0.09611299,-0.09542105,-0.103279814,-0.08054656,-0.12893333,0.007175065,-0.13312417,-0.03824396,0.004508285999999999,0.0072259237,0.015712587,0.015338792,0.09291341,-0.08779268,0.091188185,-0.09185686,-0.02348155,0.02591673,-0.03746878,-0.06955022,-0.08579260000000001,0.0063961903,0.041008774,0.03142502,0.008864858,-0.13359772,-0.081418805,0.11978177,0.0773972,0.0907941,-0.013040722,0.035682127,-0.086004846,0.021231232000000003,-0.086064145,0.09055023,0.04311558,-0.007240443,0.19243570000000002,0.00050588074,-0.109016664,0.02078866,0.103021055,0.01420573,0.07943413,0.045939557,0.13070197,0.07039008,-0.10445724,-0.06967385,0.017950939,-0.030961692000000002,0.07741869,0.01867581,-0.055917222,-0.05529394,-0.10252585,0.07396351,0.09025324,0.09146416,-0.06710961,0.10317628,-0.02184795,-0.013063283,0.111814894,-0.12485568,0.00021140731,-0.016692718,0.12941203,-0.0035190287,0.12802280000000002,0.040333644,0.09840691,0.004953817,0.07646063,0.12642804,-0.022588142999999998,-0.07052572,-0.12650561,0.005578252,0.13756849,0.08905029,-0.13370566,0.13175479999999998,-0.09518063,0.08764398,0.07529869,0.09563681,0.0031078495,-0.0069697173,-0.015691232,0.011346212,-0.09388473,-0.13532755,0.037299685
http://www.benchmark.org/family#F6M78,0.04077205,-0.16236721,-0.060720675,0.041865826,0.084964186,0.10844318,-0.090602495,-0.094723456,-0.050279282,-0.13656983,0.015104339,-0.11034165,-0.026443097999999998,-0.11689342,-0.048364032,0.01777272,-0.024947387999999997,0.059925407,-0.05092167,0.07823443,-0.060502212,-0.00888571,0.021964299,-0.046762448,-0.052362848,-0.08554124,0.007130421,0.03524506,0.03042989,0.014254758999999999,-0.118708245,-0.10133909,0.08361778,0.094238505,0.09934977,-0.057599425,-0.104443446,-0.10235106,0.010772405,-0.07676293,0.07051897,0.045600817,-0.06842149,0.13249224,0.015506788,-0.09858482,0.06912402,0.06717452,0.010133814,0.07589383,0.013194078,0.08861357,0.08265803,-0.100664034,-0.049258254,-0.00043744282,-0.026315678,0.14717302,0.029620092,-0.045452192,-0.024301883,-0.10675492,0.05281721,0.10460431,0.022038587999999998,-0.05227012,0.13578716,-0.043814915999999995,-0.035827566,0.12550206,-0.046193372,0.020813808,-0.04466154,0.08090608,-0.021402083,0.09768049999999999,-0.013038117,0.12948765,0.031572558,0.12532218,0.10834073,0.010031945,-0.07464035,-0.12120885,0.007166409,0.13707581,0.11213938,-0.059172764,0.1051913,-0.11106379999999999,0.103272,0.07170479,0.08140268,0.15026522,0.0054986705,0.0070924936,-0.013824971,-0.14610349,-0.0057208864,0.03781478
http://www.benchmark.org/family#F9M167,0.052416085999999994,-0.038008083,-0.05667718,0.04764702,0.060354013,0.111828,-0.13158838,-0.13348418,0.010189182,-0.112666994,-0.005041923,-0.1600333,-0.015508991000000001,-0.08685238,-0.038959324,-0.015412738,-0.032435723,0.0903478,-0.10404234400000001,0.11186794,-0.031314805,-0.0074525033,0.036104212999999996,-0.045750607,-0.102049544,-0.06546605400000001,0.011362745,0.026045196,0.012076866,0.14365567,-0.13721952,-0.051216573,0.11843821,0.08240279,0.09548581,-0.039441675,-0.042108465,-0.089161605,-0.022030692999999997,-0.09368857,0.06934828,-0.01487363,0.006352111999999999,0.1624069,-0.016388422,-0.09984035,0.05935595,0.05362667,0.007645490600000001,0.06578937,-0.0013760752,0.11135661,0.07163741,-0.07763289,-0.061144788,-0.009761732,-0.029255233999999998,0.1268262,0.02360731,-0.022091206000000002,-0.059132515999999996,-0.09633796,0.07929488,0.06669045,0.017562715,-0.05889638,0.11401181,-0.05098235,0.0055674524,0.13122284,-0.14673257,-0.009375795,-0.022546899,0.11308866,-0.016665949,0.11595636,0.068459764,0.08547512,0.0035651976,0.07406382,0.1322874,-0.040509477,-0.086121276,-0.1325652,-0.0016953814,0.012010541999999999,0.13245156,-0.11887744,0.067969136,-0.07037921,0.05642423,0.0801489,0.10840021,0.041140699999999995,-0.010108302,-0.045100945999999996,0.016351398,-0.07847887,0.01817209,0.071530625
http://www.benchmark.org/family#F10M196,0.074266754,-0.15754752,-0.05550745,0.04583613,0.070157506,0.09886126,-0.133132,-0.12965228,-0.05186016,-0.072062455,0.010933722,-0.118650086,-0.03534093,-0.128942,-0.06048702,0.03209858,-0.019953204,0.07021108,-0.06490064400000001,0.09584789,-0.06228277,-0.015557172,0.0386038,-0.04097278,-0.10934429,-0.08429294,0.02174411,0.046956696,0.04705812,-0.009896727,-0.11812386,-0.07682076,0.05487861,0.10047951,0.07774362,-0.042044107000000004,-0.07374954,-0.10122071,-0.007340757,-0.09581806,0.08013088,0.04383405,-0.056336526,0.12135039,0.024389721,-0.10273008,0.09772171,0.06582755,0.01672691,0.10533871,0.048683606,0.10096172,0.08921434,-0.11525064,-0.06295153,-0.015284811,-0.024025032,0.14192061,0.020453006,-0.06641392,-0.025889897999999998,-0.13564286,0.073858105,0.09182761,0.042513699999999995,-0.04159465,0.14639685,-0.04438065,-0.006856861999999999,0.086979,-0.043200865,0.0180871,-0.020476365,0.0778939,-0.018621447,0.091091394,-0.02887504,0.09562979,0.015444485,0.11311481,0.11282775,-0.0065858,-0.07284694,-0.10409102,-0.0026934913,0.11673149,0.11968177,-0.063492954,0.09261974,-0.13061185,0.086850025,0.06921499,0.10125418,0.14132032,-0.006743591700000001,-0.0008006363599999999,-0.003743695,-0.10338416,0.02011907,0.0686568
http://www.benchmark.org/family#F6M80,0.028490937999999997,-0.1071945,-0.06516386,0.02479901,0.09256478,0.08123528,-0.13266268,-0.09549006,-0.061380576,-0.12944925,0.0029389990000000003,-0.0957517,-0.040725976000000004,-0.19297005,-0.05192698,-0.0024724639999999997,0.014808478,0.09072218,-0.08194411,0.100357495,-0.000116430296,0.0022935516,0.06571759,-0.039850168,-0.066833265,-0.076834574,0.041403595,8.167631999999999e-05,0.02665868,0.006975286999999999,-0.0880648,-0.14680652,0.06266154,0.04302469,0.10879277400000001,0.017016098,-0.04551989,-0.07455785599999999,-0.051491532,-0.04788897599999999,0.073780134,0.10890311,-0.13600694,0.18182420000000002,-0.060253575,-0.09585018,-0.010913618,0.07679954,-0.015930276,0.07369122,-0.026921341,0.04052886,0.09474551,-0.12367627,-0.09624763,-0.07723985,-0.022444147999999997,0.23454762,0.05288276,-0.059014097,-0.022300043999999998,-0.09312998,0.03924796,0.08748,-0.033953972,-0.04735495,0.10119457,-0.07087644,-0.03442663,0.08992234,-0.023708431000000002,0.014192392,-0.012425748,0.13402103,0.015517366000000001,0.13426459999999998,0.10847327,0.096924596,0.022443559,0.08924147,0.11759813,0.02247748,-0.034824308,-0.09793415,-0.07630824,0.09994678,0.11314884,-0.12524813,0.16307805,-0.098927975,0.07055424,0.07449012,0.122370064,0.08645062,-0.026645444,0.06997831,-0.010119396,-0.10934505,-0.07421774,0.01791997
http://www.benchmark.org/family#F9M151,0.035606325,-0.02571203,-0.05811194,0.015023441,0.08158354,0.13900314,-0.117225796,-0.113964505,-0.043276258,-0.117700405,0.0018111207,-0.12634255,-0.048266698,-0.08278905,-0.030129977999999998,0.01054386,-0.008602819,0.13400535,-0.09086282,0.08560084,9.830542999999999e-05,0.0023002923,0.041614432,-0.039798975,-0.089405745,-0.06952804,0.04817409,0.007409572,-0.0054824036,0.12796573,-0.11358917,-0.10358838,0.11923258,0.05882169,0.08950644,-0.0035443303999999998,0.0046029193,-0.06393258,-0.011909461000000001,-0.088331096,0.10177966,0.05119118,-0.02754405,0.13241133,-0.041609485,-0.097188435,-0.027859105,0.09192304,-0.05870497,0.0495753,-0.026247507000000003,0.111189105,0.10595011,-0.074972965,-0.0646718,-0.002242042,-0.035972223,0.11912273599999999,0.056930207000000004,-0.06262563,-0.062368114,-0.07730421,0.05098617,0.10276869,-0.0035235898,-0.040436613999999996,0.088873975,-0.045716044000000004,-0.021645054,0.09619026,-0.13902754,-0.012319241000000002,0.0064611062,0.10762376,-0.009777006,0.1415614,0.12874104,0.08681873,0.01775848,0.04766344,0.14688176,-0.037202682,-0.08399857599999999,-0.10720903400000001,-0.008006802,0.008284656,0.08970547,-0.13716292,0.08636154,-0.093535855,0.020646218,0.0975556,0.10481328,-0.0072439485,0.0030458729999999997,-0.004178895,-0.019312896,-0.083846465,-0.007627233000000001,0.03596162
http://www.benchmark.org/family#F10M202,0.04439639,-0.10405423,-0.045137446,0.026565167999999997,0.09372689999999999,0.08097948,-0.11182391,-0.098357625,-0.14065123,-0.12330661,0.007718671999999999,-0.10195306,-0.043859653,-0.18779927,-0.10334412,0.046263646,0.018035369,0.10169615,-0.05528523,0.09101374400000001,0.0096091,0.0026723992,0.069103174,-0.032668255,-0.09438519,-0.086393684,0.06629479,0.00418789,0.040026255,0.005437270300000001,-0.11581169999999999,-0.099838845,0.057134307999999995,0.031925972999999996,0.09612272,0.001612325,-0.011387541999999999,-0.08185774,-0.04959047,-0.07244209,0.07708254,0.07045045,-0.13599087,0.18021968,-0.04619598,-0.0964727,-0.0035058153000000003,0.07713009,0.025933003,0.09929905,-0.010515733000000001,0.107271105,0.09418815400000001,-0.118547186,-0.08909393,-0.051103067,-0.04340046,0.21344958,0.052781943,-0.08853035,-0.027126772,-0.12824987,0.03458182,0.08480113,-0.04448762,-0.046159957,0.10731159,-0.058271803,-0.0317446,0.08645213,-0.03313035,0.019052107,-0.05518508,0.122500755,0.025327227999999997,0.114548236,0.1209348,0.084383994,0.03755452,0.108737625,0.08553955,0.010510485,-0.03966648,-0.08577061,-0.08146432,0.09578243,0.124874875,-0.11516531599999999,0.114675626,-0.08413093,0.08635501,0.08410566,0.14000128,0.08276460000000001,-0.07004362,0.0425658,0.00479904,-0.11566695,-0.074100755,-0.013018598000000001
http://www.benchmark.org/family#F6M85,0.06417659,-0.15692915,-0.07341534,0.07087988,0.07405692,0.1302727,-0.13449672,-0.12177114,-0.05131328,-0.14750446,-0.00015268972,-0.09131476,-0.038547985,-0.13341574,-0.07439753,0.027831098,-0.008966856,0.07270314,-0.057922274,0.040175986000000004,-0.04927808,0.011178196000000001,0.047233699999999997,-0.050414294000000005,-0.041268896,-0.076459765,0.012581427,0.027350644,0.04083893,0.034331787,-0.12046707400000001,-0.09666472,0.05550359999999999,0.08626126,0.07777255,-0.017359378,-0.092002474,-0.07991132,0.008434356,-0.0923051,0.06669355,0.040229324,-0.06255004,0.12142443,0.034265332,-0.07909236,0.047630474000000006,0.08584278,-0.01524732,0.12320589,0.006300753399999999,0.088393845,0.10312424,-0.109373055,-0.05610881400000001,-0.023485126000000002,-0.032744072,0.1356481,0.026709395,-0.0792711,-0.032333747,-0.07048917,0.053753867999999996,0.10126797,0.02560283,-0.03915641,0.113135435,-0.061317142000000005,-0.025838099999999996,0.12290121,-0.02860653,0.0049478840000000005,0.0023062201,0.11180563,-0.017280193,0.10894373,-0.025533887,0.12695044,0.02335937,0.121329196,0.10704887,-0.010014257,-0.09448402,-0.14473782,-0.009223865999999999,0.17182279999999997,0.13930568,-0.06266006,0.08787735599999999,-0.07491194,0.08311469,0.046982232,0.06651732,0.11735482,0.021857427000000002,0.020259019,0.01852447,-0.10341097,0.01253658,0.072451726
http://www.benchmark.org/family#F9M153,0.039988324,-0.035334855,-0.054221794000000004,0.042684544000000005,0.056839152999999996,0.096403755,-0.07872787,-0.10391454,-0.013566246,-0.12755734,-0.014028668999999999,-0.13978410000000002,-0.027735775,-0.05902747,-0.00020774793999999997,0.012617096000000001,0.0035731466,0.101817735,-0.09140348,0.09210188,-0.042057194000000006,-0.004279933400000001,0.025115062,-0.038325053,-0.118477054,-0.05951041,0.014983682,0.029425728999999998,0.01292663,0.13655575,-0.12773287,-0.10047206,0.10655533,0.08269259,0.09964649,-0.028748965,-0.02621073,-0.09643519,-0.003259817,-0.107288375,0.0892572,0.03547361,-0.01424211,0.17206006,-0.015772587,-0.10704380000000001,-0.019043844,0.041187577,-0.037385043,0.071105696,0.017248156,0.12490265,0.05642695,-0.098762505,-0.05412659400000001,-0.0026373637,-0.029194507999999997,0.10733905,0.020189002,-0.044110887,-0.06102831,-0.09478841,0.07178264,0.08511287,0.02316609,-0.055513575999999995,0.122816175,-0.049576946,-0.009368463,0.11171771,-0.12726964,-0.012084434,0.00060840574,0.14585331,-0.017209003,0.09468582,0.059225306,0.097492225,0.029345599999999996,0.048855104,0.13631795,-0.041616,-0.087020405,-0.10468934,0.0036658114000000003,0.0054070186,0.14778292,-0.10475698,0.11236081,-0.08151762,0.052099783,0.07167175,0.10230479,0.002814976,0.008760864,-0.030612854,-0.020916658,-0.093265295,-0.037705787000000004,0.07306556
http://www.benchmark.org/family#F1M1,0.06714489,-0.14038941,-0.07032695,0.063809246,0.08458771,0.09560186,-0.10466875,-0.11983848,-0.076155245,-0.09037994,0.014960326000000001,-0.13796036,-0.005318485699999999,-0.11269701,-0.0580687,0.05297140400000001,-0.016430734,0.0785155,-0.068360746,0.08843367,-0.041639097,-0.040383425,0.032382835,-0.04243028,-0.10824708,-0.062182534000000005,0.0008038302,0.026915634,0.0444412,-0.01265577,-0.09596929,-0.10547016,0.094991125,0.069038324,0.09274003,-0.050047642999999996,-0.10486530000000001,-0.09317317,0.0022960524,-0.08360914,0.06781386,0.059296206,-0.058762267,0.13093494,0.03099324,-0.1177989,0.10453986400000001,0.03742596,0.015637296999999998,0.110076755,0.057794187000000004,0.09534588,0.07112588,-0.12317428,-0.04735427,0.007909997,-0.019078262,0.1367875,0.017965911,-0.036291406,-0.018087031,-0.15047012,0.06572604,0.08543897,0.041870005,-0.05025504,0.071484834,-0.04374848,-0.0049967594,0.104132324,-0.038251583,0.039845206,-0.04397797,0.10487737,-0.019243602,0.12786652,-0.02122466,0.13825734,0.030908598,0.0990456,0.12514943,-0.0018753904000000001,-0.082120076,-0.14868887,-0.02681605,0.07531666,0.14925456,-0.06782213,0.11007104,-0.11311121,0.0745195,0.06098414,0.09802091,0.10701675,0.029338593,0.016954262,-0.007037708,-0.0745107,0.03949581,0.056891315
http://www.benchmark.org/family#F6M88,0.04665379,-0.11141199999999998,-0.05557806,0.057127748,0.07973816,0.10410773,-0.13168435,-0.12972581,-0.07163018,-0.15099944,-0.0007316050999999999,-0.10814533400000001,-0.017086241000000002,-0.1847306,-0.05733855400000001,0.019959258,-0.0037086308000000004,0.040186565,-0.06702925,0.075569786,-0.042296067,0.0015745917000000002,0.061019797,-0.04550218,-0.11345899999999999,-0.04734858,-0.03496791,0.0033744664,0.047978256,-0.027018913999999998,-0.10293569,-0.08765379,0.0441319,0.09072297,0.09000981599999999,-0.015189481000000001,-0.08051657,-0.09479485,-0.03320907,-0.0842336,0.048791367999999995,0.056237094,-0.05696742,0.16736001,0.023398007999999998,-0.10482778,-0.0036496976,0.051277906,-0.02928811,0.051210962,-0.022613509,0.11650606,0.06239861,-0.14000775,-0.039704915,0.0027376383000000002,-0.037458695,0.20222864,0.02491186,-0.032312807,-0.025397852000000002,-0.11448366,0.05372227,0.10126119,0.07545119,-0.05885897599999999,0.10922521,-0.05752448,-0.049551044,0.10627763,-0.06860849,0.011672206000000001,-0.042974748,0.09236175,-0.009496535,0.09149251,0.055642817000000004,0.101712964,0.014840041000000002,0.15314223,0.10922581,-0.014110881,-0.07285225,-0.11111344,-0.01867871,0.09718859,0.11340839400000001,-0.08696636,0.093212344,-0.112861805,0.11064486,0.053093905999999996,0.076368295,0.14915514,-0.0010312166,0.028385742000000002,0.01864404,-0.14023544,-0.021469783,0.03912817
http://www.benchmark.org/family#F1M4,0.078832775,-0.12036145,-0.07030922,0.06697173,0.06921844,0.10607865,-0.13703953,-0.15075739,-0.036190055,-0.16124177,0.016687555,-0.100792386,-0.009011187,-0.15876533,-0.06445449,0.0014314635999999998,0.015248101000000002,0.043762315,-0.05581667,0.088278055,-0.049848974000000004,-0.010361479,0.054410715,-0.04802893,-0.06780219999999999,-0.06933912,0.009073329,-0.0073663597,0.045109685999999996,0.0169287,-0.12181762,-0.09932187,0.0675544,0.09134626400000001,0.08829727,-0.038600653,-0.106796235,-0.085316904,-0.010085264,-0.037136283,0.08318049999999999,0.04460203,-0.07799225,0.16678888,0.021363372000000002,-0.09452984,0.08281067,0.078839004,-0.02176963,0.102450036,0.04883869,0.08389051,0.08101228,-0.10924189999999999,-0.06341269999999999,-0.015714353,-0.017884186,0.1640598,0.018535739,-0.04378857,-0.030670577999999997,-0.10617796,0.07937247,0.07757025,0.046021737,-0.05549912,0.14826141,-0.013238001000000001,-0.032267502999999996,0.065578215,-0.040287867000000005,0.0026265145,-0.01394482,0.064216055,-0.0045083356,0.10909862,0.03441967,0.10079868,0.014134498999999998,0.0689444,0.11149505,-0.017372953,-0.06842072,-0.11215669,-0.0066349072999999995,0.10471362599999999,0.11449776,-0.10423838,0.12628238,-0.11844527,0.09886287,0.06900247,0.077825665,0.11249664,-0.05351635,-0.004102796,0.018474841000000002,-0.127374,-0.03568692,0.024785752999999997
http://www.benchmark.org/family#F9M159,0.047193612999999995,-0.02756321,-0.051297642000000004,0.024445167,0.057893213,0.08048167,-0.12712902,-0.10422946,-0.0075413827,-0.13497566,-0.009555595,-0.12990639,-0.018546104,-0.06839921,-0.0018258363,-0.001518695,-0.0009665896000000001,0.12090868,-0.10490491,0.083601885,-0.030059401,-0.0012219034,0.012635400500000001,-0.045883655999999995,-0.06715116,-0.06607539999999999,0.001725841,0.042012513,0.01155102,0.10348872,-0.12855682,-0.079232074,0.09182883,0.07675588,0.09098887,-0.011158816,0.0006397005,-0.110479854,0.021745837999999997,-0.09991911,0.08172998599999999,0.054127418,-0.0074220994,0.16062793,-0.012760765,-0.11156355,-0.03956562,0.063004635,-0.048096392,0.0665533,-0.044437855,0.14096595,0.08702501,-0.09923796,-0.05581849999999999,-0.0027315821000000002,-0.021167742000000003,0.12440535400000001,0.042031347999999996,-0.03392567,-0.06307280000000001,-0.10512231,0.07750972,0.08510024,0.011109856999999999,-0.06080083,0.12432395,-0.065071285,-0.023708213,0.10945753,-0.1560497,-0.005832289,-0.019330077,0.100452945,-0.016327016,0.11586501,0.07834573,0.08121060599999999,0.012799254,0.0549886,0.14527096,-0.038228385,-0.08284588,-0.13157926,-0.0030959840000000004,0.0012507394,0.109594055,-0.10521231,0.09390258,-0.104437865,0.047547225,0.06313712,0.084628694,0.02346376,0.00054924603,-0.006837240400000001,-0.0029458818,-0.09691279,-0.031312400000000004,0.043043908
http://www.benchmark.org/family#F6M95,0.06643791,-0.15411489,-0.06392529599999999,0.044728592000000005,0.07226388,0.06295669,-0.10460926599999999,-0.14034201,-0.069083214,-0.10961900000000001,0.0047572837,-0.10188818,-0.025116751,-0.12024938,-0.07784277,0.021472909,-0.011328752,0.06672072400000001,-0.056889325,0.09563969,-0.051035054,-0.030192135,0.028898302,-0.04639907,-0.073106006,-0.08661099,-0.0062129622999999995,0.025980115,0.04694402599999999,0.01201573,-0.10445105,-0.124482505,0.07497592,0.07894488,0.12239212,-0.041344546,-0.09398909,-0.06967884,0.012517536000000001,-0.078049935,0.08109622400000001,0.048171736,-0.04364421,0.12494277,0.037100512999999995,-0.10123944,0.04628248,0.0647131,0.013299478,0.10864755,0.011120406999999999,0.104026504,0.08287344,-0.12787443,-0.046696592,-0.03141649,-0.0098458985,0.12898283,0.026179512999999998,-0.057298142,-0.025708947000000003,-0.12376681,0.052788112000000005,0.08165328,0.016878342,-0.043162182,0.10886027,-0.051565517000000005,-0.04687131,0.1244152,-0.04520115,0.014388696000000001,-0.04101668,0.10630456,-0.018719507,0.09627724,-0.01628825,0.10112749,0.030797147999999996,0.116189204,0.08952752,-0.011055031000000002,-0.0706621,-0.13280727,-0.0051320484,0.14203937,0.12564683,-0.060587585,0.10169745,-0.115432456,0.09297518,0.051228307,0.09355373,0.1420254,0.0011771823,0.012885108000000001,-0.027437952999999998,-0.12282107,0.0021923492,0.035226945
http://www.benchmark.org/family#F1M6,0.029775102,-0.10598381,-0.067470714,0.03444269,0.07545471,0.09744552,-0.1171211,-0.121567965,-0.11504690000000001,-0.11286222,0.009768248,-0.100328326,-0.034072563,-0.18799686,-0.08045259,0.05104837,0.016468966,0.078358516,-0.06696018,0.06766891,0.027860437999999998,-0.00064793916,0.08704738,-0.04118063,-0.069100976,-0.05694604,0.06375013,0.007526845999999999,0.029039653,0.0030681184000000005,-0.086785235,-0.12541078,0.052257314000000006,0.044215847,0.10779169,0.0071716853,-0.007181964,-0.101689495,-0.027685748,-0.08003114,0.08219536,0.07969854,-0.11631151,0.16987456,-0.048383944000000005,-0.10023103,0.0006577822500000001,0.08730689,-0.012328315,0.09452312,-0.011580182,0.07865592,0.08537642,-0.10016107,-0.09003828,-0.056601834000000004,-0.027482017999999997,0.23168015,0.05526747,-0.09891578599999999,-0.031222502000000003,-0.11667079,0.033449184,0.08300045,-0.031231709,-0.0430223,0.12353312,-0.042585902,-0.040094583999999996,0.06641522,-0.05463959,0.012993177,-0.028224258,0.093106404,0.024051702,0.12638266,0.13703355,0.04511579,0.048559714000000004,0.10069735,0.13629484,0.030119099,-0.06585373,-0.12940016,-0.055680982999999996,0.10397515,0.09654132,-0.11784733,0.099921316,-0.09184018,0.085177176,0.09040481,0.10520431,0.09904876,-0.051363654,0.05777049,0.007794019,-0.11537257599999999,-0.06679219,0.008528106
http://www.benchmark.org/family#F6M99,0.0109673515,-0.10795815,-0.040267807,0.07954935,0.07562878,0.10116566,-0.086145565,-0.110701256,-0.1731213,-0.10222835,0.027418189,-0.11861451,-0.017190466,-0.055822957,0.015501386499999999,0.031597227,0.007838466,0.15419368,-0.092199065,0.084560975,-0.091746084,0.0024459923000000002,0.03564621,-0.040917404,-0.11978696,-0.12502311,0.008656433,0.023133941,0.03721992,-0.032309934,-0.10525639,-0.08702458,0.08079873,0.05622576,0.12494127,0.035201997,0.06819199,-0.09632641,0.029722823,-0.09753329,0.091927454,0.10093883,-0.021284697999999998,0.21720491,-0.021944683,-0.08827477,-0.018325113,0.106555,-0.070932075,0.061165965999999995,-0.004628775999999999,0.09505673,0.060623344,-0.09855935,-0.10002188,-0.005866953,-0.041083705,0.084277116,0.04565992,-0.09470419599999999,-0.07847572,-0.08468124,0.073244035,0.09699507,0.07666818,-0.08441918,0.08266405,-0.030185043999999998,-0.008589054,0.07860341,-0.08868521,0.013226091,-0.076407604,0.123484485,-0.00286549,0.14372629,0.14581949,0.080307595,0.04981407,0.04764994,0.12470003,-0.04983912,-0.09741102,-0.12481798,-0.044697772999999996,0.12617971,0.068980396,-0.16476402,0.12148165,-0.05171905,0.05633944,0.07612057,0.16988698,-0.0345112,-0.001794634,-0.026937712000000003,-0.0046843975,-0.0900363,-0.08199196,0.04442051
http://www.benchmark.org/family#F9M162,0.052824218,-0.03069266,-0.051524796,0.041984607,0.07403689,0.087089695,-0.10505937,-0.11320060000000001,-0.015868984,-0.12692074,-0.0055370852,-0.14011304,-0.031096045,-0.05792857,-0.009338111999999999,-0.009114663,-0.017255915,0.10813478,-0.06358581,0.10167641,-0.05309854,-0.0049843863,0.016894951000000002,-0.04508965,-0.12463447,-0.06179322,0.0040677814000000005,0.04600361,0.006220056999999999,0.12662953,-0.12496253,-0.093708046,0.11923797400000001,0.08500901,0.098416045,-0.02818563,0.0013017934,-0.12992707,0.013404026000000001,-0.08334813,0.09296975,0.03653795,-0.0068516852,0.16130741,-0.0023235388,-0.09674719999999999,-0.020418545,0.07711723,-0.040444772999999996,0.041005112,-0.006675378399999999,0.12270295,0.06618156,-0.09914032,-0.047575705,0.012994523999999999,-0.022134574,0.10198972,0.04542598,-0.036204036,-0.064575866,-0.103790335,0.06918496,0.092341326,0.016386108,-0.05568641,0.09674874,-0.05905885,-0.026307631,0.10455766,-0.13260214,-0.004642368,-0.0139213605,0.124083236,-0.011038512,0.124179915,0.059633892,0.07825474,0.018085087,0.05387864,0.14556035,-0.03758708,-0.10595815,-0.09260115,-0.000118703945,0.029217677,0.12134339999999999,-0.11996077,0.11450787,-0.10174461,0.0508266,0.066291116,0.09582865,0.014910332,0.024325128999999997,-0.018267646000000002,-0.016416764,-0.08202955,-0.018689623,0.050295368
http://www.benchmark.org/family#F1M8,0.03312662,-0.10352764,-0.061308462,0.03255035,0.082924135,0.098692104,-0.1275598,-0.08168608,-0.11449148,-0.123310566,-0.012221063,-0.10461247,-0.040502947000000004,-0.19241329999999998,-0.08217246,0.024126092000000002,0.020655474,0.09041731,-0.07238415,0.07434173,0.008119686,0.008862409,0.072673164,-0.04074864,-0.07061209,-0.06755244,0.057880875,-0.016063196999999998,0.03618283,0.0077832863,-0.098540105,-0.13889344,0.058829382,0.043593402999999996,0.1016097,0.018211718999999998,-0.007819764,-0.07224965,-0.05297436,-0.09238006,0.08382726,0.07953454,-0.11169743,0.16588566,-0.04164536,-0.07160077,0.004414432,0.07145243,0.0044469240000000005,0.098502226,-0.013570325,0.09160962,0.094913825,-0.1414121,-0.08333899,-0.05603837,-0.03918609,0.21583861,0.048692383,-0.08352897,-0.034551524,-0.1025385,0.030802198,0.08265,-0.04592031,-0.04364108,0.12923093,-0.04685014,-0.025786525,0.0882544,-0.033042338,0.019205539,-0.0650969,0.12757345,0.02254639,0.13309535,0.13134217,0.089303955,0.029442882000000004,0.099408194,0.114508554,0.02174094,-0.04837337,-0.07785023,-0.0741658,0.10428558,0.13034035,-0.12349385,0.14300236,-0.08983725,0.07633893,0.05435844,0.11789659,0.09252955,-0.08405836,0.06280605,-0.012119336999999999,-0.10554324,-0.064352356,0.015300602
http://www.benchmark.org/family#F6M98,0.05950830000000001,-0.14022966,-0.064675495,0.044816464,0.07214965,0.11820179,-0.10385762,-0.10514526,-0.05406728400000001,-0.13561933,0.0011641975,-0.12697738,-0.008429728000000001,-0.16363493,-0.06459767,0.051365007000000004,0.0014004401,0.03304508,-0.029865462000000002,0.06753199,-0.06847874,0.018165778,0.028957486,-0.03928499,-0.0740181,-0.043202363,-0.006333989,0.018018400000000004,0.03648003,-0.032228157,-0.12578343,-0.07167848,0.06808865,0.073546425,0.09813293,-0.04365780599999999,-0.06854502,-0.08534,-0.00027402665,-0.09092,0.09039827,0.04281763,-0.07130583,0.15671279999999999,-0.0074529782999999995,-0.09657419,0.011172391,0.05568293,-0.04950713,0.08377176,-0.0065420265,0.08079861,0.075282164,-0.1291434,-0.06290468,-0.011336583999999999,-0.014843867,0.20478185,0.016160088,-0.038671482,-0.014529604,-0.11641454,0.06362202,0.09841811,0.06075513,-0.052855015,0.12289628,-0.053306606,-0.04421809,0.102351636,-0.08610673,-0.00051835197,-0.055324167,0.09560076,-0.008938408,0.077253185,0.056777075,0.11771485,0.016568245,0.12048985,0.084060624,-0.016554138,-0.054880899999999996,-0.10784132,-0.0057244240000000005,0.10276804,0.12762624,-0.10552832,0.103359066,-0.1413478,0.10049766,0.019200552,0.09046416,0.123004586,-0.0053643305,0.01754055,-0.0006027408999999999,-0.12848769,-0.02810295,0.023343189
http://www.benchmark.org/family#F2M9,0.064704284,-0.13891229,-0.09333493,0.05812512,0.08486966,0.06352526,-0.08399188,-0.12856339,-0.06056093,-0.115197755,0.04014193,-0.09304605,-0.017866038,-0.13312022,-0.058140356,-0.009391999,-0.025866963,0.059453372000000004,-0.046683975,0.08826557,-0.071046434,0.007396795,0.011692155,-0.027207261,-0.078106664,-0.08658259,0.042997575999999996,0.033122993999999996,0.049928743,0.04274152,-0.08861175,-0.11572419,0.06648134,0.09000331,0.12541308,-0.026534835,-0.07765166,-0.075884424,0.023005122000000003,-0.07519852,0.09122736,0.054305334000000004,-0.047516163,0.12073716,0.02708331,-0.058358595,0.15548147,0.103529125,0.005769805,0.12112927400000001,0.021173954,0.12633869,0.094829395,-0.12609594,-0.061441697,-0.031277314,-0.034547884,0.1155269,0.023366384,-0.061671983,-0.033570044,-0.13394293,0.039244457999999996,0.11817253,0.036847442,-0.03801767,0.11555079,-0.01974179,0.00423805,0.07037095,-0.035664786000000004,0.0055680190000000004,-0.015549321999999999,0.07147,-0.00850247,0.105484806,-0.0068703303000000005,0.11906691,0.02604798,0.09333453,0.10645511,0.014625812,-0.05190743,-0.1454961,-0.009332965,0.13693260000000002,0.11275886,-0.06888211,0.12009928,-0.10700287,0.10878133,0.071920864,0.09781782,0.13367805,-0.0074574640000000005,-0.016789969,0.03866284,-0.11893627,0.09467589,0.06730181
http://www.benchmark.org/family#F9M166,0.017275747,-0.09100697,-0.03973578,0.04810523,0.07441479,0.10898362,-0.104822814,-0.10158794,-0.030682351,-0.100974016,-0.0018126237,-0.12966861,-0.053193234000000006,-0.08154976,-0.03501894,-0.0063643553,-0.023915516,0.12564185,-0.07961933,0.12313066,-0.047714476,-0.01599691,0.036978763,-0.04948322,-0.11383621,-0.09542237,0.031939637,0.025411807,0.0034653846999999995,0.07330961,-0.12362585,-0.08034876,0.10276862,0.037747428,0.11814714,-0.01894709,0.040806677,-0.078592025,-0.0045792977,-0.08426528,0.07948738,0.055130325,0.004229059,0.18870696,-0.023921117000000002,-0.10293825,-0.05650466,0.06816207,-0.08407422,0.05277712,-0.038815014,0.08809533,0.0802092,-0.06865829,-0.061959125,-0.008291283,-0.056197785,0.13206448,0.05761571,-0.0659633,-0.09583734,-0.049196232,0.07190191,0.102667555,0.011357777,-0.066072285,0.09041669999999999,-0.07279326,-0.03363411,0.11013741,-0.13750738,0.0064347885,-0.0015690319000000001,0.13041544,-0.0052469909999999995,0.14693753,0.11517727400000001,0.044163294000000006,0.030742439,0.050889845999999996,0.16855183,-0.047395546,-0.096083924,-0.11331782,0.005003567,-0.0066506667,0.093313955,-0.13491696,0.08672372,-0.07253483,0.006834456,0.096800596,0.09616273,-0.013134382,-0.008317263,-0.0025371318,-0.030353425,-0.057338387000000005,-0.037985444,0.06443768
http://www.benchmark.org/family#F7M104,0.04090627,-0.08657928599999999,-0.072373405,0.03643645,0.07788399,0.10340978,-0.09912979,-0.12297289,-0.08853154,-0.11389159,-0.012843582,-0.11672262,-0.024415681,-0.013963169,0.015349743999999999,0.025032167999999997,0.0059225386999999996,0.124519035,-0.0793212,0.109357364,-0.07244561,-0.04482797,0.0145000415,-0.0462426,-0.14474106,-0.07729315,-0.025964614,0.04052467,0.046251558,0.018626234,-0.086462736,-0.093751095,0.13945308,0.07744979,0.10254883,0.00027359888,0.014879391,-0.083530374,0.024444707000000003,-0.08402675400000001,0.076518215,0.0031432156,0.0037164157,0.17170309,0.01246329,-0.09573730000000001,0.12714796,0.057650607,0.04303053,0.09231336,0.030121796,0.098719776,0.07280381,-0.1002969,-0.08470122,-0.0019189782999999999,-0.04522296,0.053685225999999996,0.036758244,-0.05196719599999999,-0.056976635,-0.08781536,0.067385264,0.09908204,0.046644267,-0.060949933,0.06673267,-0.031228957999999998,-0.025154278,0.11262234,-0.116043724,0.0062753222999999995,0.012556583999999999,0.109884135,0.0005814421,0.13107683,-0.02179397,0.09973745,0.026594407999999996,0.08317199,0.13725111,-0.008282325,-0.09059191,-0.06569002,-0.017232006,0.1805933,0.12865931,-0.10661459999999999,0.10102596,-0.084784,0.07535286,0.037365034,0.1224463,0.024633272,0.031146355,-0.019527018,0.012965883999999999,-0.11819672,-0.031797886000000004,0.0622071
http://www.benchmark.org/family#F2M16,0.052169118,-0.14734462,-0.047230907,0.04689467,0.079601824,0.08989811,-0.11864133,-0.12542404,-0.10551011,-0.1602471,0.020357996,-0.10203536,-0.018306479,-0.16941345,-0.10923048,0.019041184,-0.00031218573,0.049729555999999994,-0.034616812999999996,0.08472034,-0.050822873,0.023802197,0.017184325,-0.04284813,-0.09374854,-0.06979094,0.0039840746,-0.012631743999999999,0.032937206000000004,0.00040588476,-0.110624686,-0.06899251,0.0435027,0.08763268,0.11038243,-0.025396977,-0.07088959,-0.06214469,-0.0043085929999999995,-0.08043824,0.07755288,0.044816576,-0.06372092,0.1520726,0.0053497613,-0.090580195,-0.017849468,0.057024464000000004,-0.017538996,0.10759883,-0.028391013,0.12548354,0.08550588,-0.12098403,-0.04421922,-0.023944023999999998,-0.036415499999999996,0.1641513,0.013547928999999998,-0.044745117,-0.03816477,-0.11256742,0.05436822,0.094454676,0.05580315,-0.05798608400000001,0.13754370000000002,-0.067814186,-0.03206704,0.104135774,-0.055271062999999995,-8.57578e-05,-0.03540391,0.09964997,-0.002479836,0.09839785,0.07689432,0.09356902,0.017461246,0.13032739999999998,0.1021193,-0.02396435,-0.0633101,-0.11159188,-0.014872876,0.11104489,0.090045124,-0.08036043,0.11545399,-0.12700081,0.11496502,0.053576034,0.07891013,0.14896274,-0.015474473999999998,0.012787735,-0.010704091,-0.11146318,-0.03662357,0.03370269
http://www.benchmark.org/family#F7M102,0.061706185,-0.13403359,-0.07522099,0.045034795999999995,0.06117802,0.11968764,-0.11277417,-0.10244523,-0.06587075,-0.13698769,0.007168380500000001,-0.12202411,-0.025084593999999998,-0.11174939999999998,-0.06839491,0.03521301,-0.015051606,0.07943529,-0.058491394,0.08009404,-0.04393863,-0.03998404,0.02717702,-0.046394788,-0.08391133,-0.077204116,0.0011150014,0.03912742,0.047641706,-0.026767375,-0.12074857,-0.08280804,0.088050075,0.08084753,0.09780261,-0.04649831,-0.10983126,-0.0837826,-0.002343494,-0.07921015,0.0773838,0.07616299,-0.047830055999999996,0.11640023,0.032668132,-0.08977604,0.10482932,0.066531256,0.03217109,0.11129758,0.0644346,0.13184409,0.07977345599999999,-0.1236058,-0.05417754,-0.029140366,-0.03199569,0.13947852,0.020947699,-0.056592233,-0.02002173,-0.119753204,0.058169648,0.089579225,0.029088804,-0.03967305,0.13227974,-0.050787408,-0.02478302,0.11094505,-0.056474455,0.029664781,-0.024791356,0.10883506400000001,-0.01500025,0.10162096,-0.024995012,0.09706322,0.018442576999999998,0.11049417,0.12770817,-0.01817698,-0.07961207,-0.086984664,-0.016222423,0.101814196,0.08300701,-0.069703266,0.13998128,-0.10907686,0.08578444,0.06746955,0.09078445,0.124907225,-0.0074434383,0.012394368000000001,-0.008380744,-0.11996875,0.035787772,0.046269882000000005
http://www.benchmark.org/family#F2M21,0.037525732,-0.07880846400000001,-0.04161326,0.07762059,0.056330316,0.11587686,-0.119859874,-0.10611955,-0.11028796,-0.08828330000000001,0.036582496,-0.1472697,-0.015133198,0.0110661145,0.060815845,0.024832059,0.0084917415,0.10402525,-0.098023124,0.07283067,-0.07242079,-0.040875338,0.0075698793,-0.03745229,-0.1355603,-0.085790105,-0.027859252,0.042213417999999996,0.03950351,-0.036083907,-0.11439819,-0.08236439999999999,0.13317485,0.09304395,0.105947286,-0.0153511595,0.03973247,-0.06242252,0.007416572,-0.09985115,0.096885055,0.081211954,-0.030072272,0.1570557,0.022506692000000002,-0.08795733,0.0341227,0.07838095,0.0051235690000000006,0.072298855,0.031179718999999998,0.11669581,0.06726242,-0.08539731,-0.05795352,-0.015069458,-0.012302262,0.06636752,0.028116832,-0.045610566,-0.03600203,-0.104435235,0.07876233,0.09139637,0.04371272,-0.050447505,0.11105444,-0.016174797,-0.03633689,0.07204245,-0.07453225599999999,0.01095218,-0.037207324,0.12124187,-0.0040135225,0.13572077,-0.014531511,0.10588589999999999,0.025947334,0.061856233,0.09550757,-0.028786015,-0.08194606,-0.12904307,0.0056028347,0.12332779,0.12732770000000002,-0.11529616,0.10967645,-0.11620266,0.07001705,0.07967701,0.11778932,0.0042747770000000004,0.07483839,-0.0073064496,-0.010791696000000002,-0.111744985,-0.08406467,0.055196315
http://www.benchmark.org/family#F7M107,0.06695601,-0.13596392,-0.09105274,0.054393813,0.055772696,0.10938849,-0.14937273,-0.12677841,-0.060062702999999995,-0.060192384,-0.0015966156,-0.09129874,-0.02429599,-0.13639174,-0.062789544,0.028290132000000003,-0.00762933,0.06281683,-0.082200356,0.10493485,-0.079638585,-0.007946633,0.029233104,-0.039004582999999995,-0.11262954,-0.094442174,0.008352378,0.03950562,0.050372966,0.0021830746,-0.11550667,-0.103514805,0.06508699,0.0792812,0.09130495,-0.033717908,-0.0736947,-0.08376096,0.005936568000000001,-0.08335824,0.07185901,0.023892082000000002,-0.059906296,0.107544765,0.02718733,-0.06004930000000001,0.054293085,0.07127933,0.03042653,0.11961689999999998,0.026956532000000002,0.11858042,0.09169314,-0.12727216,-0.04561083,-0.028997732000000002,-0.030149067,0.13001369,0.018699415,-0.04623154,-0.027436225,-0.11682205,0.062762514,0.079371125,0.0029045683000000003,-0.053703252,0.09718953,-0.04576086,-0.03155253,0.10237162,-0.03955744,0.022046495,-0.06701960400000001,0.05153749,-0.023371162,0.11383889999999999,-0.033344257999999995,0.112979494,0.02310525,0.0976934,0.11139717,-0.0050510536,-0.07348047,-0.12105563,0.008263656999999999,0.13883509,0.10841018,-0.062055025,0.13223435,-0.12543984,0.07091408,0.056590035999999996,0.08881623,0.15868802,-0.010152501999999999,0.03354039,-0.00936759,-0.10580029,0.017320182,0.036824886
http://www.benchmark.org/family#F7M110,0.026793001,-0.07394972400000001,-0.055614172999999996,0.065938324,0.05624755,0.104257315,-0.1368675,-0.11752121,-0.08894567,-0.14108567,0.014084537,-0.1445129,-0.0017355935,-0.024514655,0.01305072,0.016059978,0.0014313684,0.080828086,-0.112634964,0.08209803,-0.07449605,-0.0105547765,0.024174543,-0.03971664,-0.111941405,-0.08053767,-0.04028568,0.012757468999999999,0.038461566,-0.038570285,-0.11791704,-0.069585174,0.11347239999999999,0.09082521,0.10138865,-0.016111275,0.057513084000000006,-0.10084495,-0.013153514,-0.114599474,0.08857266,0.066358805,-0.013918325,0.19838771,-0.01787241,-0.10071897,-0.02478641,0.049053825,-0.021186924,0.08005285,-0.025544668,0.10695566,0.07281415,-0.04803629,-0.06147265,-0.01248103,-0.03364201,0.114547774,0.009616526,-0.031685873999999996,-0.03798801,-0.09171603,0.089716904,0.06811066,0.08389288,-0.072144866,0.10418205,-0.014599813,-0.002374592,0.077559344,-0.10110574,-0.00025179237,-0.026043214,0.12637734,0.0016919798000000002,0.13357162,0.05236112,0.10543050000000001,0.025950145,0.060448293,0.12995072,-0.025772648,-0.06277007,-0.13247429,-0.006406293,0.11864445,0.0821586,-0.1242526,0.12582594,-0.09480341,0.07843199,0.064062476,0.103504725,0.018071745,0.033756163,-0.019159023,0.019881397,-0.07461979,-0.120153025,0.040768806
