,0,1,2,3,4,5,6,7,8,9,10,11,12,13,14,15,16,17,18,19,20,21,22,23,24,25,26,27,28,29,30,31,32,33,34,35,36,37,38,39
family,-0.51008195,-0.14501552,-0.009556714,-0.07878793,-0.019205697,-0.010803416,0.34900755,0.20999144,-0.08803841,0.1168677,-0.24104448,0.059067212,0.0068749115,0.05368349,0.33630732,0.28091368,-0.056268312,-0.09897854,-0.58713865,0.1344185,-0.22021572,-0.23475352,-0.07915711,0.016536541,-0.47232056,0.25574324,0.015703615,-0.40388986,-0.35968795,-0.07564171,-0.43935162,0.28035665,0.4693581,0.08396195,-0.110305205,-0.29629505,-0.07161218,0.038979303,0.45310584,-0.14891483
family#Brother,-0.6315106,-0.24089763,-0.25070003,-0.36237118,-0.040183313,0.015461617,0.14132454,0.32597864,-0.33581722,0.45222017,-0.08968249,0.118891805,0.13479786,-0.107817404,0.38114095,0.16575028,-0.15422574,-0.064343765,-0.3669071,0.4195458,0.24412756,0.2376717,-0.2758258,0.11305482,-0.24102896,0.5634236,0.15395299,-0.28798288,-0.09440641,0.016992316,-0.30725303,0.31075442,0.059857506,0.32862335,-0.105266415,-0.23440906,-0.47625288,0.08818889,0.43863514,-0.34293595
family#Child,-0.54244184,-0.2964094,0.08252669,-0.27464402,-0.0060115093,0.07839827,0.18003654,0.44466674,0.04387635,0.31379175,0.12295506,0.17031197,0.07869031,0.055264864,0.28678316,0.26775736,-0.034782913,0.017223345,-0.43741342,0.31117162,-0.32929745,-0.06499071,0.05786763,-0.12546398,-0.6470509,-0.032654032,0.1542353,-0.3402684,-0.44173893,-0.0021460585,0.021881416,0.18114269,0.13298517,0.0139136575,-0.07751306,-0.27380955,-0.15021804,0.10670583,0.41618732,-0.5467671
family#Daughter,-0.5079774,-0.48008654,0.3550153,-0.25287908,-0.054749288,0.08334452,0.2682329,0.03424997,-0.2657793,0.3770006,-0.1535022,0.17250262,0.07522917,0.018969266,0.5976024,0.17016973,-0.062577836,-0.178195,-0.74178696,0.62582827,0.17299561,-0.7505497,0.490225,-0.08149294,-0.19435847,0.204999,0.20083968,0.15738001,-0.112482935,-0.15319428,-0.4346622,0.15833762,0.05346514,-0.056370817,-0.07079465,-0.387119,0.017064841,0.11430017,0.38566595,-0.4246185
family#F10F172,-0.3465031,-0.025177546,0.056965273,-0.3813693,0.040770136,0.5995104,-0.13652399,0.23572125,-0.04018331,0.54522943,-0.35018352,-0.29470965,-0.2920617,-0.286822,0.25500637,0.13358133,-0.21580565,-0.35534215,-0.035607193,0.18796667,-0.256665,-0.031201402,-0.06376587,-0.11290716,-0.36658534,0.31781048,0.18851349,-0.04583913,-0.16713436,-0.51044095,-0.2727436,0.30980918,0.31031805,-0.10274772,-0.29861453,-0.49771836,-0.021591386,0.238793,0.062245626,0.19800079
family#F10F174,-0.32568613,0.023584094,0.009641268,-0.36141238,-0.011634642,0.5315404,-0.15129872,0.2619874,-0.0644101,0.34662786,-0.41387647,-0.13567151,-0.20886669,-0.2998431,0.3961326,0.1799422,-0.3242995,-0.08403927,-0.16670439,0.17159326,-0.22290464,-0.087994084,-0.045652494,-0.21119705,-0.36477464,0.3036869,0.1080074,-0.07140589,-0.25141534,0.038384303,-0.1627996,-0.007652331,0.39944518,0.28285944,-0.1665266,-0.31836972,-0.1170042,-0.29281405,0.27578494,-0.28571752
family#F10F175,-0.123563126,0.35251096,0.13516822,-0.22722557,-0.06671314,0.22023435,0.08472128,0.17336889,-0.23336262,0.15431991,-0.31333527,0.23820657,-0.16416426,-0.03838695,0.3711118,0.27048445,-0.13393453,0.3502767,-0.14682505,0.19964364,-0.4108026,-0.20234016,-0.042127464,-0.11313506,-0.33521676,0.55233485,0.058172107,-0.26163292,-0.22276075,0.012881009,-0.008507899,-0.06225194,0.23908794,0.39371264,-0.19406962,-0.26632363,0.009772638,-0.011144002,0.4392806,-0.43283212
family#F10F177,-0.18081972,0.39644176,0.12422373,-0.27249756,-0.061984014,0.11460653,0.06244498,0.1435036,0.009176496,0.14900275,0.045583475,0.27114782,-0.14868613,0.034157667,0.3038584,0.26094294,-0.15333371,0.3487036,-0.20404193,0.1270098,-0.32082468,-0.22624743,-0.09117047,-0.12514193,-0.3358653,0.54268986,0.010637252,-0.3109231,-0.533015,0.0020851789,-0.25016588,-0.061209373,0.2595777,0.3976708,-0.043476943,-0.28709146,0.038069602,-0.02009205,0.33594593,-0.43889114
family#F10F179,-0.26993132,0.27791357,0.080678426,-0.13285682,-0.066721864,0.27146664,0.19460139,0.31113964,-0.14374177,0.78471214,0.19306822,0.15804748,-0.25518277,0.016421596,0.33005688,0.32652998,-0.36488527,-0.1897951,-0.30477756,0.098396674,-0.34285817,-0.023790468,-0.08540748,0.03893836,-0.37533528,0.58391094,-0.13083823,-0.2569569,-0.28252757,-0.09589648,-0.19289933,-0.20168293,0.19913813,-0.042926382,-0.27265716,-0.320316,-0.037949353,-0.3497046,0.04233443,-0.25191164
family#F10F181,-0.18413472,0.29444638,0.07109207,-0.18245408,-0.012341056,-0.15472229,0.15675691,0.3848738,-0.073106945,0.7116725,0.04652691,0.049281888,-0.2558101,-0.1764821,0.3909347,0.17222366,-0.17989567,-0.24232168,0.082116246,0.10954087,-0.40709215,-0.38141558,-0.099127516,0.06832069,-0.29914582,0.50606996,-0.20500374,-0.2710213,-0.34417722,-0.22750033,-0.20158556,-0.1763893,0.22837418,-0.21696848,0.30752334,-0.4242251,0.01869674,-0.25156975,0.19541661,-0.27495095
family#F10F185,-0.4477991,0.14774683,-0.02133509,-0.3656406,0.010177428,0.074035086,0.13505895,0.24766237,-0.10838734,0.23500691,-0.2932792,0.15534565,-0.2930539,-0.12147468,0.18961212,0.14988196,-0.26628175,0.043132227,-0.11529037,0.2207639,-0.2130024,-0.051057745,-0.0031846443,-0.16517025,-0.23784745,0.13148968,0.035621814,-0.03743296,-0.32672164,-0.1383658,-0.14293425,0.06278365,0.38936043,-0.057189062,-0.027422616,-0.36648953,-0.12244649,-0.06859551,0.35679066,-0.31420016
family#F10F186,-0.26779342,0.07017888,0.1589532,-0.21784598,-0.14108728,-0.006242583,-0.08442132,0.46072704,0.037739396,0.64317834,-0.15550704,0.27735284,-0.23068762,-0.30772376,0.25229052,0.20570992,-0.25836912,0.11897821,0.056928873,-0.010593977,-0.4052549,-0.19499956,-0.09103903,0.06967327,-0.3338694,0.49366835,-0.11684433,-0.29803827,-0.27052024,-0.44357136,-0.096529074,-0.18273984,0.24001618,-0.2940516,-0.2488581,-0.3433975,-0.075264834,-0.40539116,0.07944351,-0.16289043
family#F10F189,-0.2998443,0.017657444,-0.003964042,-0.35617086,-0.022572782,0.4886313,0.060605776,0.3576853,-0.06787491,0.3262991,-0.43029758,0.30411318,-0.2545831,-0.24908882,-0.08556756,0.28878903,-0.25450945,0.07088517,-0.045911137,0.14381532,-0.20319752,-0.080741,0.012014328,-0.13305171,-0.34162828,0.25603974,0.08722048,0.021420524,-0.17263845,-0.16082191,-0.21386346,0.24293597,0.17353313,-0.14415757,-0.05116009,-0.26490358,-0.11551773,0.35669723,0.3571274,0.046573676
family#F10F191,-0.30467433,0.12768053,-0.033710774,-0.3848557,0.03028591,0.15870878,0.18159486,0.16962664,-0.117657684,0.16291463,-0.55405384,0.14784504,-0.24571575,-0.092048325,-0.08731516,0.2754609,-0.32536498,-0.054050237,-0.2200209,0.19056772,-0.22563452,-0.056325972,-0.01052886,-0.20039383,-0.36933598,0.15151452,0.1858231,-0.060187925,-0.39152402,-0.18590686,-0.14040987,0.31402716,0.27306125,0.0070770355,0.017064627,-0.2904573,-0.039778028,-0.0030491294,0.36672333,0.055263124
family#F10F192,-0.14293596,0.3399418,0.04484721,-0.1939157,-0.09151738,0.31383064,0.04706243,0.2829751,-0.21891117,0.66668105,-0.098100536,0.3358932,-0.09704569,-0.0024737793,0.43281046,0.26961172,-0.17596167,0.34693673,0.1078618,0.13336839,-0.3842233,-0.18224394,-0.1326982,-0.056562684,-0.23030847,0.19143905,-0.15738662,-0.2722954,-0.39358923,-0.16272576,-0.17070557,0.31023765,0.27424702,-0.18559754,-0.025482576,-0.30509877,0.1009993,0.508184,0.26826203,-0.29225838
family#F10F193,-0.14317448,0.300596,0.014038862,-0.25283065,-0.1283097,0.14585671,0.033451047,0.23169401,-0.24237172,0.65256226,-0.22781971,0.3629231,-0.20249599,0.00020330264,0.35702777,0.32755673,-0.23547582,0.28726846,0.08837121,0.14364715,-0.32565877,-0.2101018,-0.14022891,0.03187454,-0.3008618,0.14677496,-0.112619266,-0.27756783,-0.2668133,-0.118158184,-0.076746844,0.29392496,0.24459255,-0.20732833,-0.13854684,-0.32985774,0.0021458543,0.50702834,0.35156426,-0.10888319
family#F10F195,-0.36685824,0.16291176,0.18078975,-0.13087985,-0.072113395,0.3915263,0.12949081,0.40650612,-0.02329968,0.6950343,0.013918477,0.1052557,-0.21779011,-0.20650692,0.39747685,0.4083994,-0.25500548,-0.2678335,0.06858222,0.020718416,-0.22627091,-0.1975589,-0.049710702,-0.0147156045,-0.41211808,0.57552904,-0.08037033,-0.27922383,-0.25454396,-0.21380205,-0.15337153,-0.18988185,0.13543782,0.009591049,0.20451728,-0.27908483,-0.08586373,-0.26613134,0.12709129,-0.017490303
family#F10F198,-0.28296676,0.07340274,-0.010027099,-0.36063123,0.17293514,-0.18742506,-0.025201682,0.29487813,-0.052882228,0.3808573,-0.28800973,0.36618403,-0.25039485,-0.2277608,0.11972116,0.23742081,-0.21198757,-0.15065067,-0.039992385,0.16803999,-0.39847064,-0.119705066,0.015398365,-0.22289087,-0.45112047,0.15881097,0.18830484,-0.04519118,-0.22615984,-0.37167853,-0.24021854,0.18524155,0.23557355,0.14209826,-0.09105712,-0.21344721,-0.098956525,-0.3403006,0.24958669,-0.10852276
family#F10F200,-0.3449643,0.08619044,-0.023019513,-0.37977976,-0.006282736,0.07827395,0.08201016,0.22387905,-0.18023108,0.2563446,0.10726708,0.28515962,-0.16043046,-0.12035445,0.37270042,0.25832462,-0.19041952,0.17822458,-0.21293715,0.15068428,-0.18133447,0.007867301,0.037173294,-0.11367993,-0.3445478,0.025404457,0.17581905,-0.14304744,-0.2431151,-0.26150605,-0.51059985,0.32787037,0.4071074,-0.03650158,-0.26425225,-0.24115409,-0.085334286,-0.03102783,0.2707667,-0.11925416
family#F10F201,-0.049508598,0.27060637,0.11459197,-0.14710511,0.028790602,0.29256493,0.1501424,0.112258345,-0.20017079,0.47988442,-0.17822327,0.2972098,-0.036157656,0.0038154004,0.46819463,0.116704695,-0.253417,0.4256941,-0.1131551,0.112204835,-0.5075581,-0.20419736,-0.23404373,-0.042026784,-0.38751137,-0.018094435,0.009870646,-0.18861654,-0.19691728,-0.10500453,-0.19856575,0.39131716,0.29151076,0.15968907,-0.14647235,-0.4011304,-0.028443407,-0.04697868,0.2891216,-0.35602278
family#F10M171,-0.37247807,-0.18529344,-0.2266062,-0.37686345,-0.004838966,0.50310344,-0.04985034,0.22448568,0.07471808,0.52036035,-0.017419206,-0.32890236,-0.2617216,0.13905606,0.19774817,0.07038758,-0.20684029,-0.32408372,0.090709366,0.08217589,-0.23304401,-0.07831284,0.13637738,-0.19645187,-0.36004746,0.3755021,0.06890287,-0.13318239,-0.33750507,-0.5851065,-0.32115057,0.33265185,0.40581602,-0.071286894,0.099004194,-0.48855725,-0.056541286,0.26647615,0.11958706,0.10505891
family#F10M173,-0.19265755,-0.08609676,-0.31060213,-0.16106056,0.022120481,0.5299711,0.008057403,0.23118524,-0.020457497,0.57092565,0.132602,-0.06347822,-0.2711816,0.24898876,0.30091482,0.23312975,-0.44051334,-0.19223566,0.026079755,0.0129881445,-0.3071879,-0.18741623,0.19775793,0.00916329,-0.33381855,0.56070524,-0.127846,-0.2504552,-0.33789435,-0.03252509,-0.198108,-0.15223984,0.17243196,0.23718515,-0.17668873,-0.35100758,0.1372194,-0.37008634,0.20506784,-0.3631581
family#F10M176,-0.47363782,0.0695663,-0.30522734,-0.36074975,-0.078131065,0.174907,0.15326187,0.16543956,-0.06719849,0.14414759,0.03104404,0.13475893,-0.23019215,-0.02447872,0.26667234,0.13442427,-0.36248788,0.08412777,-0.22774462,0.18467627,-0.20398106,-0.045180127,0.2288187,-0.17424528,-0.3291862,0.2842999,0.06940798,-0.08873454,-0.38426557,-0.06562476,-0.26795715,-0.010502921,0.39948538,0.014127638,-0.03161408,-0.2464787,-0.063299105,0.017902257,0.27844712,-0.37819096
family#F10M178,-0.32324362,0.058653228,-0.3200009,-0.35016614,-0.01897393,0.12498886,0.150249,0.18319714,-0.24177228,0.19021834,-0.43880898,0.10775886,-0.23682398,-0.05983998,0.430723,0.17253871,-0.34120613,0.08467932,-0.1362136,0.28990203,-0.242641,0.0022958098,0.29025158,-0.19501178,-0.32422253,0.2039241,0.024472035,-0.09251455,-0.14294186,-0.0747252,-0.12330569,0.015770132,0.3895643,0.014790365,-0.16532627,-0.21282117,-0.098983034,0.028796261,0.3259175,-0.34721985
family#F10M180,-0.32405978,0.06542169,-0.28961372,-0.31339294,-0.028453678,0.20149408,0.12612227,0.22627595,-0.031812046,0.37452453,-0.5553122,0.12823936,-0.1804716,-0.042931028,0.2186708,0.23512197,-0.3645569,-0.042369135,-0.3204151,0.14176933,-0.25537694,-0.062202252,0.24041456,-0.2565835,-0.3274072,0.2871401,0.08255623,-0.13669673,-0.32743832,-0.16240571,-0.09610423,-0.09759254,0.29525504,-0.01509074,0.09111318,-0.26542592,-0.10950721,-0.0070056776,0.3468141,-0.06724645
family#F10M182,-0.29535773,0.015480939,-0.23623061,-0.3406974,-0.058137443,-0.09776318,0.05581768,0.34218714,-0.025558287,0.4126742,-0.3279831,-0.033048254,-0.21464977,0.22534738,0.1794653,0.058825474,-0.2501954,-0.28028554,-0.17893869,0.18134378,-0.31518695,0.0901161,0.18615799,-0.15062821,-0.24982871,0.15495679,0.07662544,-0.16853906,-0.24398248,-0.15508713,-0.17100589,-0.02153957,0.38622364,-0.31788072,-0.23516996,-0.44162047,-0.1380382,-0.023774272,0.24707714,-0.24192107
family#F10M183,-0.09579737,0.10534166,-0.37086964,-0.15241572,-0.17488785,0.32873392,0.27147865,0.30038044,-0.21523571,0.28157446,-0.24655697,0.26411688,-0.2001711,0.05198327,0.14080438,0.2682718,-0.31897974,0.0687561,-0.07076855,0.18157507,-0.39460027,-0.18389945,-0.025202932,-0.06626277,-0.24863175,-0.016710667,-0.11094855,-0.4370214,-0.3875083,-0.045303944,-0.16046816,0.04799887,0.09911466,-0.28001967,-0.24871428,-0.38596904,0.26714098,-0.24431695,0.3692106,-0.37602738
family#F10M184,-0.056198567,0.042319443,-0.3433635,-0.19841775,-0.19965564,0.22201617,0.1717123,0.21383104,-0.21535891,0.29978436,-0.08608199,0.22754443,-0.09006343,0.0775429,0.2632192,0.23545471,-0.386892,0.06804042,-0.13771197,0.21763813,-0.38839015,-0.26662016,0.01645329,-0.0431208,-0.33202395,-0.0073630037,-0.0810072,-0.24577577,-0.30449262,0.0126792565,-0.28619075,0.04419529,0.23024853,-0.37479326,-0.23406294,-0.39200398,0.3089302,-0.25077692,0.33569205,-0.3473966
family#F10M187,-0.35994044,-0.17362398,-0.29749513,-0.33159268,-0.107874975,0.027538627,-0.17138934,0.40968785,0.067198135,0.52076685,-0.20833994,0.24063404,-0.27483085,0.22436552,0.18771867,0.17593691,-0.297174,0.39019957,0.0392777,0.03774116,-0.39784795,-0.13780114,0.21228012,-0.2400344,-0.2758559,0.24412386,0.1387859,-0.13273205,-0.27476564,-0.37348396,-0.33105937,0.020561809,0.29896972,-0.21051583,-0.08661623,-0.34588987,-0.101495914,-0.27785036,0.12632492,0.062449917
family#F10M188,-0.15540674,0.05362675,-0.3607313,-0.21520701,-0.13219717,0.4730788,0.011660449,0.30742097,8.91707e-05,0.5815458,0.109678395,0.30763704,-0.25406548,0.24446408,0.25199485,0.2679993,-0.277382,0.3142192,-0.31736597,0.07087176,-0.38747987,-0.16338506,0.20059691,-0.085371524,-0.32536763,0.20304428,-0.15043892,-0.17641908,-0.39457092,-0.023013817,-0.19090526,0.3014189,0.095148996,-0.2249743,-0.22777165,-0.2861642,0.24121337,0.5426895,0.09988874,-0.005840151
family#F10M190,-0.37478286,0.26452184,-0.294706,-0.25033966,-0.15759842,0.06407171,0.28892586,0.15197827,-0.25537267,0.17988123,0.23751798,0.3220079,-0.02458685,-0.003709555,0.5026306,0.14500472,-0.29152802,-0.381714,-0.27297008,0.10717551,-0.40500778,-0.16328965,0.15462193,-0.07072471,-0.36444896,0.49989015,-0.004619289,-0.085418314,-0.35289732,-0.03468507,-0.21810043,0.34775883,0.06562904,-0.103351854,-0.31007984,-0.14394264,0.13170347,0.1405387,0.27991107,0.015337707
family#F10M194,-0.4073801,0.06682537,-0.26199728,-0.30469415,-0.005775518,0.082706414,0.14305954,0.2876195,-0.120224684,0.32583594,-0.06439881,0.16813469,-0.20619959,-0.03324157,0.16942243,0.18755525,-0.3654164,0.03724637,-0.36731815,0.11893257,-0.20855464,-0.033301666,0.23254405,-0.33530188,-0.23272258,0.1405271,0.04727031,-0.15361845,-0.4037484,-0.13918036,-0.19009128,0.29430562,0.26183248,0.031991724,-0.166668,-0.17298162,-0.08575637,0.19013876,0.27176967,-0.087897345
family#F10M196,-0.33081114,-0.087598495,-0.18921776,-0.4023163,0.019269489,0.38982758,0.03776636,0.29615146,-0.036367968,0.36716494,-0.35927972,0.03136217,-0.25131342,0.2085955,0.28260237,0.27990034,-0.112485476,-0.2358888,0.028097603,0.042800784,-0.26331976,-0.17173661,0.20172717,-0.2985869,-0.4062529,0.34152913,0.13845964,-0.14387684,-0.23104207,-0.25074324,-0.22813135,-0.069259755,0.25813773,0.27337417,-0.16352484,-0.09689155,-0.2099309,0.08165915,0.13677992,0.105186835
family#F10M197,-0.42701396,0.11817623,-0.3152613,-0.3165848,0.029330038,-0.21900816,0.13693255,0.14591934,0.024782889,0.40091938,-0.08315377,0.29770696,-0.14200811,0.16588585,0.10093649,0.06546689,-0.29486075,-0.07265685,-0.021652466,0.005724675,-0.41117394,-0.14645687,0.24405387,-0.14250438,-0.40146017,0.409762,0.067135245,-0.21416686,-0.36451194,-0.27369636,-0.11963985,0.14252797,0.084099166,0.20651256,-0.19087674,-0.09313512,0.17677307,-0.34674978,0.18650343,-0.11970085
family#F10M199,-0.11860287,0.11514765,-0.34027708,-0.123567626,0.008497365,0.13538548,0.22177292,0.18086606,-0.072891265,0.42434895,-0.5390996,0.27350414,-0.11890376,-0.027560325,0.28459653,0.11875409,-0.38682446,0.4490443,-0.057251826,0.060064055,-0.46229005,-0.2152572,0.2656647,-0.085345075,-0.36821514,-0.087653525,-0.059761286,-0.19013824,-0.391194,-0.10042052,0.10427338,0.41541559,0.018369865,0.20390283,-0.0744378,-0.24660085,0.19521545,-0.07542383,0.3686595,-0.17699231
family#F10M202,-0.24465851,0.011052821,-0.23393334,-0.40793806,-0.01699796,0.10214335,0.12354222,0.07328272,-0.11858802,0.33095235,-0.14717998,0.14034449,-0.25377718,-0.004268247,0.053384684,0.056668285,-0.30355456,0.025852378,-0.22094026,0.27400288,-0.24652226,-0.011927261,0.24233702,-0.17152062,-0.35231614,0.16482966,0.035658777,-0.091872446,-0.36647195,-0.14350204,-0.11488201,0.30912146,0.3780011,0.05322223,-0.11826343,-0.3481806,-0.012703211,0.027212841,0.32490572,-0.28099382
family#F1F2,-0.31914023,-0.014076116,0.08198575,-0.26472765,0.16723959,0.2178554,0.37822503,0.20909904,-0.027583128,0.24210058,-0.3126998,0.02331236,-0.15090191,-0.30099773,-0.0918436,0.20976284,-0.27584362,-0.26192567,0.0030326894,0.07598041,-0.1738678,-0.10298278,-0.010562109,-0.1517345,-0.4435507,0.2587044,0.27674353,0.07491631,-0.3888939,-0.14846216,-0.17975399,0.43468034,0.5497742,-0.19201724,-0.13141084,-0.06493143,-0.05348891,0.27952135,0.07747024,-0.011247552
family#F1F3,-0.43823972,0.22228485,0.053873867,-0.36429772,0.06166057,0.043997735,0.38073632,-0.0052485173,-0.17433465,0.24019277,-0.28306457,-0.21275464,-0.19028518,-0.124453634,0.46923783,-0.026878452,-0.3260346,-0.37619126,0.042451523,0.1446933,-0.3380519,-0.06423046,-0.12759988,0.0065337666,-0.46463066,0.28192595,0.26471028,-0.086808614,-0.13910931,-0.13271804,-0.10795547,0.16310333,0.32374808,-0.21437304,-0.22871831,-0.13658257,-0.043533083,-0.42704526,0.25175822,-0.25531483
family#F1F5,-0.104835205,0.35463342,0.11077516,-0.07712945,0.11747026,0.11342563,0.3852604,0.09782624,0.059208922,0.16888553,-0.042163603,0.10256751,-0.32150692,0.03153458,0.27351728,0.0841126,-0.16595562,0.5155675,-0.096338026,0.22753386,-0.4918846,-0.440251,-0.13162474,-0.042716984,-0.39436466,0.087637864,0.2457532,-0.11631794,-0.5406914,-0.09971115,-0.24331036,-0.09099031,0.27995247,-0.15250766,-0.27114856,-0.6208458,-0.055494145,-0.22651047,0.286539,-0.30270565
family#F1F7,-0.10172738,0.35663065,0.06017974,-0.09171202,0.0033260533,0.14077382,0.37173268,0.18235636,-0.34225756,0.21927601,-0.43588686,0.21221612,-0.17081295,0.0006800517,0.37521917,0.018876426,-0.11011596,0.49937966,-0.09377053,0.30290565,-0.51074713,-0.29896203,-0.04002499,0.08274784,-0.42923704,0.11730143,0.28341812,-0.24462874,-0.01362622,-0.16955392,-0.17858867,-0.092365,0.3358089,-0.16809261,-0.17213221,-0.67286533,-0.043249644,-0.23470303,0.34958205,-0.28788963
family#F1M1,-0.46463498,-0.05861528,-0.21052957,-0.3900625,0.018388096,0.24601556,0.31163892,0.2797364,-0.038716473,0.20416453,-0.100564525,0.03825787,-0.20424116,0.24770613,0.00973391,0.2353978,-0.17687868,-0.29126504,-0.031980876,0.07619025,-0.22735791,-0.04149293,0.114870004,-0.12231629,-0.5173553,0.26663563,0.32364056,0.02027192,-0.20879963,-0.16653891,-0.23590782,0.38201013,0.38253447,-0.09196914,-0.119047984,-0.062337264,-0.07288156,0.254215,0.08144845,0.015463302
family#F1M4,-0.5257473,-0.00034194355,-0.23341665,-0.45192567,0.0994266,0.038857084,0.3257634,0.05732463,-0.09797054,0.22554603,-0.03926292,-0.17133664,-0.10710648,0.17697428,0.0038578014,0.085947886,-0.47905183,-0.25062788,0.10688012,0.15690051,-0.27765235,-0.018444227,0.18278487,-0.28367892,-0.40872598,0.15321243,0.33813566,0.040450387,-0.40825784,-0.0925861,-0.24125783,0.19227153,0.37010932,-0.07547509,-0.009904784,-0.18107463,-0.04903504,-0.34571487,0.2328985,-0.17860626
family#F1M6,-0.40041414,0.10560803,-0.29470646,-0.4158873,-0.07046861,0.047515675,0.16331755,0.06932836,-0.32084978,0.19512485,-0.27522478,0.1218414,-0.19961989,-0.014513294,0.29634807,0.1331582,-0.30798483,0.089121275,-0.17019163,0.29863185,-0.26056716,-0.06409913,0.25074846,-0.051889457,-0.40678662,0.1397834,0.3356247,-0.05559849,-0.094901256,-0.1033061,-0.20646638,-0.019886624,0.43256196,-0.026533853,-0.03857863,-0.35268614,-0.059243035,-0.019608436,0.24998215,-0.29565886
family#F1M8,-0.3949224,0.052373983,-0.27624902,-0.39551443,-0.012991694,0.05250649,0.32891107,0.14895508,0.061465826,0.23058008,0.14112915,0.08013295,-0.24486667,-0.029360171,0.08988301,0.16762225,-0.33494186,0.032764863,-0.11614965,0.28966123,-0.20664953,0.066117175,0.2474117,-0.17388825,-0.36223876,0.098045185,0.20561482,-0.11680193,-0.60991925,-0.0626211,-0.26841673,-0.044872805,0.36763725,-0.067724116,-0.08323264,-0.3724325,-0.07552007,0.008671533,0.27471882,-0.32477093
family#F2F10,-0.4446137,-0.039375436,0.07967939,-0.36231524,0.097618744,-0.045201004,-0.014345798,0.50800943,0.05225317,0.4361851,-0.31491733,-0.15968567,-0.32401025,-0.4194636,0.31967008,0.40719175,-0.22778367,0.12603499,-0.20115784,0.019802118,-0.1753172,-0.12254313,-0.08877741,-0.11994649,-0.3826332,0.09880962,0.055759843,-0.39188695,-0.31932077,-0.4496133,-0.121098384,0.43041402,0.4001521,-0.1452368,-0.23458807,0.24234343,0.030772043,-0.21382579,0.390999,0.05656856
family#F2F12,-0.37727454,-0.09377504,0.097319745,-0.37583774,-0.20572664,0.28341383,0.009457753,0.44700354,0.012213842,0.37950364,-0.07273027,0.03329158,-0.2700942,-0.405913,0.24901572,0.20849171,-0.3123352,0.17430347,-0.06933362,-0.016823508,-0.31252217,0.016526649,0.011161581,-0.2854456,-0.15836355,0.23829319,0.09488018,-0.2539311,-0.4501914,-0.19039337,-0.36764574,0.14149545,0.36667636,0.07271211,-0.26264694,-0.049447957,-0.0712231,0.20273471,0.26981676,-0.05428061
family#F2F14,-0.380835,0.12299656,-0.025433013,-0.38103694,-0.095221,0.15574306,0.08662378,0.32947654,-0.12445212,0.20578177,-0.45516124,0.18726002,-0.20036843,-0.10472765,0.33199796,0.24350867,-0.22215301,-0.043399096,-0.14235161,0.094218895,-0.17901993,-0.029888676,-0.03503563,-0.26481944,-0.30553973,0.19634815,0.055245705,-0.1865551,-0.23442258,-0.13830191,-0.07208259,0.12629636,0.38835764,-0.047875773,-0.15144172,-0.23662533,-0.04018123,0.13186231,0.33899382,-0.03689867
family#F2F15,-0.107719705,0.37908408,0.15121995,-0.20775165,-0.3322605,0.047332574,0.32274765,0.44607273,-0.06190299,0.37184155,-0.28269634,-0.024300216,-0.25162664,-0.13155746,0.3676243,-0.00787528,-0.20511715,-0.28375977,-0.06528327,0.16594364,-0.4471058,-0.09450375,-0.17722012,0.053900447,-0.110671945,0.3587533,0.09256671,-0.058002755,-0.27176067,-0.06269511,-0.2103426,0.06933611,0.24524422,0.10452476,-0.18517072,-0.1620304,-0.018695837,0.34932503,0.3231007,-0.27608353
family#F2F17,-0.08809064,0.35163596,0.08724205,-0.21885245,-0.32136405,0.21289098,0.51896757,0.37696722,-0.20885769,0.22476752,-0.08494238,0.18992813,-0.13979791,-0.030493233,0.376073,0.020268688,-0.30128652,-0.2673783,-0.27068484,0.29211825,-0.3701981,-0.25242525,-0.18056382,-0.05241898,-0.068487436,0.10585212,0.24174644,-0.14706849,-0.4085044,-0.11789011,-0.24119684,0.038092636,0.19185764,0.13997638,0.057945173,-0.6398675,-0.040397767,-0.24678436,0.28793803,-0.47564968
family#F2F19,-0.28086376,0.14581229,0.17337275,-0.19974443,-0.0061439127,0.20196691,0.19476362,0.5311,-0.03877617,0.52760595,-0.30849832,0.12987477,-0.28603938,-0.22651866,0.24976085,-0.23003383,-0.39143735,0.18199985,-0.27874917,0.021281848,-0.2835586,-0.09879278,-0.12472181,2.9338476e-05,-0.37996364,0.061704636,-0.101340115,-0.30934358,-0.18842144,0.011709451,-0.14101416,0.0006717479,0.1534892,-0.019378025,-0.32239535,0.09908107,-0.1755436,0.16632129,0.3173007,-0.0038788791
family#F2F22,-0.33231303,-0.06798986,0.067650884,-0.3407116,0.15194108,0.05696527,0.15670513,0.40174884,0.05771983,0.123243645,-0.03535009,0.24621938,-0.16767837,-0.32716137,-0.027379306,0.16476302,-0.16573149,0.028031902,0.1248697,-0.043178074,-0.26311356,-0.101751365,-0.05455232,-0.067054786,-0.59553653,0.19893846,0.14596939,-0.08264568,-0.35325366,0.08691171,-0.47773707,0.20012835,0.26145068,0.12255185,-0.074093476,-0.5313893,-0.06916489,0.24899623,0.17151614,-0.057509046
family#F2F24,-0.27871275,0.07420249,-0.011317358,-0.25985774,0.16924104,0.014699506,0.14155793,0.30370215,-0.08504431,-0.040929843,-0.55508256,0.2628378,-0.18738648,-0.28010458,0.21815188,0.2893284,-0.2503834,-0.17750631,-0.030004883,0.20289078,-0.24773291,-0.29568356,-0.026111938,-0.07735782,-0.47024995,0.11480409,0.3054266,-0.079769656,-0.26293647,0.08466092,-0.14003435,0.27796572,0.3389841,0.07400865,0.20031215,-0.337633,-0.08369896,0.15910515,0.22905757,-0.18198301
family#F2F26,-0.16288842,0.332932,0.10572599,-0.137747,-0.0669789,0.08760461,0.26044667,0.482025,-0.06703578,0.6197548,-0.015754113,0.14875332,-0.43309942,-0.023545822,0.20249921,-0.29541594,-0.44455817,0.18742356,-0.6057999,0.22298789,-0.31146345,-0.15630798,-0.08115932,-0.064640716,-0.3492489,0.01413397,-0.083629765,-0.30013895,-0.32179612,-0.09685341,-0.23688202,-0.013669106,0.2562539,-0.045608994,-0.17454188,0.071603864,-0.03510533,0.14596151,0.41874033,-0.13632527
family#F2F28,-0.21722843,0.1741548,0.16249895,-0.15471491,-0.029327245,0.22362185,0.16856222,0.5956671,0.09164872,0.5668641,-0.2705586,-0.0718855,-0.32793006,-0.28822744,0.3993391,-0.29672477,-0.42273033,0.27669016,-0.33849904,0.06950251,-0.24664515,-0.20419753,-0.06592309,-0.04541411,-0.36009887,0.03956961,-0.045878455,-0.32274735,-0.4002104,-0.07459421,-0.28499335,0.007852031,0.2553499,-0.23005308,0.06668021,-0.004686379,0.015896056,0.15926744,0.26498795,0.05748524
family#F2F30,-0.3858996,0.11840821,0.10921215,-0.281489,-0.15043932,0.3186537,0.0888501,0.3647009,-0.07391649,0.26919323,-0.15710479,-0.08596462,-0.20655957,-0.34378278,0.32566702,-0.013708082,-0.23576349,-0.05019554,-0.0064935694,-0.10386248,-0.33142644,-0.12570125,-0.047754392,0.018287469,-0.33120278,0.20187788,0.101467185,-0.30653518,-0.38173863,0.17683847,-0.23613095,0.0025083546,0.2256071,-0.12887554,-0.30077425,-0.4014236,-0.18125278,0.39596474,0.29765552,-0.11474321
family#F2F33,-0.14456208,0.4198941,0.18859783,-0.21722649,-0.19751126,0.45372677,0.05415738,0.42606145,-0.10206012,-0.08450626,-0.05664243,0.24280559,-0.17081979,-0.23952465,0.36396,0.37247583,-0.14554402,-0.43468544,-0.16097926,0.27756512,-0.33032724,-0.15207338,-0.1867102,-0.016666848,-0.28898922,0.4033315,0.054158296,-0.1487416,-0.24208736,0.09730842,-0.35850668,0.015184759,0.17871556,-0.030318396,-0.19751368,-0.43399444,0.038640928,-0.026855988,0.31428882,-0.2070918
family#F2F36,-0.18510634,0.2895885,0.108010575,-0.15749033,-0.057084385,0.2410679,0.26840672,0.48715597,-0.0085172085,0.6022878,-0.11142968,-0.029824555,-0.33523592,-0.23008543,0.3642143,-0.24837968,-0.4445035,0.19090968,-0.2547806,0.21171764,-0.31248847,-0.226229,-0.024436483,-0.072177,-0.30959025,0.03555808,-0.08586612,-0.1237667,-0.28522536,-0.14348938,-0.26290455,0.004494389,0.26153716,-0.24437162,0.017217385,0.07193899,-0.05221596,0.14231557,0.44624367,-0.1682897
family#F2F38,-0.25289577,0.2585564,0.016988179,-0.2659163,-0.23281561,0.14735085,0.29527196,0.15647443,-0.05533274,0.29454115,-0.5017762,0.17094705,-0.20343785,-0.059377722,0.21326306,-0.05925771,-0.18455936,0.0076292455,-0.11940522,0.16292354,-0.38656408,-0.06646388,-0.09684406,-0.07817018,-0.23091114,0.22881886,0.15691708,-0.2667571,-0.43277472,0.002495224,0.05321894,0.0004939744,0.34591118,-0.28735596,-0.24199198,-0.16933048,-0.01122171,0.05290208,0.39070994,-0.27094275
family#F2M11,-0.23284973,-0.19372608,-0.33095667,-0.2475183,-0.24074185,0.36191663,0.033648964,0.6918885,-0.0219958,0.52786213,-0.32270184,0.0718279,-0.3793952,0.2214692,0.4244029,-0.2763496,-0.462766,0.23972966,-0.34835404,0.052647706,-0.4884565,-0.12666605,0.23605473,-0.057532106,-0.2166986,0.036221493,-0.11311059,-0.082415394,-0.21005458,-0.17723712,-0.22562787,0.023853807,0.23766129,0.11740358,-0.17341487,0.032755725,0.06903859,0.25232714,0.19496691,-0.037344158
family#F2M13,-0.039624717,0.07869912,-0.34696448,-0.11014812,-0.25635916,0.17092888,0.16940282,0.4601252,-0.1723992,0.32938048,0.087147824,0.29786393,-0.31926543,-0.045711447,0.19326568,-0.12132364,-0.33300063,-0.32805166,-0.62384665,0.13040741,-0.46468028,-0.11363702,0.25725344,-0.07620743,-0.1894342,0.34453195,0.04706384,-0.1778121,-0.40151694,-0.05158323,-0.2586384,0.1126122,0.18600774,0.175911,-0.073171616,-0.17975654,0.20278402,0.36507595,0.24150518,-0.07479596
family#F2M16,-0.54662895,-1.0554388e-05,-0.26414466,-0.43365815,-0.2884454,0.004666662,0.36237904,0.3836247,-0.05404502,0.239934,-0.08469136,-0.09179823,-0.2433185,0.14935035,0.18515787,0.100357294,-0.36799634,-0.18301871,-0.1321361,0.074875124,-0.20718685,0.053207796,0.24273337,-0.2088629,-0.098590955,0.23572767,0.18635947,-0.047757514,-0.29650435,-0.13494615,-0.2646083,0.07983631,0.30933654,0.08887026,-0.18254653,-0.22390139,-0.020452872,0.17955534,0.3004426,-0.2820834
family#F2M18,-0.086550914,0.07843875,-0.35353735,-0.1087604,-0.3233599,0.20502108,0.4659077,0.33379593,-0.34388945,0.20481278,-0.15607916,0.294449,-0.19257572,0.0050395364,0.21554452,0.051730342,-0.57206583,-0.27826813,-0.4522135,0.2487989,-0.39577726,-0.14410579,0.21438208,-0.087216675,-0.09948553,0.119218476,0.25610292,-0.22109842,-0.31280985,-0.13018821,-0.23233129,0.010032899,0.09578935,0.09508568,-0.22963801,-0.3009881,0.23911525,-0.19305724,0.3479077,-0.38571355
family#F2M20,-0.5747651,-0.059593607,-0.3048259,-0.39387897,0.04033869,0.17173849,0.10190274,0.54245013,0.02316914,0.29562256,-0.079062045,0.12290308,-0.28007412,0.19938934,0.21336415,0.18177442,-0.225761,0.17729005,0.05877951,-0.007074452,-0.1928282,0.034480814,0.20489323,-0.07869164,-0.45010257,0.15233481,0.102256306,-0.10197333,-0.31735906,-0.060694467,-0.29580215,0.05972791,0.26473334,0.062405564,0.118284814,0.06262728,-0.049788073,0.12647015,0.32605627,0.018383516
family#F2M21,-0.47073144,-0.1001086,-0.37230635,-0.39742392,0.028838081,-0.03839719,0.1648479,0.2776711,-0.12722433,0.1733942,-0.3791838,0.21432503,-0.23115443,0.18503259,0.28958386,-0.24850543,-0.24293606,-0.14671007,-0.3887293,0.047391552,-0.28677168,-0.1278906,0.2270668,0.04502766,-0.47967666,0.23384476,0.08626337,-0.18834078,-0.18915348,0.19651085,-0.096115194,0.20162545,0.15898305,0.19670072,-0.1597442,-0.20014822,0.07966216,0.28018817,0.003293173,0.052243836
family#F2M23,-0.3578614,0.050425675,-0.3977652,-0.37643468,0.28235725,-0.0136989765,0.22122458,0.22877812,-0.022859309,-0.14067732,0.13068976,0.258168,-0.035444155,0.23092958,0.40147534,0.06923069,-0.2830706,-0.32825032,0.05598227,0.16266426,-0.3431368,-0.13038833,0.16882542,-0.13731648,-0.5302607,0.10625527,0.17329012,-0.18837446,-0.33321995,0.14633515,-0.1667102,0.32675615,0.063702144,0.16956422,-0.24909401,-0.40165153,0.14402251,0.06815447,0.15614831,-0.13381007
family#F2M25,-0.34365246,0.20848906,-0.4292218,-0.28615963,0.038337458,0.15792525,0.2423105,0.19254208,-0.17587583,-0.12627211,-0.16487491,0.24818957,-0.056611124,0.00093402935,0.19736466,0.2728562,-0.30591804,-0.19264142,-0.07366191,0.14281951,-0.24543177,-0.22244355,0.23379532,-0.061515365,-0.5282278,0.09782199,0.19395147,-0.2624406,-0.35499325,-0.11585087,-0.16167845,0.37759393,0.15444118,0.143161,-0.21888353,-0.3055462,0.14458586,-0.20922096,0.3505008,-0.30756196
family#F2M27,-0.33673698,0.047310237,-0.30647236,-0.33322135,0.0032439777,0.037802566,0.16930103,0.33055362,-0.17087823,0.34483087,-0.4244004,0.1395161,-0.25789723,-0.040246375,0.43981075,0.2552788,-0.2584803,0.0025750026,-0.22725447,0.06391078,-0.20514198,-0.06850633,0.22642037,-0.21885858,-0.2784433,0.10242729,-0.00040947978,-0.21187395,-0.33253524,-0.10852333,-0.1731744,0.058458257,0.3619646,-0.071503125,-0.12757698,-0.05373175,-0.0359261,0.07779487,0.36199558,-0.12960595
family#F2M29,-0.42722613,-0.14419463,-0.27287632,-0.40347922,-0.041379686,0.13601987,0.13979338,0.40458477,-0.07450001,0.3625347,-0.15859061,-0.09969813,-0.27456173,0.259308,0.25672832,0.16714014,-0.36774662,0.31017148,-0.07327598,-0.025174038,-0.16605122,-0.02095811,0.14915003,-0.24460427,-0.34971792,0.1537083,0.123888545,-0.29599932,-0.22428498,-0.098422766,-0.26094177,0.0792789,0.3262835,-0.08895249,-0.20457716,-0.17145178,-0.021366943,0.05611729,0.29256058,0.09559449
family#F2M31,-0.3470685,-0.19733937,-0.24570806,-0.35998914,-0.10388176,0.28545913,-0.018488642,0.49668014,-0.108651616,0.22391759,-0.16697761,-0.10878153,-0.31000254,0.25451496,0.31545287,0.09040761,-0.35373768,-0.026808424,-0.16808215,0.017373597,-0.30444944,0.018023266,0.20716867,-0.22345322,-0.25754958,0.2571487,0.18436037,-0.08180426,-0.31348372,0.16453382,-0.18244776,0.0721162,0.14983296,-0.0010670401,0.0032686926,-0.4990678,-0.14752671,0.3799436,0.2846047,-0.025982175
family#F2M32,-0.10637986,0.08965092,-0.31166846,-0.18539771,-0.11886353,0.1625053,0.17356412,0.47181085,-0.1596949,-0.08174057,-0.28481278,0.21664318,-0.124118924,-0.022183584,0.2549945,0.28908962,-0.2815672,-0.47419336,-0.31413928,0.09555642,-0.3834119,-0.14151876,0.24840477,-0.055391647,-0.30955318,0.3822285,-0.006408401,-0.33074284,-0.45190784,0.025699388,-0.12139944,0.00016865689,0.08425967,-0.009325409,-0.016529754,-0.4340747,0.33076534,-0.03986386,0.29166988,-0.477574
family#F2M34,-0.40478176,0.0072859107,-0.24427882,-0.38172397,-0.22890557,0.392671,0.04427429,0.278187,-0.01790589,0.07801639,-0.32302004,0.12169376,-0.2630585,0.24276386,0.23274572,0.21234483,-0.383856,-0.23265472,-0.021457313,0.15289608,-0.11532622,0.012810488,0.28054476,-0.26157013,-0.22409463,0.33575696,0.11881327,-0.12969105,-0.35491967,0.09797206,-0.062311076,0.10705446,0.4572062,0.08279635,-0.10392935,-0.19495551,-0.071444035,-0.030681392,0.32729775,-0.23008934
family#F2M35,-0.36880755,0.19987968,-0.3214702,-0.3235119,-0.17615809,0.034400504,0.13423619,0.24481873,-0.2210825,-0.098957516,-0.19372478,0.26616538,-0.12036002,0.006038384,0.28091568,0.11144709,-0.37234506,0.064526744,-0.41157147,0.22447021,-0.24735071,-0.07748184,0.21458277,-0.05631143,-0.2057044,0.56520724,0.1646066,-0.20733824,-0.4680026,-0.13598828,-0.16815223,0.24479277,0.13800827,0.05970145,-0.15223774,-0.20869952,0.15642242,-0.29728305,0.29355234,-0.21310984
family#F2M37,-0.28209776,0.023766145,-0.2038977,-0.35101685,-0.12113553,0.17050882,0.10060717,0.2505326,-0.13603006,0.38313788,-0.23277192,-0.06343981,-0.19664142,0.25791755,0.26659516,0.21625093,-0.3210665,0.029321456,-0.11121869,0.06252341,-0.20201385,-0.0129383365,0.13086696,-0.2326126,-0.2744345,0.16774403,0.13460365,-0.13632222,-0.3164251,-0.14738755,-0.27474707,0.077051304,0.47385567,-0.16679746,-0.18150309,-0.09783643,-0.10133509,0.030403286,0.34701136,-0.3095592
family#F2M39,-0.3681989,0.08519334,-0.30364478,-0.41917753,-0.100148655,0.14520657,0.22484392,0.31037778,-0.20179994,0.20430806,0.17405812,0.19175026,-0.15984698,-0.04809697,0.3155601,0.2221373,-0.2772852,-0.0150735285,-0.18823372,0.15553501,-0.28692707,-0.1304994,0.21756294,-0.15620412,-0.2586771,0.17737074,0.22708584,-0.063192256,-0.20387812,-0.19339967,-0.508144,-0.017519308,0.3406164,0.013888033,-0.066253796,-0.21895461,-0.12633234,0.03290162,0.27627915,-0.30458623
family#F2M9,-0.3697805,-0.15248069,-0.2953606,-0.3618601,0.05430996,-0.03794036,0.019396327,0.5360504,0.09781286,0.4118018,-0.20362325,-0.15879668,-0.4008226,0.20401669,0.30707726,0.38166705,-0.21424685,0.12879902,-0.112096995,-0.008221565,-0.18508884,-0.049273238,0.16324691,-0.28333747,-0.34487987,0.13104457,0.051342074,-0.2705846,-0.3414672,-0.4652684,-0.12973313,0.45680138,0.41613156,-0.07906184,-0.19810137,0.24432428,-0.058740336,-0.21643743,0.40126818,0.021842273
family#F3F41,-0.49010637,-0.076774396,0.10153923,-0.3315236,0.08407,-0.0648537,0.399358,0.3905177,0.009619897,0.10898948,-0.0074435496,0.12773257,-0.24886595,-0.32324567,0.12235619,0.21024677,-0.3282638,-0.20132479,-0.031044273,0.07977675,-0.11803294,-0.023239639,-0.024727125,0.0043945606,-0.51791674,0.042513408,0.19451945,-0.27812096,-0.378119,0.06547876,-0.2776075,0.36349475,0.34980085,-0.057570238,-0.1234559,-0.067253105,0.007924433,0.26965997,0.17011295,-0.053812582
family#F3F42,-0.37585646,0.084935345,0.15285705,-0.294328,0.15034027,-0.33494622,0.5987887,0.40006608,-0.087057136,-0.033402637,-0.32099023,-0.011521423,-0.30171221,-0.43423918,0.51141775,-0.011846154,-0.16588697,-0.28367582,0.015111614,0.20662256,-0.26913148,-0.12444305,-0.055414297,0.095976755,-0.4495326,-0.06802907,0.34328848,-0.22255513,-0.28676897,0.07031012,-0.11036712,0.21123555,0.25921473,0.020301491,-0.21806149,-0.13000867,-0.016435802,-0.17996204,0.33606178,-0.27113646
family#F3F46,-0.44532052,-0.09778167,0.108190924,-0.3730556,-0.02729348,-0.016660193,0.42704284,0.54680187,-0.046276644,0.039826285,-0.14062372,0.3681281,-0.2449543,-0.4027457,0.27364743,0.3039587,-0.33041942,-0.14846048,-0.07660941,-0.02015621,-0.14794442,-0.006000518,-0.032488547,-0.20600213,-0.2685987,-0.07272194,0.3242007,-0.36469787,-0.2790187,0.05880954,-0.20914246,0.049816083,0.26016703,-0.13901383,-0.23075539,-0.1081224,-0.04938391,0.02351203,0.35115188,0.101234995
family#F3F48,-0.46534672,-0.07965803,0.123905934,-0.39898345,-0.19535047,-0.19721678,0.3988809,0.4685229,-0.04401957,0.06297208,-0.30560198,0.3346933,-0.31904292,-0.3539699,0.1321606,0.2176155,-0.3648423,-0.010999621,-0.12106345,0.07972993,-0.205664,-0.032060966,-0.032810155,-0.09342761,-0.10069599,0.05200535,0.2325325,-0.061580352,-0.35888046,-0.09106645,-0.25045902,0.35625333,0.3447441,-0.24425563,-0.15927316,-0.090453364,0.052132647,-0.23912548,0.28384936,-0.026301358
family#F3F49,-0.16828349,0.3154624,0.14086567,-0.27548784,-0.23299898,-0.04926193,0.4197795,0.46511367,-0.09789437,0.10227055,-0.3633477,0.32609373,-0.18947746,-0.12676255,0.3887693,-0.022325452,-0.33357403,0.3174929,-0.105272576,0.13283864,-0.3411002,-0.093147844,-0.020584382,0.033694047,-0.12925304,-0.08329066,0.24214292,-0.1519772,-0.21669462,-0.11190826,-0.14125262,0.39154634,0.16673516,-0.15442376,-0.21406926,-0.103538536,-0.052834302,0.059550982,0.30075112,-0.16634962
family#F3F52,-0.09502252,0.3459989,0.071990155,-0.11854363,-0.22323412,0.20932072,0.44994187,0.43018654,-0.13366538,0.11384754,-0.31573278,0.24288236,-0.25939262,-0.042469274,0.38690212,-0.05625331,-0.39305255,0.2317597,-0.11186426,0.16394176,-0.38304746,-0.23780058,0.037024986,-0.030239321,-0.101334006,-0.08532402,0.21955325,-0.14089662,-0.37225655,-0.14087886,-0.18427943,0.43305376,0.21503486,-0.089890786,-0.039349813,-0.16756858,-0.083415076,0.050487634,0.3687583,-0.37676564
family#F3F53,-0.20856215,0.296858,0.13254893,-0.20574178,0.014046459,0.2640636,0.5852041,0.52835685,-0.079658695,-0.15100795,-0.27004117,0.19233161,-0.17821483,0.009365372,0.24502034,0.1347133,-0.3352865,0.19731997,-0.17177294,0.41527402,-0.29402965,-0.30180633,-0.24428982,-0.09898776,-0.3289543,-0.27571964,0.2892952,-0.069122806,-0.41227192,-0.10878263,-0.17144714,0.039875433,0.14877445,0.03802038,-0.16262315,-0.22602275,0.0350048,-0.087856546,0.31160304,-0.2265925
family#F3M40,-0.44592065,-0.12269771,-0.25845292,-0.37094858,-0.0052382685,-0.060791884,0.3246227,0.40334418,-0.08203644,0.12527336,-0.38260671,0.12767208,-0.26912102,0.20882407,0.20879444,0.20769118,-0.30743927,-0.2013563,-0.06117012,0.03815281,-0.12002913,-0.04195949,0.19924806,-0.12500854,-0.49984175,0.06924049,0.18750817,-0.2646053,-0.2286454,0.06495318,-0.062931165,0.40207046,0.37775195,0.021428978,-0.13515519,-0.0961337,-0.08593385,0.264711,0.12748541,-0.029035911
family#F3M43,-0.41597757,-0.21545188,-0.3364521,-0.3718338,0.14253421,-0.3910834,0.63556564,0.42540273,-0.05724804,0.03785417,-0.062257245,-0.032662015,-0.290525,0.25166786,0.35350987,0.19043319,-0.35263643,-0.18108235,0.012749491,-0.04621942,-0.1636815,-0.089157194,0.19683802,-0.15809885,-0.3352313,-0.019638129,0.38199064,-0.28725982,-0.40928692,0.13798551,-0.11847751,0.18739416,0.28990227,0.11113875,-0.09327098,-0.2488321,-0.054446787,-0.16120201,0.35240734,-0.31315494
family#F3M44,-0.22520839,0.020910926,-0.31685,-0.24419007,0.012929662,0.3215924,0.459032,0.52934843,-0.15275612,-0.08399778,-0.25575545,0.1931062,-0.2026547,0.0840744,0.20838155,0.077242844,-0.45054078,0.16090536,-0.17832126,0.1445092,-0.28822413,-0.19849089,0.06467975,-0.04245608,-0.3827331,-0.255651,0.43460885,-0.20039631,-0.15303351,-0.071531676,-0.26319277,0.027819574,0.078016855,0.049760826,-0.07363149,-0.26824242,0.2887395,-0.115128085,0.40409365,-0.57235736
family#F3M45,-0.14977236,-0.14959566,-0.41920865,-0.25032485,-0.018166382,0.11295315,0.3819614,0.69551146,-0.011810427,-0.09646878,-0.22834378,0.35454503,-0.2694201,0.31349292,0.20829679,0.15319434,-0.44055393,0.08197047,-0.13968515,0.10372308,-0.3327939,-0.18536992,0.1948751,-0.09525277,-0.31634346,-0.262629,0.46455166,-0.25753784,-0.27419803,0.014787918,-0.2370694,0.014939516,0.067896746,0.032173775,-0.0478778,-0.1971411,0.23547633,-0.07722457,0.28021622,0.079565726
family#F3M47,-0.26096627,-0.07840874,-0.35560673,-0.2252289,-0.22812629,-0.1872807,0.38840255,0.59465003,0.020750966,-0.06923437,-0.16439863,0.37150145,-0.14875157,0.18831287,0.295268,0.086821236,-0.45454484,0.008261414,-0.29306582,-0.06838171,-0.3966507,-0.07057254,0.22816794,-0.12485067,-0.18325524,0.012773527,0.36582878,-0.14984025,-0.37065935,-0.12960292,-0.17028043,0.40163314,0.078327596,-0.14118572,-0.20961347,-0.07331845,0.0808547,-0.18392283,0.19201016,0.008171205
family#F3M50,-0.35958272,0.007737585,-0.24370255,-0.35670432,-0.0853378,-0.151927,0.33092535,0.4086638,-0.034879543,0.16816932,-0.0788082,0.22717758,-0.23443648,0.16530128,0.27050787,0.24138343,-0.33625007,0.2797474,-0.07353796,0.119813785,-0.16304462,-0.04556562,0.17474128,-0.08741288,-0.24397714,-0.014932774,0.23575833,-0.19000122,-0.3528728,-0.080589086,-0.26314372,0.280009,0.33879387,-0.10381464,-0.07960518,-0.12002209,-0.043219294,0.07391705,0.28422865,-0.10940178
family#F3M51,-0.363355,0.13834198,-0.3097833,-0.26304173,-0.16629705,0.22080292,0.45460182,0.31427294,-0.17660308,0.13057336,-0.17162752,0.27172366,-0.11554428,-0.043124933,0.29360884,0.019786185,-0.39601964,-0.16516563,-0.14380366,0.15668045,-0.25933245,-0.1556051,0.20583987,-0.061830975,-0.14107452,-0.08950204,0.21346496,-0.19642586,-0.37526724,-0.10513813,-0.16343355,0.3709545,0.15810136,-0.10533765,-0.12960736,-0.22484867,0.13951369,0.35612845,0.38446257,-0.28193235
family#F4F55,-0.41727403,-0.014427711,0.052324075,-0.21037088,0.14611119,-0.09746324,0.40816873,0.21115544,0.13056847,0.17716575,-0.02768302,0.15352069,-0.13916464,-0.3399355,0.23204339,0.23963477,-0.2890627,-0.17846648,0.053465568,0.075717725,-0.26272735,-0.15108345,-0.032470148,-0.21546528,-0.51756364,0.09660451,0.27516398,0.017466936,-0.35708064,-0.20936413,-0.31105012,0.41226467,0.36575037,-0.16444467,-0.10734724,-0.31316897,-0.013639842,-0.0012724636,-0.06414091,0.052792326
family#F4F56,-0.4952546,0.20297316,0.04339485,-0.35050467,0.19888766,0.18605144,0.46085027,0.03941215,-0.1861005,0.3434156,-0.032475647,0.18928084,-0.23886852,-0.17592624,-0.05501383,0.3690233,-0.15994741,0.07138978,0.047074985,0.07890162,-0.28464678,-0.07893526,-0.08243418,0.051495872,-0.52030283,0.023919763,0.30252025,-0.07484635,-0.21029633,-0.2938986,-0.18201384,0.2182542,0.37916428,-0.25196463,-0.20945267,-0.06356157,-0.01843344,-0.24292663,0.024104606,-0.12538399
family#F4F58,-0.34516594,0.1709901,0.021915592,-0.18987638,0.11676307,0.07264735,0.37137157,-0.0790902,-0.10876533,0.35915688,-0.6314452,0.13541244,-0.29251367,-0.022051923,0.63851124,0.18315323,-0.24344058,0.36157075,0.09135389,-0.040596593,-0.42250964,-0.3490236,-0.13958213,-0.009297647,-0.40857255,0.19494313,0.30270803,-0.26825374,-0.255015,0.030377213,0.07537458,0.2910985,0.23146673,-0.32057714,-0.20664102,0.040797688,-0.104746826,0.10213043,0.11995843,-0.23339015
family#F4M54,-0.44374385,-0.05948237,-0.2506596,-0.3727071,0.02712701,-0.04397108,0.27990896,0.18359163,0.027690465,0.22157091,-0.36753228,0.09358398,-0.22566666,0.25445956,0.26708773,0.2462963,-0.24010459,-0.1404342,0.101968214,0.070786364,-0.24783444,-0.11827839,0.14293247,-0.14911342,-0.54885095,0.08825537,0.3911612,0.060735237,-0.12882133,-0.13794847,-0.16649854,0.4572945,0.472081,-0.050473206,-0.02721036,-0.31319106,-0.09915781,0.026833434,0.007228429,0.1195982
family#F4M57,-0.41583204,0.06290649,-0.22730057,-0.3323775,0.017151058,0.096758045,0.34658566,0.15687263,0.020656893,0.3530799,-0.29985633,0.21352802,-0.21346824,0.21614206,-0.23130822,0.27195048,-0.33116898,0.057102155,0.07508494,0.17976923,-0.21471119,-0.050755303,0.14071175,-0.2682805,-0.51926684,0.14094709,0.32660007,0.07290546,-0.38089535,-0.23295796,-0.11393276,0.26221824,0.3499762,-0.12676878,-0.15607713,-0.1063201,-0.05417397,-0.1921128,0.042343877,0.0029228996
family#F4M59,-0.45074937,0.1541134,-0.32999617,-0.38954577,-0.010513324,0.064242564,0.41931504,0.13009353,-0.14658386,0.16220503,0.2298664,0.15071365,-0.19517198,-0.02257661,-0.14558169,0.17439246,-0.40231842,0.06483258,0.009960491,0.28107208,-0.3289535,-0.06176138,0.20239991,-0.16785842,-0.4903974,0.17944309,0.20570855,0.011300481,-0.3632444,-0.30990344,-0.4998771,0.21792918,0.29705095,-0.026000163,-0.10911157,-0.11166714,-0.062595755,-0.00079365156,0.20704995,-0.06552208
family#F5F61,-0.2928231,-0.091205694,0.031230118,-0.3215436,0.18172626,-0.27545422,0.24567796,0.35284784,0.0592607,0.16933584,-0.2342321,0.32356557,-0.2501977,-0.3714883,0.011531001,0.1429721,-0.2665541,-0.2155123,-0.13446632,0.08581249,-0.3689878,0.010825432,-0.06969483,-0.048193417,-0.49658796,-0.026682409,0.28281754,-0.0682938,-0.4465383,-0.03674007,-0.17561729,0.51625717,0.31917658,-0.36516073,-0.18750057,-0.52800924,-0.08951999,0.28620413,0.023340056,-0.026705222
family#F5F62,-0.090625286,0.24343142,0.081494205,-0.11255886,0.1123791,0.088446416,0.24129355,0.2746295,-0.15692537,0.098544665,-0.07090457,0.20392165,-0.25773853,0.07207554,0.5199218,0.39992186,-0.18487397,-0.26682833,-0.0023455261,0.19162932,-0.39813107,-0.31761748,-0.20030537,0.039665747,-0.39339367,-0.13099967,0.12853892,-0.14365727,-0.3495215,-0.10079503,-0.15985441,0.38541836,0.3378914,-0.34902954,-0.20306823,-0.29514834,0.040386923,-0.20974596,0.17944725,-0.34946325
family#F5F65,-0.33199033,-0.07493024,0.08837763,-0.24031886,0.05876834,0.3192041,0.27942473,0.3003945,0.030873273,0.17559405,-0.07930948,0.183856,-0.20336168,-0.33634856,0.039457317,0.30536526,-0.26868957,-0.10268432,0.013285929,0.08491538,-0.17398116,-0.045240637,-0.06049133,-0.3668523,-0.25462568,0.108056225,0.27279383,-0.047087323,-0.47297338,-0.0044123647,-0.2504532,0.3504451,0.40993324,-0.2181047,-0.15473168,-0.22569548,-0.13023457,-0.18257317,0.13561726,0.04289188
family#F5F67,-0.33426002,-0.013688367,0.0056735286,-0.35625073,-0.19940732,0.2714847,0.27442172,0.28550872,-0.0018530682,0.08364515,-0.55990785,0.3412173,-0.20204094,-0.24184918,0.10382592,0.41865483,-0.4432096,0.24684103,-0.30419588,0.11264121,-0.1654672,0.011119412,-0.024996148,-0.1736316,-0.25276807,0.24385452,0.3702813,0.08047853,-0.32634765,-0.012381766,-0.037048806,0.26938352,0.2594988,-0.10425202,-0.07402031,0.037582207,-0.062336657,0.043543488,0.3475997,-0.0048896666
family#F5M60,-0.39829776,-0.102319986,-0.26179066,-0.38589945,0.023672251,-0.25583562,0.30638087,0.41157192,-0.14160953,0.1483998,-0.14412354,0.3645044,-0.25807178,0.25935587,-0.021565797,0.12555246,-0.26686954,-0.18006562,0.04318726,0.06539879,-0.3666378,0.04631922,0.16541295,-0.0391173,-0.5293615,0.02595985,0.21934314,-0.14977266,-0.1655779,-0.07921915,-0.19368495,0.3957159,0.4106328,-0.32826617,-0.0874682,-0.47999907,-0.14446193,0.21475615,0.090597816,-0.053983945
family#F5M63,-0.26976582,0.06619874,-0.28803352,-0.42358938,0.019345194,-0.03041602,0.2590221,0.16728175,-0.21657197,0.18330516,-0.27789629,0.14524275,-0.23567177,-0.008719751,0.020209325,0.15819176,-0.32311893,-0.09671934,-0.14404954,0.20921195,-0.2084624,-0.12633964,0.2240022,-0.14293553,-0.38069385,0.006574491,0.1482453,-0.116262786,-0.2805049,-0.13161074,-0.18451843,0.3137864,0.3258009,0.013532952,-0.021763204,-0.24950139,-0.08085676,-0.08105062,0.31847352,-0.34389296
family#F5M64,-0.10486341,-0.15187894,-0.32425255,-0.18718484,0.014475653,0.36666015,0.22776327,0.30486968,-0.23171137,0.13329202,-0.2622502,0.27440175,-0.3350137,0.3701036,0.36541224,0.4418687,-0.2580304,-0.22927621,0.012237365,0.14601806,-0.42125857,-0.31727242,0.15162417,0.028465906,-0.37403822,-0.07739452,0.15448235,-0.076315746,-0.1959492,-0.047598686,-0.20068109,0.39272586,0.18384486,-0.24104759,-0.12020597,-0.2955789,0.077321865,-0.21989,0.04275779,0.04312956
family#F5M66,-0.3802866,0.12534478,-0.33804256,-0.2970478,-0.23045054,0.24067149,0.43522683,0.28826153,-0.08334169,0.04021443,0.18566479,0.390705,-0.102830246,0.23212503,0.3520589,0.32599896,-0.28098023,0.29649198,-0.0019720988,0.053301558,-0.26166013,-0.05122066,0.16062918,-0.04816379,-0.3394643,0.45685032,0.24302532,-0.20115107,-0.24950552,-0.009151439,-0.2711126,0.31460953,0.23992606,-0.21928371,-0.21592358,0.14252864,0.09614112,-0.05368229,0.29037815,-0.08405017
family#F5M68,-0.38289103,0.17575464,-0.29536727,-0.22670028,-0.07773765,0.023540448,0.4529678,0.26159596,-0.13534975,0.028302144,-0.20463417,0.24827035,-0.20208797,0.005136646,0.31104538,-0.14984255,-0.3901471,-0.07236733,-0.38209572,0.08647024,-0.3026568,-0.1170367,0.20091508,-0.077930845,-0.19406727,0.41195235,0.38140476,-0.15200129,-0.3371107,-0.113259606,-0.16346496,0.42301282,0.09386717,-0.0790723,-0.17958604,-0.02546846,0.116397426,0.32198593,0.3862608,-0.28654617
family#F6F101,-0.46205378,0.14214623,-0.0076336265,-0.35130784,-0.09741113,0.055116054,0.18874563,0.24109934,-0.3196179,0.3078532,-0.12625054,0.19866091,-0.2211344,-0.1234622,0.067411155,0.22316712,-0.28663623,-0.051356025,-0.18996556,0.008333942,-0.16490282,0.06389764,0.021175697,-0.21552365,-0.39611337,0.12705289,-0.01661855,-0.3090387,-0.10661739,-0.16256689,-0.21903673,0.39963245,0.33466387,-0.12852329,-0.46066576,-0.26435414,-0.041402657,-0.012371793,0.410209,-0.30848265
family#F6F70,-0.4278909,-0.033823844,0.06212373,-0.35424498,0.12577933,-0.27094713,0.33360672,0.31045997,0.024023091,0.5377516,-0.20669955,-0.0057900455,-0.20980531,-0.31639,0.2350739,0.18092415,-0.25852334,0.17628647,0.20049462,0.17228377,-0.28419653,-0.009628499,-0.021455282,-0.036671523,-0.4458837,0.043518968,0.38104907,-0.17595014,-0.21271324,-0.5345763,-0.28577992,0.24999173,0.4950746,0.07698575,-0.07988356,-0.25478157,-0.005818358,0.47903815,0.026908642,0.067826174
family#F6F72,-0.25328407,-0.05536712,0.0789365,-0.32000828,0.1494278,0.11558843,0.15609868,0.3670493,0.022847367,0.46884274,-0.47204047,0.13567255,-0.18258429,-0.29138365,0.14509909,0.3123724,-0.22268873,-0.08316977,0.044651993,0.046984296,-0.21756105,-0.17347538,-0.06673294,-0.24418046,-0.53647566,0.0696029,0.3126721,-0.23248744,-0.22211736,-0.10368386,-0.21598825,0.19449058,0.30004138,-0.10555857,-0.074057564,-0.2109705,-0.10894208,0.008236575,-0.011299165,0.07368614
family#F6F74,-0.29352686,0.045402862,0.022296272,-0.33578607,0.1427601,-0.073647454,0.1539725,0.29862863,-0.035408963,0.23197567,-0.14667846,0.08685874,-0.24910954,-0.24875128,0.25979495,0.24371067,-0.28308925,0.089155525,-0.3105897,0.090371124,-0.21945962,-0.15753259,-0.03562818,-0.14133646,-0.54500556,0.13651483,0.05569223,-0.124636926,-0.31435543,-0.0057013016,-0.24289791,0.22616005,0.27360716,-0.069783874,-0.16191559,-0.037564468,-0.12630422,-0.0513843,0.24397758,-0.11318579
family#F6F76,-0.22573881,0.10868059,-0.012970992,-0.34244436,0.057204712,0.030521303,0.12779115,0.31290832,-0.14260465,0.082573615,-0.12934428,0.14900525,-0.30036741,-0.102485165,0.39810222,0.31437692,-0.26358986,0.048060678,-0.28204113,0.10582068,-0.23891711,-0.08022453,-0.009302878,-0.17474267,-0.40361172,0.09977054,0.21493481,-0.14059258,-0.22026137,-0.09021842,-0.26976278,0.2011442,0.29039386,-0.03640172,-0.18114674,-0.19396992,-0.08997271,0.08521795,0.3482463,-0.12604585
family#F6F77,-0.24512732,0.16371082,0.1778017,-0.1488691,0.037753936,-0.043535948,0.42048717,0.40054232,-0.005009102,0.65624386,-0.13426296,0.0736796,-0.19085929,-0.22817756,0.32433027,0.06510112,-0.32830876,-0.5186453,0.19792025,0.14694203,-0.38741124,-0.22345418,-0.18348747,0.0041113636,-0.418543,-0.11003062,0.22315346,-0.17782241,-0.25084344,-0.28740916,-0.07596834,0.08469074,0.28973332,0.14318253,0.11656962,-0.35060728,0.023622794,0.0981711,0.037222303,-0.10477262
family#F6F79,-0.10720971,0.3461262,0.16939239,-0.2311423,-0.036278814,0.1186606,0.4155167,0.20514585,-0.13274094,0.45834574,-0.054093912,0.23970595,-0.18019146,0.058952603,0.18674211,0.18788084,-0.0971825,0.14514059,-0.050798338,0.09351328,-0.4171365,-0.3264762,-0.31334996,-0.0984316,-0.33280388,-0.085550636,0.22702028,-0.23376499,-0.2873339,-0.09128394,-0.12385175,0.11078154,0.35946792,0.24961029,-0.2676254,-0.5992361,0.052397102,-0.35883576,0.21595575,-0.23660585
family#F6F82,-0.35422438,0.04923185,0.03712184,-0.30257925,-0.010269048,-0.12718448,0.15903792,0.25179178,-0.08545341,0.32010368,-0.20802663,0.14776845,-0.26981226,-0.23946002,0.38172212,0.18339275,-0.37018847,0.08072377,-0.09131096,0.14827324,-0.17518575,-0.12314842,-0.07539378,-0.27754566,-0.30524635,-0.026874024,0.26079696,-0.11769903,-0.21658328,-0.09997983,-0.16136178,0.123541504,0.3478207,0.075196385,-0.2868109,-0.37444273,-0.10803973,-0.23829542,0.097647175,-0.1342045
family#F6F83,-0.37879863,0.2483666,-0.017467298,-0.33960825,-0.08565837,0.3073377,0.31986454,0.18544245,-0.14245142,0.24541685,-0.04158768,0.25930503,-0.113339774,-0.06778791,0.28754237,0.34595218,-0.18777609,0.3120644,-0.00048806716,0.14390793,-0.24536413,-0.07599461,-0.024523469,-0.055916656,-0.31270897,-0.03916304,0.17913634,-0.31421778,-0.4367446,0.027592499,-0.10438397,0.30780625,0.24045703,0.10299446,-0.1828806,-0.30768144,-0.05882753,0.16232757,0.21951993,-0.34138653
family#F6F84,-0.17994644,0.09340303,0.16428101,-0.08782747,-0.032399066,0.3168879,0.15964393,0.37026227,0.06755227,0.6469314,-0.046917487,0.64838725,-0.27134845,-0.19842748,0.263622,0.043911554,-0.2336836,-0.5872629,0.13140698,0.13834962,-0.34269866,-0.29680422,-0.21766949,0.0058139665,-0.26195395,-0.10357832,0.21581972,-0.21667552,-0.31958187,-0.025016485,-0.21262848,0.1396319,0.36539853,0.087507516,0.079720676,-0.53093743,-0.12515084,0.1354505,-0.14004274,-0.25556913
family#F6F86,-0.058343854,0.32922843,0.11081219,-0.24509667,-0.15234984,0.2533067,0.22667098,0.2008522,-0.24376766,0.17600043,-0.09673538,0.32838136,-0.21060094,0.027242638,0.32208318,0.2812811,-0.22609685,0.09830376,0.089449726,0.18786001,-0.256176,-0.12912035,-0.12616621,-0.05093974,-0.25679445,0.26864785,-0.09613834,-0.15665309,-0.35310018,-0.11525342,-0.12923867,0.57086194,0.24419804,0.06320295,-0.17303932,-0.5063075,0.10876151,-0.41651657,0.04681595,-0.38902172
family#F6F87,-0.12529984,0.26065734,0.19621666,-0.22238663,-0.16257362,0.4423947,0.13496181,0.25780818,-0.24134086,0.15232351,-0.19190153,0.0771366,-0.26234028,-0.06769548,0.30479032,0.23349665,-0.23758858,0.08857505,0.09132261,0.19011228,-0.26770705,-0.11967324,-0.15871572,-0.10891227,-0.20725624,0.34144306,-0.034957964,0.0020990793,-0.23132282,-0.06534591,-0.07530984,0.6038531,0.25073412,0.06665333,-0.24771018,-0.5412732,0.09508653,-0.48260686,0.06482322,-0.18458034
family#F6F89,-0.35558692,0.22030449,0.02837754,-0.28543377,-0.15249762,0.0796386,0.26849538,0.011160541,-0.18732831,0.17864372,-0.10119013,0.16144782,-0.14648205,-0.08594752,0.48936322,0.154491,-0.22923343,0.34048367,-0.055776916,0.19052234,-0.29259497,-0.17260689,0.0060574813,-0.07262643,-0.22190037,0.56285924,0.1003251,-0.36075026,-0.3828158,-0.052819405,-0.12254168,0.24067068,0.181652,0.18332836,-0.19881032,-0.23768401,-0.052759767,0.20596084,0.24255577,-0.28696725
family#F6F91,-0.31271186,0.0964028,0.003452933,-0.30286804,-0.0013347699,0.18082133,0.061133582,0.1382964,-0.21440673,0.23331235,-0.44481048,0.14269231,-0.23594818,-0.12897749,0.3937792,0.1227839,-0.26791134,0.06208534,-0.14626242,0.10047659,-0.23851688,0.051737245,-0.016700648,-0.17123397,-0.27201608,0.21578573,0.01998101,-0.0036203961,-0.22528996,-0.06873488,-0.0947881,0.40369728,0.394761,-0.0049068737,-0.26999366,-0.41185826,-0.09565995,-0.10533335,0.25645056,-0.36035213
family#F6F93,-0.3024813,-0.11413918,0.109813996,-0.32748973,-0.12509684,-0.004729797,0.07290096,0.33823603,0.054329555,0.33224896,-0.33684766,0.47090274,-0.32439184,-0.3882714,-0.09751234,0.11641575,-0.33001682,-0.1901928,-0.0101141725,0.11322164,-0.3191801,0.07154874,0.11844635,-0.15820049,-0.31579626,0.059793953,0.258123,-0.37527758,-0.2960064,-0.35251632,-0.1854678,0.22158626,0.359166,0.3312754,-0.154322,-0.19957706,-0.19079763,0.2200318,0.20229006,-0.044885974
family#F6F94,-0.1324845,0.16808078,0.24433024,-0.2419484,-0.14551179,0.04198886,0.14128985,0.17809515,-0.14331199,0.52588236,-0.045876164,0.35058957,-0.22411264,-0.3026024,-0.024368148,0.104969576,-0.077531055,-0.24692222,-0.06388749,0.09392164,-0.4916165,-0.18964289,-0.24790554,0.026777625,-0.23960945,0.1340853,0.2604233,-0.2369148,-0.2175828,-0.1953228,-0.24063067,0.46954435,0.2690122,0.32565743,-0.35342008,-0.5925357,0.056238856,-0.2657781,0.18127085,-0.23308384
family#F6F96,-0.04844038,0.3057318,0.06812943,-0.14474395,-0.23418652,0.13989124,0.2695112,0.10657012,-0.23240952,0.43620777,-0.20928667,0.21498455,-0.18003552,-0.012177731,0.5240809,0.18538393,-0.2413661,0.29244694,-0.14074838,0.26171434,-0.35508245,-0.2614051,-0.011278426,-0.06900861,-0.1545147,0.09160059,0.27400902,-0.425522,-0.3140377,-0.06084746,-0.07787259,0.38789362,0.28795844,0.39832664,-0.32692415,-0.5089005,0.03568185,-0.1165729,0.1090885,-0.4069604
family#F6F97,-0.121385105,0.32255313,0.1635698,-0.15900102,-0.2315773,-0.002636607,0.24837193,0.27806288,-0.09926776,0.34996453,-0.07456834,0.25025487,-0.27724937,-0.191472,0.491686,0.065246,-0.17083673,0.34502673,-0.07236988,0.23361462,-0.30358312,-0.2579837,-0.044018205,-0.0025216816,-0.21961387,0.10994944,0.26076397,-0.48162094,-0.26447096,0.06206308,-0.23022795,0.34601626,0.22008395,0.36963937,0.4170916,-0.49783266,0.05996719,-0.11121247,0.2472709,-0.13050587
family#F6M100,-0.022386013,0.10093484,-0.32550317,-0.21797009,-0.01216372,0.17638995,0.09359225,0.30786303,-0.091443785,0.36691844,-0.21215074,0.35648948,-0.28292784,-0.03707797,0.44083184,0.016201597,-0.31392807,-0.32446152,-0.5888486,0.12533599,-0.5570066,-0.3350333,0.19666459,0.0031797162,-0.21649382,0.067508556,0.18583895,-0.2048563,-0.52973145,-0.06423605,-0.071195565,0.41849455,-0.060118094,0.30214122,0.6364744,-0.17518508,0.2890615,-0.18245316,0.29190227,-0.18393634
family#F6M69,-0.5824493,-0.103960834,-0.28237218,-0.36423087,0.10435841,-0.277744,0.46821278,0.350623,0.107791126,0.5402201,-0.26367,-0.0031081855,-0.23380487,0.18229583,0.28358284,0.12709105,-0.25117767,0.22091334,-0.0889756,0.07936417,-0.22207764,-0.060200743,0.16214462,-0.12255184,-0.4191269,0.043064676,0.30039936,-0.086393096,-0.29216158,-0.44212103,-0.13495323,0.29027626,0.39490622,0.14676301,-0.14966966,-0.219936,-0.048333146,0.44571066,-0.12392745,0.113938175
family#F6M71,-0.3482385,-0.15529127,-0.30789655,-0.20896049,0.033435136,0.30545288,0.3665922,0.34385967,-0.061439633,0.6341907,0.13268664,0.1909909,-0.28276408,0.18161382,0.20322569,0.26599377,-0.3208562,-0.4870551,0.22930072,0.07279557,-0.29806197,-0.09000058,0.18463041,-0.0077105546,-0.45488775,-0.16814041,0.21595356,-0.24425848,-0.27858275,-0.1208247,-0.16521148,0.100605056,0.15989837,0.046525687,-0.15306616,-0.22710475,0.12952264,0.17366758,-0.013668587,0.05643423
family#F6M73,-0.3368001,0.14506364,-0.36768913,-0.31073916,0.19355184,-0.0632705,0.18732487,0.19759426,-0.1576871,0.2760194,-0.22056022,0.13373034,-0.10069378,0.19690046,0.28123417,0.23627101,-0.14684135,0.04987019,0.16196941,-0.08187508,-0.31540808,-0.25342304,0.11892224,-0.06450603,-0.5406682,0.25627336,0.14416008,-0.34811825,-0.24368817,0.045605715,-0.046241377,0.25397685,0.12810999,-0.025834858,-0.11099605,-0.03169208,0.13518864,-0.16720892,0.29696336,-0.10636094
family#F6M75,-0.3253369,0.11338608,-0.3731841,-0.27725983,0.17985083,0.16184078,0.26844275,0.18506564,-0.015104127,0.08203594,-0.25778955,0.23255816,-0.13047884,-0.025320455,0.22088586,-0.042226184,-0.35685307,0.051436972,-0.20144266,0.18964332,-0.2624629,-0.17858443,0.20706624,-0.19556838,-0.44868767,-0.023795249,0.071665734,-0.3739892,-0.3826186,0.066142075,-0.067136385,0.22745071,0.09438656,-0.055907182,-0.09019299,-0.13023773,0.12104262,0.15949562,0.3921401,-0.106216356
family#F6M78,-0.5204678,-0.10223211,-0.31356063,-0.37029868,0.082852475,-0.19850163,0.40158227,0.2926788,0.014466492,0.42167732,-0.2209635,-0.019591678,-0.21116884,0.22984806,0.38049883,-0.020244494,-0.31726158,-0.32653686,0.03788639,0.05672347,-0.24325539,-0.01566312,0.27048656,-0.25460684,-0.3720725,0.05037236,0.28306046,-0.13682595,-0.2326129,-0.33959118,-0.16934021,0.10049569,0.34400466,0.23731025,-0.23449649,-0.3972739,-0.16759568,-0.10492688,0.009593418,-0.0083464505
family#F6M80,-0.45756736,0.09248971,-0.29593575,-0.36470905,-0.028940307,-0.013902131,0.41152957,0.13527516,-0.14559682,0.3408697,-0.29230228,0.17185786,-0.20139962,0.021033978,0.16792062,0.09806434,-0.32601023,0.06420931,-0.043031286,0.29281226,-0.21035478,-0.08015251,0.26885158,-0.15417664,-0.291461,0.06367042,0.1481889,-0.044785976,-0.26434767,-0.18414283,-0.13569725,0.116597645,0.40453655,-0.0136890635,-0.033247437,-0.31712645,-0.077643655,-0.09842108,0.27911592,-0.21068363
family#F6M81,-0.118286036,-0.011974826,-0.40882367,-0.1943408,0.041744705,0.032458995,0.2778193,0.21589531,-0.10315274,0.47815338,-0.110610895,0.30525243,-0.19524282,0.19479518,0.19329584,0.2870018,-0.2396526,0.13206801,0.021322146,0.1324943,-0.32281536,-0.44258314,0.19765644,-0.06362263,-0.3293837,-0.074797176,0.19314265,-0.27529436,-0.27036008,-0.098000824,-0.25764692,0.121613115,0.1515185,0.23277463,0.17321998,-0.5175544,0.21207127,-0.33231074,0.16527386,-0.12169261
family#F6M85,-0.31513268,-0.235346,-0.26645917,-0.35568878,-0.050676532,0.14544931,-0.020852398,0.3009675,-0.052403234,0.34268594,-0.37121165,0.5626254,-0.3605475,0.16907549,0.28392023,0.021702277,-0.18967623,-0.42887264,0.03327052,0.1520608,-0.24650732,-0.01455778,0.22587402,-0.20026997,-0.17213325,0.16863677,0.2413164,-0.16119535,-0.14923723,-0.106910095,-0.15757737,0.26982757,0.51143926,0.12139385,-0.15349863,-0.53865427,-0.15810871,-0.046418745,-0.13135277,-0.13649215
family#F6M88,-0.47127762,-0.020505982,-0.31075755,-0.32135192,-0.07499711,0.43102312,0.09899219,0.092883795,0.043297578,0.19636907,-0.1817289,0.11598597,-0.24586782,0.09939729,0.04902365,0.10066778,-0.3703904,0.14878008,0.06287151,0.12877238,-0.14757347,-0.072916806,0.25556296,-0.28262892,-0.24696581,0.32453158,0.058287974,-0.016635908,-0.4110266,-0.10062768,-0.2886,0.4325845,0.374764,0.20663853,0.059854805,-0.258921,-0.043961313,-0.27331543,0.21667011,-0.089383535
family#F6M90,-0.06658984,0.06257356,-0.35356933,-0.16705209,-0.11865575,0.26678222,0.19067006,0.2092154,-0.17308086,0.19004434,0.07596288,0.43617284,-0.22204709,0.032403413,0.23175037,0.22430512,-0.38278088,0.058699965,0.13319467,0.2518787,-0.2890359,-0.07051779,0.22395413,-0.10757407,-0.28598627,0.24737307,-0.05542724,-0.11435964,-0.37021333,-0.09525741,-0.1634828,0.5698872,0.19067329,0.050822746,0.17884037,-0.48580962,0.29112652,-0.45189828,0.26190406,-0.21773778
family#F6M92,-0.15419877,-0.2417748,-0.26764145,-0.19554126,-0.11643603,0.14750929,0.11346375,0.4492865,-0.095772,0.577719,-0.08828136,0.45777676,-0.35451713,0.25214013,0.34775054,0.19556561,-0.37072033,-0.5120829,-0.108138934,0.08651805,-0.41700494,-0.14073496,0.15405513,0.01724009,-0.30092645,-0.1605156,0.28566086,-0.27133748,-0.12465844,-0.29316077,-0.119030215,0.057299525,0.2638222,0.26391485,-0.22663184,-0.21711212,0.1360042,0.2967982,-0.069634266,-0.17012945
family#F6M95,-0.4042361,-0.15893158,-0.2697542,-0.40570268,-0.13433012,0.0002388708,0.25757042,0.15379302,0.035506874,0.36933854,-0.37863624,0.27579728,-0.2570487,0.18381941,-0.15547086,0.043362647,-0.38853225,-0.104158215,0.081453994,0.10382905,-0.21783248,-0.045377776,0.24820192,-0.3218921,-0.13407327,0.13911274,0.22779816,-0.018212518,-0.4034278,-0.2810093,-0.09767825,0.38915658,0.39650947,0.26827005,-0.147951,-0.340562,-0.06334505,-0.2211532,0.15321897,-0.122350976
family#F6M98,-0.36528757,0.010443897,-0.21371315,-0.40219983,-0.10701529,-0.12186725,0.23287252,0.19441265,-0.11093312,0.22657071,-0.3538699,0.15523729,-0.25386187,0.14362858,0.16087495,0.017274667,-0.34217182,0.15819122,-0.073084444,0.116664,-0.1536315,-0.009790295,0.2136973,-0.35361314,-0.17857768,0.113726646,0.16355461,-0.29054195,-0.27917883,-0.035747353,-0.062971495,0.3244713,0.31180394,0.12551914,-0.27769336,-0.35562435,-0.03955793,-0.025638478,0.27835813,-0.07718463
family#F6M99,-0.40790623,0.18154006,-0.3100942,-0.27758592,-0.21612945,0.28266394,0.3812682,0.20939831,-0.16668776,0.07675942,-0.10952961,0.25881666,-0.14674611,-0.008963786,0.18416347,0.13591062,-0.43131015,0.0016818637,-0.16556634,0.12716876,-0.19274352,-0.13712862,0.23903634,-0.06664331,-0.19148998,-0.021103473,0.09712208,-0.36957985,-0.45857975,0.02263556,-0.1379922,0.28270748,0.12689237,0.27703658,-0.35405457,-0.49890184,0.16785066,0.2872469,0.36442715,-0.20711087
family#F7F103,-0.47367388,-0.044004556,0.053368963,-0.33221823,0.09759259,0.506186,0.2970835,0.15806787,-0.16625772,0.15923415,-0.1745505,0.05914358,-0.25206017,-0.28576884,0.09104346,0.11318002,-0.27873334,-0.057929367,0.1348118,0.17187832,-0.18223196,-0.06420776,-0.037546497,-0.153987,-0.49518573,0.28014797,0.28111264,0.060059987,-0.23514423,0.11764025,-0.18680038,0.3737278,0.35011542,0.11921969,-0.25834522,-0.31137446,-0.055124592,0.33605552,-0.018348902,0.023125771
family#F7F105,-0.43150905,-0.031268016,0.076572806,-0.3284618,0.03129763,0.46405134,0.49828872,0.12304925,-0.06088463,-0.039830316,-0.32175085,-0.012299057,-0.20395361,-0.34861928,0.24172169,0.10192337,-0.38812667,-0.38440293,0.2697243,0.33019018,-0.1972843,0.053466085,0.024804614,-0.12583883,-0.50543886,0.2812903,0.5495188,-0.07617755,-0.22795406,0.11036253,-0.22737406,0.105110146,0.36672363,0.020885633,-0.20117314,-0.40136418,-0.12366892,-0.20064288,-0.17354156,-0.07981034
family#F7F106,-0.06679879,0.16252105,0.19191286,-0.1853521,0.17038518,0.41476783,0.45004457,0.28975338,0.031820282,-0.02873698,0.037666548,-0.024189023,-0.17656034,-0.19517171,0.3697185,0.26656583,-0.20803955,0.34230697,0.12428717,0.10525088,-0.31731346,-0.45137984,-0.16745244,-0.14246672,-0.4156844,0.46158186,0.71501565,-0.2025741,-0.28408578,-0.19893335,-0.19472373,0.13128613,0.0957783,0.17850117,0.28614533,-0.4729125,-0.047599245,-0.41083872,-0.10342095,0.03866325
family#F7F108,-0.11932667,0.18799007,0.20131688,-0.22647832,0.013713938,0.1995814,0.39207873,0.1812942,-0.19448979,0.26141652,0.067822196,0.13708101,-0.16028014,-0.22331436,0.26271787,0.26682627,-0.14301288,0.2701375,0.10826119,0.03651794,-0.38183355,-0.21333426,-0.21467806,-0.006742718,-0.52767414,0.5233554,0.40517455,-0.34600565,-0.19138797,-0.15571766,-0.3310504,0.061634704,0.14095998,0.2998323,-0.2482688,-0.24910557,0.039251678,0.39723277,-0.05168147,0.08516866
family#F7F111,-0.2842852,0.10233452,0.0043939683,-0.34560496,0.049085494,0.10066755,0.31008342,0.29904702,-0.070661604,0.13092734,-0.32038313,0.029035233,-0.2145263,-0.29637447,0.15745635,0.35833898,-0.29921913,-0.13783333,-0.2762765,0.11651984,-0.2439911,-0.078201264,-0.0033895627,-0.089632966,-0.5078077,0.18294068,0.26649535,-0.0068831635,-0.26127666,-0.00038135168,-0.19407229,0.12171345,0.25781935,0.12798043,-0.11027091,-0.104279704,-0.105205834,0.2925355,0.2321011,-0.15929145
family#F7F114,-0.3224207,0.10775495,-0.045710366,-0.33680803,0.027750937,0.09518443,0.334106,0.23533662,-0.20131509,0.22783346,0.112371586,0.14140241,-0.143321,-0.11209039,0.40804723,0.23727189,-0.22302848,0.109536245,-0.055083398,0.14713436,-0.22465648,-0.18117766,-0.0007167508,-0.19275346,-0.43663347,0.16933788,0.31765127,-0.0891201,-0.14724532,-0.11248995,-0.4659973,0.029252503,0.38403916,0.04653206,0.02402745,-0.32163456,-0.096379794,0.16738844,0.25816634,-0.10352422
family#F7F116,-0.37384966,-0.00324867,0.04847639,-0.37163165,0.09893518,0.20917049,0.5017614,0.23198551,0.010463707,0.10483763,-0.37837192,-0.13533357,-0.25405458,-0.22632761,0.0409095,0.117000125,-0.31233817,0.23447189,0.043766476,0.21609534,-0.18424952,0.024687478,-0.02125631,-0.31058723,-0.28277034,0.20835324,0.27986845,0.05734896,-0.34768865,-0.11177644,-0.17673609,0.103109695,0.30356103,0.0824928,-0.1435766,-0.45019314,-0.14322987,-0.3544853,0.0479102,-0.1457271
family#F7F118,-0.16058902,0.26614198,0.11076533,-0.19292204,-0.15468544,0.10444427,0.4709933,0.12498582,-0.09100389,0.14734004,-0.17485471,0.17257938,-0.11868049,-0.021990636,0.4186644,0.27406117,-0.1947248,0.38875017,0.046105634,0.26266,-0.32011706,-0.15007406,-0.21509472,-0.022344466,-0.2867944,0.2546993,0.25114292,-0.28054896,-0.30166143,-0.2892994,-0.14634696,-0.005679304,0.26245576,0.110516384,-0.06513351,-0.4950316,-0.072534755,0.34388718,0.116867304,-0.2405022
family#F7F119,-0.061098304,0.2553618,0.12018186,-0.19886512,0.019798197,0.033754576,0.45092466,0.24712917,-0.11316624,-0.09908918,0.12937385,0.14720672,-0.19946112,0.0010629462,0.14660011,0.20099854,-0.2669802,0.27132854,0.18404724,0.28594822,-0.23862202,-0.24651377,-0.075940154,-0.1263868,-0.35155848,0.46081153,0.74877024,-0.110267,-0.32654318,-0.16996902,-0.20885305,0.06959958,0.22658369,0.13595569,-0.00546051,-0.577442,0.0482891,-0.40798527,0.0748961,-0.1967301
family#F7F121,-0.0718627,0.17411278,0.21811312,-0.2143569,0.04478035,-0.060040887,0.54520476,0.2760324,-0.123326026,-0.04663487,-0.32252377,0.48460177,-0.21702687,-0.17662105,0.27453113,0.3012993,-0.10406683,0.27133572,0.14098625,0.12750213,-0.3371448,-0.106562324,-0.19050783,-0.034219768,-0.37746665,0.44080997,0.59895813,-0.12390917,-0.10026627,-0.044144817,-0.027284725,0.09569317,0.22794522,-0.16156237,-0.15494077,-0.33941507,-0.12703882,-0.27896336,-0.21785262,-0.19643259
family#F7F124,-0.3642625,-0.133887,0.0639979,-0.3700742,0.055934373,0.0930716,0.031607967,0.33857414,0.02021575,0.022240737,-0.26607987,0.34117636,-0.33625963,-0.37923864,0.07570711,0.1752755,-0.23263505,-0.067895055,-0.01926782,0.093617246,-0.20230615,-0.02174401,-0.1364083,-0.23919435,-0.30964532,0.15097316,0.19121763,-0.14607802,-0.31983092,0.13683376,-0.18262886,0.4003551,0.37817383,-0.37110838,-0.1969057,-0.14615564,-0.032261126,0.30374557,0.16718006,-0.3269368
family#F7F126,-0.40933445,0.114727296,0.022161596,-0.41662052,0.050554093,0.07907002,0.07672675,0.22840498,-0.10795782,0.029133458,-0.34308165,0.19143042,-0.27240032,-0.08588227,-0.005850154,0.29430968,-0.3103451,-0.043322302,-0.27132687,0.2263989,-0.13763925,-0.0054769823,-0.077062905,-0.1888918,-0.3272465,0.16687386,0.0676894,-0.041165847,-0.49570194,-0.004646477,-0.06370153,0.2986462,0.3373263,0.02044229,0.0023456342,-0.24344727,-0.010753519,0.005463829,0.34032094,-0.3147381
family#F7F127,-0.1699518,0.35938695,0.10699983,-0.18079703,-0.13495827,-0.0150253875,0.1000698,0.4196706,-0.005386188,-0.14976208,-0.09836306,0.29395658,-0.24639817,-0.20516872,0.37077564,0.029901117,-0.29784232,-0.33045658,-0.017583225,0.35080287,-0.28123212,-0.1896731,-0.23845856,-0.05898147,-0.32258528,0.21876004,0.09540945,-0.15214895,-0.38553458,-0.03205675,-0.19075383,0.37210968,0.13764739,-0.28817207,0.07384782,-0.24401481,0.0030288273,-0.045706198,0.3237636,-0.17167726
family#F7F129,-0.3026543,0.23982988,0.03849247,-0.27805585,-0.19058058,0.26846665,0.112065405,0.21016333,-0.14351988,-0.04720084,-0.42410243,0.24374655,-0.20017102,-0.030247137,0.27634835,0.16078821,-0.19308358,0.15061314,-0.2170486,0.09922654,-0.32504207,-0.100020796,-0.057253513,-0.09498005,-0.26541087,0.04803054,0.096732415,-0.12599324,-0.36058438,-0.06251392,-0.03727061,0.3258199,0.31404665,-0.04374133,-0.26512823,-0.2766541,-0.042221636,-0.19838502,0.3432078,-0.36678347
family#F7M102,-0.41228783,-0.08331449,-0.24044923,-0.37159076,-0.028046777,0.4340894,0.36266637,0.20723471,-0.09218017,0.16240194,-0.20117879,0.1053352,-0.20757838,0.24059233,-0.005429795,0.173083,-0.2585613,-0.042526186,0.15813598,0.057076495,-0.19450746,0.06765676,0.20068823,-0.08219895,-0.5292085,0.31401828,0.264014,0.04815426,-0.27981627,0.0868965,-0.21092977,0.40139526,0.41515788,0.17757887,-0.07079545,-0.31301257,-0.10857008,0.29091528,-0.003737029,-0.013332279
family#F7M104,-0.48451418,-0.15165406,-0.3227471,-0.22142844,0.17905818,0.38321695,0.60471165,0.045386534,0.017546782,-0.05806109,-0.06476765,-0.050666023,-0.33581075,0.21895903,0.5184602,0.07283757,-0.22083184,-0.47299445,0.19255723,0.11913322,-0.2858337,-0.037452456,0.22100218,0.009187838,-0.4255622,0.5276753,0.3789462,-0.16609454,-0.3530418,0.13236672,-0.12789494,0.16817445,0.16287515,0.21091418,-0.1841968,-0.34512505,0.028544033,-0.15057294,-0.24821962,-0.164737
family#F7M107,-0.47572508,-0.096066624,-0.29833165,-0.44026256,0.12887271,0.43152377,0.45311323,0.15347688,-0.07258588,0.19175786,-0.3936579,-0.15981685,-0.3117536,0.17701617,0.22517644,0.13710257,-0.29824734,0.31900296,0.044490103,0.03664455,-0.24720484,0.045835037,0.21105652,-0.27465147,-0.5089597,0.3093403,0.32863864,-0.07479088,-0.15594342,-0.18293773,-0.083274394,0.22392528,0.2790981,0.18979537,-0.18753551,-0.31185436,-0.13833484,-0.15840265,-0.13028787,0.12470709
family#F7M109,-0.24483125,-0.09294486,-0.32652643,-0.34353024,0.06724343,0.24549401,0.37082747,0.20515418,0.013633807,0.32218435,-0.39158735,0.03742686,-0.26561254,0.09791305,0.17388552,0.23629697,-0.2271673,0.24613717,0.055736184,-0.012509503,-0.21949929,-0.017271018,0.29788557,-0.4407601,-0.44679692,0.31049708,0.23282777,-0.09796528,-0.37025496,-0.026724666,-0.13228701,0.17768319,0.38549417,0.26342455,-0.030235158,-0.17253122,-0.17660876,0.1488285,0.03721212,0.068683594
family#F7M110,-0.31326273,0.07009446,-0.3011491,-0.29231617,0.1496712,0.0689937,0.40842697,0.10528125,-0.08315295,0.16047019,0.0040709814,0.09265683,-0.12999277,0.1748181,0.32918844,0.20199268,-0.32491234,-0.27133346,0.19991577,0.0018803602,-0.29580158,-0.21250738,0.2093098,-0.24031334,-0.40926534,0.31363454,0.29390356,-0.34604055,-0.2883896,0.026719715,-0.13704342,0.11786367,0.06634636,0.3617775,-0.21500354,-0.06400686,0.10865597,0.3933052,0.2693806,-0.19205101
family#F7M112,-0.269592,0.17784294,-0.33339205,-0.30077577,0.0016560797,0.14378178,0.4593576,0.26807743,-0.23542656,0.030823562,-0.094649784,0.24015184,-0.010242155,0.0066435137,0.3998051,0.070271604,-0.38715562,-0.45431468,-0.09332109,0.16131534,-0.30898264,-0.14102972,0.23302339,-0.076396845,-0.39090565,0.1983938,0.27129182,-0.22983336,-0.31592527,-0.09168178,-0.24923356,0.090972796,0.08370132,0.35528573,-0.14003593,-0.0895879,0.11774084,-0.2005565,0.44322285,-0.39134473
family#F7M113,-0.16358829,0.07566608,-0.33050877,-0.19668376,0.022680057,0.022182856,0.43177336,0.014753768,-0.13170186,0.27488986,-0.46312487,0.18947381,-0.08514469,0.03193068,0.13410631,0.15692542,-0.2657246,0.2035099,0.21244694,0.12091528,-0.3318569,-0.23054096,0.20459223,-0.13329251,-0.49362117,0.4841657,0.2880625,-0.44219518,-0.3883466,-0.09744811,0.14385486,-0.020152317,0.112465374,0.16687891,-0.14005193,-0.25291434,0.23409733,0.41579142,0.12446624,-0.05497229
family#F7M115,-0.07541737,-0.025170563,-0.43175486,-0.28023607,0.021212524,0.13945803,0.4351703,0.21514736,-0.132177,-0.06199332,0.006966629,-0.05916316,-0.16435203,0.16764899,0.19426255,0.07544123,-0.34127814,0.26919314,0.13225909,0.25993827,-0.2664142,-0.2688008,0.24487267,-0.116098806,-0.33437404,0.47156978,0.59152085,-0.042189233,-0.24123366,-0.17995195,-0.14107549,0.102987126,0.1539545,0.113649026,-0.166637,-0.5360542,0.23648171,-0.40774003,-0.09925506,-0.11670418
family#F7M117,-0.25022346,0.05671707,-0.39977103,-0.09370043,-0.16247465,0.13104153,0.61568975,0.13574277,-0.14581059,0.14055815,-0.12763919,0.25857225,-0.067636885,0.024849502,0.4369032,0.24431534,-0.34313002,0.34961042,0.08543325,0.117019944,-0.36808214,-0.22496454,0.22651505,-0.06577238,-0.40150604,0.22758968,0.21313691,-0.28278592,-0.20368442,-0.23874953,-0.1609883,-0.038770396,0.10888277,0.12975797,-0.13135359,-0.37184352,0.20841716,0.32194963,0.1647173,-0.41828343
family#F7M120,-0.28023547,0.079875946,-0.25855234,-0.31281695,-0.054240093,0.12388264,0.37845287,0.12589449,-0.1893685,0.05256465,-0.50855476,0.12625727,-0.18238726,-0.0039923536,0.54422927,0.17796984,-0.34806797,0.051723465,-0.3230048,0.21142986,-0.2497768,-0.04798144,0.3244149,-0.22926185,-0.28042847,0.18731816,0.31795278,-0.051690593,-0.22876725,-0.016545674,-0.014856257,0.06964358,0.36658144,-0.108393714,-0.21851926,-0.27702573,-0.09717719,-0.072824046,0.057691578,-0.1463863
family#F7M122,-0.35684565,-0.13501537,-0.33502543,-0.37262368,-0.09972548,0.0058517647,0.4581207,0.25159588,0.10250643,0.059803594,0.086709805,0.39124653,-0.36749515,0.26666737,0.1217401,0.18970856,-0.27364382,0.21221384,0.15226762,0.09853223,-0.23024586,0.13759592,0.21450768,-0.1630683,-0.44860655,0.2004311,0.42041406,-0.08071686,-0.3316411,0.0835462,-0.23140185,0.21280289,0.43473858,-0.22573678,-0.052178115,-0.36233795,-0.21419053,-0.06325067,-0.13264647,-0.18900849
family#F7M123,-0.1343018,-0.15344168,-0.40781015,-0.26087373,-0.029729623,0.14282718,0.11557245,0.24494746,-0.09539848,-0.04619751,-0.17671381,0.29717714,-0.2946488,0.28783724,0.21060225,0.22788851,-0.19033381,0.052229576,0.20328659,0.22228828,-0.41397545,-0.349004,0.033729006,-0.04780617,-0.35660213,0.14183803,0.2749159,-0.19627969,-0.24476187,0.015640521,-0.15859537,0.5035317,0.2230363,-0.30953905,-0.15649794,-0.13950673,0.23192088,0.39468834,-0.014301139,-0.23606491
family#F7M125,-0.09418077,0.06009271,-0.373366,-0.112896524,-0.14557265,0.1460245,0.118257836,0.36021698,-0.16402775,-0.112905845,0.00925876,0.20925939,-0.16485463,-0.06147209,0.4534835,-0.02807354,-0.43013963,-0.31329164,-0.06021219,0.2550742,-0.35001886,-0.05141612,0.3127288,-0.07924946,-0.37653762,0.2329697,-0.0018391219,-0.19754443,-0.18841845,-0.10276321,-0.21998237,0.41939864,0.17703223,-0.31930056,-0.2489121,-0.21426271,0.13409565,-0.032156218,0.30684915,-0.325148
family#F7M128,-0.3431808,-0.004373433,-0.26667258,-0.39168218,-0.103696086,0.03693572,0.036351457,0.3198895,-0.11432222,0.061275017,-0.29771966,0.18391435,-0.18273368,0.23861337,0.16838787,0.1437836,-0.41543755,-0.16343495,-0.020152653,0.08061871,-0.11798671,-0.04614124,0.19544278,-0.16858642,-0.25022045,0.13962212,0.13197605,-0.09047385,-0.28772432,0.0644228,-0.15090959,0.38034964,0.388259,0.03497595,-0.124534175,-0.30540577,-0.0456244,-0.10005724,0.34130195,-0.19227697
family#F7M130,-0.4528568,0.13128282,-0.2953188,-0.369318,-0.030828845,0.10666969,0.1147728,0.18630415,-0.1252077,0.029403351,0.11556715,0.20075671,-0.24454874,-0.02996179,0.2798619,0.17946766,-0.33521426,0.05653314,-0.11325124,0.24494503,-0.2502618,-0.052424278,0.22369847,-0.1905059,-0.2600814,0.1940781,0.09446395,-0.048967905,-0.30877087,-0.05673798,-0.35522366,0.2837432,0.29772854,-0.0026408471,0.017040623,-0.25374126,-0.030189248,-0.011239938,0.33796784,-0.30909336
family#F7M131,-0.14209747,0.032317415,-0.3257762,-0.121156864,0.02442902,0.13366306,0.52358645,0.1303268,-0.19447558,-0.03655229,-0.1780341,0.2626889,-0.09251352,0.03838707,0.37966633,0.23219578,-0.33259323,0.09784565,0.2925049,0.27616215,-0.3331909,-0.29209018,-0.0055617928,-0.102612056,-0.37817943,0.1559196,0.24726363,-0.34014302,-0.28613487,-0.27254516,-0.24062036,0.46480632,0.15359956,-0.26889867,-0.06943612,-0.1952941,0.2300056,0.36304533,0.06442,-0.41474172
family#F8F133,-0.34657463,-0.09801969,0.12817056,-0.3524941,0.13285896,0.062722206,0.018652234,0.4128592,-0.020114621,0.13173582,0.004820725,0.50122094,-0.2561236,-0.35580826,0.3501335,0.28271225,-0.2759974,-0.14244145,-0.060942437,0.10230491,-0.19529308,-0.04234924,0.019991659,-0.13028696,-0.60102457,0.1576996,0.17414087,-0.12054245,-0.24346666,0.048994746,-0.31429762,0.36159566,0.27953047,-0.015717495,-0.14485054,-0.15118104,-0.029124541,-0.011148999,0.107213534,0.17059574
family#F8F135,-0.26385787,-0.0354547,0.05428603,-0.31619495,0.11261863,0.20134155,0.1735392,0.30226934,-0.07872756,0.10346244,-0.31209114,0.3128082,-0.1512596,-0.3576561,0.07737934,0.29081836,-0.23559548,0.015678402,-0.00077567727,0.052641425,-0.25359455,-0.027133107,-0.019926494,-0.25722352,-0.62149364,0.20271131,0.20089535,-0.021513997,-0.2884394,0.035257146,-0.17273486,0.47719827,0.27935776,0.124874055,-0.1239351,-0.01870437,-0.07606213,-0.10819635,0.22256742,0.088916406
family#F8F137,-0.31458387,0.04296039,0.014956122,-0.282883,0.08048455,0.19768997,0.2196948,0.24718943,0.018882694,0.003971642,-0.17528476,0.1422551,-0.24744795,-0.23335992,0.20358859,0.30689067,-0.28089562,0.12760527,-0.06623888,0.07834878,-0.23508959,-0.081089824,0.00066972006,-0.22893389,-0.535582,0.19108471,0.24690597,0.059451703,-0.41479987,0.095667325,-0.10323907,0.2938041,0.27611268,0.20208926,-0.1398508,0.0072342097,-0.09469438,0.040011764,0.27843878,-0.17289263
family#F8M132,-0.46567598,-0.0942259,-0.20479092,-0.3432271,0.07641787,0.0625432,0.07717362,0.39500168,-0.038958047,0.13964944,-0.33013555,0.56504303,-0.2716913,0.21792652,0.28392673,0.2556838,-0.2274411,-0.078246675,0.0027766912,0.03301836,-0.1840385,-0.010709242,0.19578515,-0.15834667,-0.66363806,0.16828541,0.15646237,-0.10842568,-0.23854457,-0.009848687,-0.096729435,0.34600726,0.2417009,0.09209457,0.057300616,-0.20921822,-0.095531,0.0034898454,0.07857659,0.1933153
family#F8M134,-0.44569352,-0.0714737,-0.3243337,-0.32424387,0.39425102,0.23275729,0.18826662,0.2652013,-0.022821896,0.020418597,-0.10834233,0.2492701,-0.2483079,0.2612954,0.19826001,0.3228061,-0.23107365,0.015242311,0.005600844,-0.042172447,-0.26449686,-0.26000127,0.099551834,0.02850418,-0.5976157,0.21642023,0.0062968587,-0.12005977,-0.38481647,0.06221024,-0.1373979,0.5732673,0.027675819,0.1492082,-0.17237075,-0.04148827,0.062152855,-0.08666478,0.18530758,0.09063196
family#F8M136,-0.2970608,0.08607674,-0.33657402,-0.31303462,0.2757188,0.16235377,0.25274986,-0.006200713,-0.13940415,-0.05602111,-0.22449365,0.11228085,-0.061016753,0.17238156,0.48034766,0.009440275,-0.32164025,0.18630488,-0.07230893,0.09914199,-0.37404397,-0.013843009,0.15268491,-0.04638897,-0.5880454,0.2943709,0.1986406,-0.10045177,-0.16365708,0.04273409,-0.2089567,0.3670295,0.25028044,0.24369325,-0.17803872,0.049166128,0.11202998,0.051507097,0.24398308,-0.086208954
family#F8M138,-0.23001276,0.14587912,-0.3141348,-0.31397027,0.20314404,0.06395644,0.3105681,0.1706339,-0.10949855,-0.06169505,-0.23218398,0.23290186,-0.1389385,-0.010336872,0.24405737,-0.10140673,-0.28272432,-0.07649708,-0.084182605,0.22461224,-0.3866477,-0.10728706,0.22814104,-0.07696447,-0.4985205,0.2635506,0.23448728,-0.17745958,-0.3572726,-0.16608295,-0.17456321,0.21103562,0.123586535,0.29935586,-0.10217038,-0.043952804,0.11606083,0.21881601,0.42881,-0.25697342
family#F9F140,-0.3472278,-0.012992866,0.029243242,-0.3130873,0.14557569,0.42151454,0.022075513,0.2656151,-0.0738263,0.26673737,-0.41171777,0.0765116,-0.23792128,-0.31899202,0.12646796,0.38992405,-0.1895639,-0.35650304,0.0737522,0.01745588,-0.263199,0.0017138561,-0.057161048,-0.13497475,-0.6778926,0.37865925,0.059299383,-0.13687778,-0.24327096,-0.09654787,-0.003023939,0.48557162,0.52605975,-0.11164656,-0.12924609,0.18653125,-0.12156594,0.19955559,-0.0715598,-0.1944655
family#F9F141,-0.13031527,0.058003668,0.153269,-0.23690987,0.22219272,0.033380017,0.0017479386,0.5082823,0.08223331,0.13261801,-0.1780598,0.3318521,-0.6644384,-0.21714419,0.3567562,-0.27040118,-0.21814807,-0.117451064,0.032873347,0.2641652,-0.26506782,-0.26156774,-0.2523507,-0.15319327,-0.40515715,0.5010255,0.119177766,-0.30797768,-0.44573763,0.25972313,-0.12400035,0.20709355,0.22255605,-0.22296175,-0.14190009,0.029864207,-0.023777649,-0.5021005,-0.029549805,-0.19422147
family#F9F143,-0.12101157,0.23765044,0.2363297,-0.2851843,-0.03683017,0.4468871,0.36686715,0.53386086,-0.008333076,-0.13824552,-0.19374822,-0.122936815,-0.31179756,-0.36524624,0.26583153,-0.055136938,-0.38227153,0.47475326,0.06387095,0.19317915,-0.34275246,0.11259996,-0.26374313,0.0039917063,-0.325787,0.19693314,0.023225365,-0.060657192,-0.42750016,0.15955189,-0.20421146,0.3400864,0.17299303,-0.2517193,-0.24354126,-0.23496483,0.07902484,0.030438852,0.13140954,-0.23401438
family#F9F145,-0.0756637,0.34919053,0.1738,-0.19858816,-0.24015142,0.119213164,0.40136573,0.51461685,-0.16599931,-0.16299185,-0.07559926,0.26693338,-0.16101015,-0.12462044,0.52833754,0.3563777,-0.27371877,-0.0344961,-0.011505,0.28847906,-0.32479152,-0.0666974,-0.07212376,0.07491995,-0.3312844,0.35596493,0.5545679,-0.03450045,-0.23622586,-0.010105397,-0.29247698,-0.07947466,0.18728994,-0.19564342,-0.25300512,-0.328178,0.010743824,0.44830903,0.092260174,-0.35336185
family#F9F148,0.0014650942,0.39828807,0.12666948,-0.18439756,-0.15966597,0.036856707,0.41556975,0.28386208,-0.14688379,-0.13727944,0.09593991,0.2667122,-0.13659455,0.012875865,0.34166002,0.21532078,-0.26791131,-0.054099493,-0.028666738,0.36656037,-0.38570443,-0.08716715,-0.0066527124,0.010863511,-0.34103325,0.37213382,0.52407235,-0.102535725,-0.36641234,-0.082242645,-0.38236678,-0.102038056,0.3388376,-0.183241,-0.22754157,-0.4593531,0.062078256,0.45729774,0.20512769,-0.25119367
family#F9F150,-0.016690433,0.38146234,0.05989137,-0.16542032,-0.18142542,0.1400326,0.51084507,0.44865018,-0.12597935,-0.08999232,-0.40947306,0.28749943,-0.14277141,-0.020081185,0.5025211,0.35038418,-0.2183697,-0.056063563,0.030892972,0.39379218,-0.31150347,-0.20787574,0.024222026,0.020445285,-0.30993274,0.34404314,0.48182687,-0.20647576,-0.37372068,-0.056837562,-0.14544135,-0.055760495,0.20027691,-0.18775448,0.24914941,-0.3141669,-0.0027925998,0.463364,0.22104263,-0.28382283
family#F9F152,-0.37193847,0.11095091,-0.017109962,-0.39623868,0.017211117,0.058316782,0.040786985,0.4079893,-0.15964903,-0.043832205,-0.009171934,0.17416024,-0.28939027,-0.13695903,0.44451082,0.22681552,-0.24890617,0.15336563,-0.13903025,0.14578462,-0.20900205,0.01310649,0.034551036,-0.17147854,-0.3955713,0.15940143,0.08808491,-0.13641188,-0.2808705,0.061654236,-0.2230032,0.27196604,0.2831778,0.0021406368,-0.3426928,-0.38218808,-0.03858166,0.06660067,0.31504095,-0.25408497
family#F9F154,-0.33689746,0.0052562873,0.030280344,-0.25998423,0.15311414,0.045110982,-0.052089006,0.3743291,0.050391283,-0.059129633,-0.16257821,0.30129835,-0.2804609,-0.21407251,0.25962028,0.20542377,-0.2692136,0.29890287,0.01207625,0.092262134,-0.15839165,-0.11012836,-0.004995026,-0.2670147,-0.38728067,0.16918495,0.064355455,-0.18199076,-0.46071807,0.13964418,-0.19260764,0.40151975,0.2918539,0.044265326,-0.028547486,-0.23135251,-0.101167396,0.1510938,0.37652734,-0.1215362
family#F9F156,-0.29157922,0.148403,-0.015285921,-0.29163826,0.1412244,0.049072865,0.038752288,0.29659426,-0.041865658,0.04541058,-0.5498254,0.20141697,-0.21833672,-0.10479589,0.19699186,0.21933566,-0.27603912,-0.0025101714,-0.1282716,0.19033737,-0.23849966,-0.12336125,-0.046565104,-0.28561723,-0.30428687,0.07865122,0.08369953,0.038326688,-0.33294028,-0.08011469,0.022293068,0.3424348,0.35364676,-0.07914212,-0.105731055,-0.374375,-0.09673341,0.08548846,0.37179747,-0.26414704
family#F9F158,-0.41302994,-0.019390862,0.07807549,-0.4520901,0.04129229,0.59544927,0.2647585,0.37132922,0.030348906,0.21221332,-0.20738354,-0.16803633,-0.28128174,-0.40690428,0.0200883,0.2102877,-0.141898,0.0070682913,-0.12811479,-0.06460756,-0.16591652,-0.01743471,-0.04281077,-0.06427447,-0.4831123,0.38872746,0.25263566,-0.21771277,-0.34090814,0.13631186,-0.17031005,0.14374834,0.19228904,-0.14442731,-0.22585456,0.06176701,-0.14809176,0.018879674,0.29889685,-0.068546586
family#F9F160,-0.3863813,0.08968929,0.0127196135,-0.41948098,-0.029116604,0.23532146,0.28905448,0.39321798,-0.11518824,0.00043074045,-0.10721452,0.024876965,-0.24918449,-0.29230002,0.2131488,0.3119607,-0.33225352,-0.10030269,-0.3196267,0.07049903,-0.15538569,0.04564759,-0.0013455726,-0.11971651,-0.45117357,0.2634838,0.2940273,-0.13199192,-0.17755923,0.170259,-0.26033944,-0.051470786,0.21617594,0.062193323,-0.37317973,-0.06652719,-0.048284322,0.071829975,0.38136533,-0.14388426
family#F9F163,-0.35181972,0.029855723,0.069968596,-0.46448615,0.123686835,0.3191039,0.25251397,0.30105007,0.043660104,0.018714232,-0.10563437,0.007165013,-0.22847731,-0.20657592,-0.16782376,0.045870177,-0.36316517,-0.1836787,0.013645842,0.21824759,-0.21927822,0.029319443,0.0010698922,-0.26533806,-0.4925062,0.2951457,0.23500146,-0.10817403,-0.42141542,0.16705567,-0.17444111,-0.042122155,0.093754,-0.312234,-0.1107728,-0.53012407,-0.11469698,0.0052415747,0.30295634,-0.33843648
family#F9F164,-0.03745899,0.32856506,0.12887327,-0.21442342,0.027389094,0.11411779,0.26984906,0.24591736,-0.21762404,-0.13098878,-0.40676022,0.19602546,0.010180404,0.0123953875,0.4743832,0.14685096,-0.1367698,-0.006742822,-0.07077723,0.33900186,-0.43681124,-0.3268381,-0.19783282,0.032701384,-0.4319717,0.3652678,0.14593704,-0.07989561,-0.1855071,-0.0039205938,-0.0066200136,0.10499124,0.17871307,-0.36203307,-0.13156986,-0.62388366,0.014354258,-0.10841042,0.27252108,-0.34712747
family#F9F168,-0.42914543,0.06461423,0.006986796,-0.32784376,0.2064826,0.13477471,-0.051047366,0.22191887,0.14268918,0.28662264,-0.24841812,0.10043758,-0.25627133,-0.20657493,0.1064809,0.32238144,-0.30040297,-0.053206865,-0.048518546,0.16174713,-0.17929031,-0.008458299,0.0033176406,-0.29559126,-0.5587563,0.2817236,0.19455774,0.06964543,-0.38095984,-0.057522025,-0.11176276,0.27496332,0.31920323,0.072268605,-0.09840825,-0.10273506,-0.0698813,-0.23457073,0.23486215,-0.079212025
family#F9F169,-0.3550038,0.21317098,0.048909627,-0.31168628,0.24620503,0.31553864,0.15154153,0.06653714,-0.18033716,0.17871238,-0.26761374,0.19045216,-0.23939799,0.017456325,0.38723844,0.003655973,-0.15691444,0.37650132,-0.10474722,0.122664064,-0.36747363,-0.1893655,-0.08851952,-0.04995239,-0.5526243,0.2777156,0.050392244,-0.19138043,-0.31898692,-0.020942379,-0.09940162,0.23229873,0.22942863,0.12719938,0.22139673,-0.1028644,-0.07216316,-0.025653694,0.36358112,-0.195754
family#F9M139,-0.27166548,-0.10819519,-0.27473262,-0.30973938,0.08952951,0.43833932,0.111848146,0.27843803,-0.033483505,0.28052077,-0.051987085,0.093834765,-0.35820493,0.26356566,0.09725484,0.37140545,-0.12706421,-0.37007037,0.0926056,0.071401015,-0.28793052,0.03188864,0.09467772,-0.18454081,-0.6769004,0.417243,0.04766523,-0.11614686,-0.26619998,-0.11155486,-0.18526916,0.45538536,0.5143439,-0.054058753,-0.117054716,0.22070645,-0.106988415,0.18668202,-0.058938604,-0.16611405
family#F9M142,-0.4757974,-0.14950764,-0.29753703,-0.40037075,0.055536613,0.14017867,0.0018091686,0.54676884,-0.11424971,0.10277634,-0.26588985,0.30356753,-0.45072746,0.21090981,0.44353768,0.23422863,-0.3206781,-0.0185996,0.024493113,0.07925464,-0.16932033,0.033178583,0.24517548,-0.10561882,-0.40568572,0.2574173,0.042678803,-0.25322717,-0.19850962,0.25483558,-0.13301092,0.22746116,0.30190903,-0.1790126,-0.0921955,-0.09031857,-0.15985163,-0.45920488,0.06548644,-0.13410316
family#F9M144,-0.5439684,-0.10305381,-0.27377072,-0.38249525,-0.1153772,0.3205816,0.49781877,0.33012602,-0.08230479,-0.011032721,-0.13372283,-0.1387461,-0.28815126,0.25141484,0.1868229,0.14160089,-0.40710354,0.3486086,0.13736013,0.06948077,-0.15895684,0.025421795,0.29546955,-0.16290443,-0.20449191,0.2679707,0.22824857,-0.053324446,-0.2950871,0.18161963,-0.20194452,0.19937117,0.27634302,-0.14214714,-0.15671371,-0.38792247,-0.0546869,-0.009488896,0.16615474,-0.12913251
family#F9M146,-0.4198822,0.036957044,-0.24126856,-0.38194397,-0.20134701,0.14829306,0.42483568,0.28597385,-0.0058449027,-0.023130458,-0.3626636,0.13970794,-0.28560793,0.21142139,0.26034513,0.26119184,-0.38354298,-0.049390763,0.03652129,0.18684086,-0.16731298,-0.09806468,0.17958175,-0.26581696,-0.26108342,0.19044138,0.32838234,-0.043037374,-0.32615215,0.054867,-0.099607624,-0.015344946,0.3251361,0.034311973,-0.020544386,-0.190505,-0.10046435,0.20271328,0.26337627,-0.29499316
family#F9M147,-0.34193242,0.15725979,-0.3178467,-0.31691295,-0.13312341,0.050139003,0.4146333,0.24927063,-0.20558171,-0.067769356,-0.16649044,0.29009774,-0.08633014,-0.024033124,0.1934486,0.1689509,-0.33127183,-0.30558768,-0.036701605,0.29489908,-0.282083,-0.101599574,0.19732659,-0.10617329,-0.16408886,0.2616171,0.45091966,-0.12449262,-0.3994808,-0.3128544,-0.19608226,0.21374884,0.18717185,-0.0618685,-0.10508142,-0.10308131,0.12663548,-0.04580639,0.37859434,-0.39939746
family#F9M149,-0.25816873,0.080293454,-0.25896293,-0.4396729,-0.08141495,0.09856356,0.3520563,0.1764215,-0.12118032,0.053867657,-0.5851677,0.11162662,-0.17389573,-0.038012188,0.2733407,0.1640719,-0.31347868,-0.04188426,-0.027968053,0.19448191,-0.19358622,-0.08102659,0.2088556,-0.19820821,-0.30352253,0.18666746,0.22270678,-0.08271803,-0.24873175,0.017924536,-0.095645584,-0.0046473867,0.3724692,-0.0035684013,-0.005028503,-0.24968791,-0.0642138,0.18590234,0.3432452,-0.29782683
family#F9M151,-0.09070951,0.07195894,-0.3370992,-0.2242862,0.048575953,0.08475954,0.13954842,0.5114741,-0.098460585,-0.19910924,-0.40584895,0.32845232,-0.25918037,0.0075643226,0.2763575,-0.029617548,-0.39342952,0.47537202,0.06676777,0.2601826,-0.25189596,-0.2654604,0.08722834,-0.12728114,-0.3996891,0.21776946,-0.05050327,-0.22830455,-0.3440304,-0.04377378,-0.22654678,0.34481987,0.12279591,-0.13024977,0.20194238,-0.1840714,0.2145663,0.052175585,0.30666792,-0.1483419
family#F9M153,-0.1433937,-0.0031264492,-0.34423423,-0.22724147,0.05826951,0.071128465,0.11070768,0.5517715,-0.16279948,-0.18586597,-0.26069984,0.2848879,-0.2658598,0.19294547,0.2740255,0.039787535,-0.39333326,0.5428051,0.057070937,0.10347631,-0.23242065,-0.026536169,0.18988703,-0.07841211,-0.44818413,0.20972905,-0.088420175,-0.2529222,-0.16415712,0.021874847,-0.31566736,0.48575097,0.18001713,-0.09004862,-0.18402363,-0.1653602,0.23349819,0.12647969,0.28734812,-0.14661056
family#F9M155,-0.48476604,0.22326684,-0.37348455,-0.28716698,-0.054688085,0.10861746,0.11376652,0.2618594,-0.13838385,-0.120077565,0.1471402,0.2929813,-0.16091542,0.012309954,0.41944283,0.020444803,-0.4289177,-0.20237984,-0.32372737,0.14593862,-0.24099143,-0.25998256,0.18423004,0.019247355,-0.47947562,0.11157161,-0.045804955,-0.14727056,-0.32164162,-0.09151457,-0.2469381,0.40901086,0.06718225,0.0387973,-0.20938337,-0.3141608,0.20944677,0.35177717,0.31649035,-0.29875165
family#F9M157,-0.103041984,-0.15851852,-0.2899639,-0.28195253,0.3735474,0.5116276,0.36949977,0.3517475,-0.16002625,0.14897713,-0.16172794,-0.12834838,-0.29972178,0.2757569,-0.0370398,-0.14059287,-0.23745298,-0.10414473,0.18333386,0.16790318,-0.29791322,-0.039560203,0.15047356,-0.2552176,-0.53577894,0.54043067,0.071408354,-0.3212034,-0.2457885,0.053525835,-0.13387607,0.20510642,0.119786225,-0.045852903,-0.17803907,0.087432794,0.09813244,-0.24909937,0.19704773,-0.0014812929
family#F9M159,-0.1776998,0.013681543,-0.30055118,-0.2591989,0.08078927,0.04055451,0.36745983,0.42155737,0.0034071552,-0.04706867,-0.2843178,-0.023593977,-0.065680325,0.2374255,0.47756186,-0.22822057,-0.39815867,-0.032483354,-0.39663216,0.088015996,-0.31856623,-0.31520477,-0.023855954,-0.10796101,-0.44290414,0.6277957,0.22072025,-0.15813328,-0.42225105,0.15648085,-0.23715104,-0.025045611,-0.0032382994,0.05503979,0.46832594,-0.13058913,0.17035054,0.08474367,0.30055904,-0.09385182
family#F9M161,-0.31060198,0.17686343,-0.3627527,-0.34226143,0.039962728,0.06021717,0.27834597,0.3069629,-0.06846075,-0.1348856,-0.32740647,0.22896792,0.008884614,-0.026390344,0.13762619,-0.10362977,-0.36669597,-0.099569,-0.23999688,0.1648237,-0.36088154,-0.06113674,0.30286542,-0.07423004,-0.37231627,0.2711819,0.28995746,-0.2720456,-0.41792583,-0.038628843,-0.21261834,0.027283398,0.13134153,0.123047665,-0.3015647,-0.13152212,0.11580114,-0.069557704,0.37611893,-0.24974944
family#F9M162,-0.175807,0.008374889,-0.33045763,-0.30229065,-0.024776805,0.1722558,0.3624351,0.47097105,-0.12462403,-0.06175311,-0.16951257,-0.006383588,-0.008116721,0.23132303,0.2553951,-0.2678379,-0.39513177,-0.13257535,-0.30820528,0.07964278,-0.44083142,0.061807785,0.090203084,0.13008462,-0.52108914,0.7003595,0.20436199,-0.12417721,-0.06994863,0.1498374,-0.28708005,-0.033754714,0.10416294,-0.29362112,-0.28320983,-0.17105545,0.14272334,0.039646797,0.16168293,-0.3274942
family#F9M165,-0.40963432,0.032739956,-0.31178296,-0.3265985,-0.0025642875,0.18342192,0.2971777,0.1504525,-0.073717766,0.013058244,0.15270774,0.15677041,-0.25596017,-0.064502195,0.033602394,0.07428351,-0.38532943,-0.0029907848,-0.033105798,0.27820072,-0.15968455,-0.049124103,0.27218753,-0.3436502,-0.3635873,0.20111045,0.10266194,-0.07407311,-0.42980915,0.025099372,-0.28211698,0.10508765,0.36139917,0.041092005,-0.10622194,-0.35348493,-0.08118628,-0.001988887,0.3342851,-0.4219327
family#F9M166,-0.05769278,0.05133262,-0.3100605,-0.118415624,0.1493639,0.040123016,0.3677715,0.24875148,-0.11854823,-0.1980567,0.019930203,0.18795976,0.08920634,0.040551648,0.4073404,0.19678329,-0.41698885,-0.0409234,-0.19460018,0.32995653,-0.3766326,-0.26660526,0.25953236,-0.04003577,-0.42829382,0.4371614,0.1689038,-0.23813608,-0.38888526,-0.04704917,-0.35153133,0.10723983,0.04886997,-0.32496133,-0.073821366,-0.50349236,0.18982308,-0.13946529,0.2185411,-0.3601876
family#F9M167,-0.14139283,-0.11005369,-0.23550715,-0.3403165,0.29687992,0.12655249,-0.03147006,0.24544503,-0.13432714,0.20764028,-0.13001324,0.093875736,-0.29296687,0.23466118,0.31892207,-0.2847938,-0.37022182,-0.19350663,0.102885,0.23639293,-0.28862005,-0.117043346,0.070762485,-0.12294468,-0.5444649,0.51928705,0.12224548,-0.12590279,-0.11631232,-0.08886996,-0.30111152,0.2637774,0.33091718,0.038538124,-0.16641377,0.025453297,0.15727822,-0.38853794,0.13502312,-0.1038049
family#F9M170,-0.4236869,0.04453862,-0.29551947,-0.31032497,0.020375853,0.22280897,0.10851237,0.09489431,-0.11687734,0.19353716,-0.011077509,0.10900487,-0.1670475,-0.040699184,0.27174532,0.15851417,-0.28213966,0.13558607,-0.22224212,0.11509261,-0.22993451,-0.0422496,0.22906286,-0.25501686,-0.42367277,0.25932312,0.08570072,-0.06150742,-0.29398152,-0.057705913,-0.1872261,0.25977913,0.40847057,-0.05436717,-0.29863054,-0.18326075,-0.04824193,0.021634283,0.30752054,-0.18013354
family#Father,-0.73116845,-0.20955662,-0.26745638,-0.01423247,0.21629354,-0.010543542,0.45023954,0.23792063,-0.13351128,0.2439095,0.009938584,0.07393844,-0.0711871,-0.38306633,0.6134154,0.20733556,-0.013909134,0.1347352,-0.59259003,0.87437826,-0.052249845,0.41526604,-0.26016244,-0.5329871,-0.35698745,0.11339386,0.25655487,-0.014076924,-0.13131209,-0.3169555,-0.41632724,-0.017990137,-0.028741987,0.7208469,-0.08243908,-0.22349198,-0.011173809,-0.035085008,0.64462453,0.062400475
family#Female,-0.4802645,-0.28341526,0.34086835,-0.098624,0.0032805116,-0.005018867,0.16688909,0.0684819,-0.136074,0.37236652,0.054752935,0.20217021,-0.09158784,0.4017612,0.7003103,0.057049446,0.03299751,-0.123771064,-0.5293892,0.6810331,0.14704919,-0.37320045,0.59569705,-0.62500817,-0.4839731,0.14877966,0.33353105,0.08650154,-0.26181328,-0.056143768,0.057665586,0.069915876,-0.11139458,-0.5315584,-0.25475046,-0.12305581,0.031301208,0.06632408,0.3484107,-0.4449682
family#Grandchild,-0.6130852,-0.25634903,0.056658797,-0.28197733,-0.055147402,-0.0806463,0.22875738,0.4038855,-0.19168675,0.20920104,0.09998736,0.20600305,0.01834738,0.048612412,0.42557245,0.18027791,-0.01582419,-0.022343345,-0.52704245,0.3949789,-0.3074673,-0.09764966,-0.04753235,0.06968639,-0.5417784,0.18487793,0.10053593,-0.3568722,-0.16552228,0.009591698,-0.061105028,0.26675886,0.16326784,0.10810848,-0.15310694,-0.29896465,-0.13054426,0.28275615,0.4379832,-0.51720446
